0.03508678837951201
-0.10317084949311524
0.11762839893061192
-0.08550101312018135
-0.2598600862208798
-0.13447283040245772
0.3184735305360197
-0.018086360580291613
-0.025511501602531194
0.09525958510169186
0.033615779269800694
-0.12202735474195722
0.19570749591004302
0.3798252231554967
-0.0493099297707338
-0.053896254512875066
-0.09671140366706556
0.017129780035891422
-0.039094661004699265
-0.030431761577848004
0.03791835083376265
-0.08774841429246776
-0.03799494256840397
-0.08992103187637929
0.08223569529612154
-0.08306327304388177
0.005672398388860257
0.00971347901176896
0.03282492404339065
0.13241259443627912
0.061403104978273684
-0.2280199850193324
0.17274363260411607
0.16080271632834656
-0.3671166574011125
-0.18415226933866333
0.035297042851685174
-0.17537759587225554
0.016205496274394975
-0.15548455157939323
-0.10713789575641734
0.155099652586533
-0.0761257029181944
-0.14159226741008038
-0.021845163046355916
0.15084655531390817
0.09640818409567856
-0.039687813245118504
-0.018520920536067475
0.21809053203385342
-0.024791522612712696
0.0274648577804319
0.060336442468364185
0.1451256991600408
0.06765507518341349
-0.19323489746076605
-0.1412707935247388
-0.13301523096809764
0.10792464138849116
-0.15559557852878242
0.08372734335336207
0.002451586550658169
0.0013702317994805074
0.1065491961381965
0.04535570402454205
-0.04895347458504069
0.135887520076284
-0.14945429305171343
-0.08218592762848305
0.07267329190373563
-0.14118820798677562
0.12369683913704455
0.2514749077786479
0.06030852633147863
0.029546598284298065
-0.12716380650610348
-0.28794902545550544
-0.072548807848381
0.15497733090418658
8.69896068546903E-05
-0.052919546856160654
0.2188561047555569
0.19155141885856453
-0.002554550083334809
0.30994250758511893
-0.2816429338195498
-0.0606705541036252
-0.1869464928668796
0.02271193158979506
-0.004764113323128229
-0.0013424143568400951
0.03915991580794863
0.043960662919089316
-0.015623285181154281
-0.01163669760018941
0.002696379926950553
0.1536596094907898
0.11996993619183238
0.08996372945412281
-0.0564272876839316
0.04577886318802287
0.038941203742970186
-0.02471084936755977
0.09198187331921755
0.20747578955909177
-0.0973347703579381
0.21797591015828996
0.02502868722836141
-0.06425636940685726
0.13280537482424656
-0.06473416956524046
-0.07315036057986085
-0.15267218917006412
-0.20937818196354815
-0.12471909063602253
-0.18742324923455317
0.0576781253090943