-0.4811510919469788	0.5036523213840571	0.37500449739207947	-0.8319957235581721	0.02561142980106967	-0.1279343662392807	-0.4803771325375555	-0.028746562001399883	-0.3518855223447944	-0.08225468672155277	0.07662501107660043	-1.170124163566856	0.3193141792826579	-0.39933544101764556	-0.565647242944711	-0.3172769225759028	0.04528166540993065	-0.33300760668504237	0.24235491703515025	0.5427319365578785	-0.4439711400902068	-0.238833039016113	-0.10626230836703911	-0.19081490028108594	0.02400645327153413	0.5592256920431108	-0.453148111285136	-0.09882244922232938	0.8597371689056883	-0.13272657003788402	0.5673852511613993	3.328923411690833E-05	-0.35992738527088775	-0.24876711927210213	-0.1581762461218059	0.061536890519394094	-0.45581731351908267	0.036752588448327066	0.014747197805124021	0.12292680788383445	0.07604106307734418	0.8376539131114789	0.7250776530992962	0.28674502479732594	-0.633414195330603	0.3242766839770571	0.07989394583029784	-0.2323113950752114	0.8063022364359085	0.7477167172342214	0.21755609601389198	-0.5378801481561475	0.228451296142634	0.30202799077070963	-0.17584045287580685	0.46525225768609	0.12093282401609115	-0.717810551698003	-0.28345506712692076	0.10162379650823691	0.023017222135936915	-0.4346394206168326	-0.2653849739144907	-0.020664411949654793	0.05467022101675972	0.7611363355490787	-0.413204365513497	-0.26591370559315447	0.05413625341136713	0.2466372371985304	0.1634738148996701	-0.4915758359953458	0.5819291326522618	0.2615487764366557	-0.4126621267846255	0.14048034795087028	-0.37596263892800796	-0.13504603051288294	-0.462070016462087	0.7297769993092778	0.07601537533725013	0.3171126992049369	-0.014111602369408961	0.4607761596219017	0.22482081014557853	-0.22661912586534003	-0.2528826937480735	-0.18729237065545082	0.82517758252802	-0.8023486253207387	-0.08663933540265693	-0.33928028031084373	1.466884438070631	-0.36228223173219926	0.19168126933956187	-0.5249817711866849	-0.031226141389286127	-0.05419466151200384	0.1800236735482845	-0.10673204361280021	-0.03773553710377137	0.2693752285877402	0.059304188175051537	0.3711912878909924	0.06422002024219255	0.12978325535502913	-0.7118188131937514	0.15755701020691107	-0.07421920737183199	-0.3288138214415595	0.9870752301063376	-0.33344113772042283	0.2367902918799508	0.13005678949377	-0.07988957211291682	0.046381516648238	-0.09549016989297493
-0.39913242812800087	0.24356299061683634	0.5317309014994795	-0.21280711638071137	-0.9868321646532789	-0.5002470579201214	-0.21072047541981379	0.12820916639521035	0.8234998349567002	0.1992088678531233	-0.7430427178861935	-0.16795517290615716	0.32730682264257804	1.0707286272684133	-0.16098094392005416	0.21315564458656153	0.36701691667952324	-0.3573494614757952	-0.02456877793560741	0.17217174134720584	0.3755428254206755	0.07811118668318912	-0.6207059826362081	-0.9886650066389864	0.41691160185247733	0.8165162839884711	-0.14424845271944756	-0.6621341219966931	0.04032939140403611	0.7895895397887691	-0.41813862218010334	0.11863196515260992	0.07713386148107189	-0.11011406854929327	0.34731913870879355	-1.0552479493625546	-0.007493449583595555	0.6284933739084422	0.170831946488968	-0.29196928521992854	-0.3922771726708895	-0.17026608268417026	0.2916308875607733	-0.5694178385841241	0.23995808873969496	-0.08738842790340683	0.33588413008720847	1.04513822965998	-0.0540493629086177	0.41119397036836003	0.026804506500204967	-0.2690990063368464	0.2060582147295303	0.2015740937146184	0.41778432971040835	-0.2706676210851157	-0.07612289115031327	0.28919557439771976	-0.0855376300672798	-0.25815255084993927	-0.5654016418520019	0.8094555611615277	-0.13699159429742985	0.38292541078144343	-0.18626162141112307	-0.675942731981056	0.1703993467428723	0.22055599944019888	-0.17439866192216233	0.006600247569905209	0.1365030850212384	0.1567075853955033	0.5637454877035136	-0.3982537755551381	-0.45119934376758186	0.26613211375719875	0.16824443760400123	-0.03299101605889951	-0.01919526496119276	-0.06890097396448264	-0.9756486122979391	-0.27090057358867486	0.42803581571710575	0.5238970003302196	-0.16177997100231034	0.164152730096893	0.04229663865575626	-0.5227168315072025	-0.026555261909059706	-0.09811698949346209	-0.25942512505748305	0.10918689594285765	0.37000661574224003	-0.2277860296828036	-0.22063774108149176	-0.5148814317214558	0.12426609664915783	-0.6263656150137482	-0.733304511982321	-0.07726472943013026	0.40094879125283783	-0.3151479211954308	0.3117622980197989	0.3661296921801482	0.7365618711170996	-0.1386255602349639	0.07987733716247956	-0.3815041264912588	-0.04855535807948324	0.6018408864269368	0.024766551878914186	-0.4546858226033609	0.08493790915059247	0.09523000017531079	0.9719135675441445	0.09510346512044328	-0.09310754911220012
-0.36038504706261987	0.1609160380690496	0.8494717645943255	0.09895615333428173	-0.25519854012266907	0.15159203076242436	-0.3849525480158481	-1.1234657359817477	-0.36051223264307275	-0.6598105559820897	-0.19546351442625068	0.09405199394118399	-0.044711543860178046	-0.01629144289446064	0.32974324904607333	0.37580280578902525	0.34286098168859774	-0.5799607152650255	0.79421906274979	-0.06581911421338593	-0.054104417565477916	0.20580785661705026	0.4351660662270643	0.04445809411159598	-0.13084037114315017	-0.36117933951125863	-0.4803184719050688	-0.44933674957854597	0.07602548857542814	0.03205399961850824	-0.458183767550252	0.06591939200053355	-0.15884975014935845	-0.0039793109205405325	0.28360360560869685	-0.47264010580937554	-0.4366566302232464	-0.1009600998139601	0.5889309927366905	0.6424998722526789	0.6731944613377103	0.16473784134300334	-0.4778768446460347	-0.2575941773793195	-0.13928320685875634	-0.12599261202608536	0.6120437983757848	-0.6386263577560197	0.5289845649774471	-0.1959840572806682	0.6104020777054081	0.39017750170753573	-0.2368049604042236	-0.45563188331613746	-0.25427232583818665	0.46421684534008795	-0.5098247990191954	-0.062730145548327	0.6455037305666058	-0.0593331148271201	-0.7996678191173794	-0.3660409457181643	-0.08271510766319862	0.2295688655520009	0.04391245603829689	-0.2276867192003473	0.34545331681074803	0.4693154688137602	-0.12046023194283374	0.3722686520811288	0.38185395057074917	-0.2712725710199843	0.021243760806555375	0.5859764667092462	-0.17101183005901663	0.05167514551469404	0.9901274494127231	-0.06068828663605949	-0.04386729714608038	-0.6484903096923271	-0.248715795041272	0.7465157303174449	1.344689969990238	0.05370331785614662	0.2077655367485562	0.1745546596173906	0.1405159156634416	0.3479427921631656	0.2585986119242056	0.6528885347401194	-0.6316315402445344	-0.8841645020003146	0.5940522952147382	-0.10121875834184586	-0.3057061559701629	-0.09042268265435446	0.35053154302779616	0.27222162055470794	0.12101329010636531	0.28299658708370856	-0.2222286663568477	-0.09788411698252615	-0.3131154497318048	-0.5679172292533191	0.1820626961698009	0.1467455321375067	1.336932661323644	-0.5423168424768388	-0.629782833951537	0.5048386909517185	-0.22932230841103496	0.07046665946898278	-0.4407615319577966	-0.19487491326158127	-0.12021967462764555	0.2696834944360652	-0.7179473101741876
0.7121295719928513	0.10261671098719799	-0.15801427876748378	0.1264460713878012	-0.019512271306566152	0.6338765111780985	0.0512336025240845	0.6429121617854855	0.09784466423664592	-0.06299580757955277	-0.5442029157889419	-0.17576062053955566	-0.292519595981185	-0.09447434727511782	0.46851091328258077	0.6241816490478819	-0.592001438478569	-0.05370918755396378	0.2849479844974806	0.2384102973633845	-0.15607397187018038	-0.11218490476149204	-0.24973688885969247	0.36618356179947126	-0.6406085608430455	0.7839893058620092	-0.11191154183291052	0.984564177418591	0.08712127903533042	0.02368237448652268	-0.5214070383420837	0.0885564429833202	-0.9144735535184791	-0.2849256293271933	-0.07804439059126882	-0.3106605224747983	0.38405129457952186	0.4170632868035096	-0.07688207957536357	-0.2910126606165631	0.6033643468339346	-0.4687832257358291	-0.4505644777200577	0.19203151554256756	-1.023595583049392	-0.45014018139509726	0.28529437346593706	-0.06719592459888582	-0.9555075692364332	0.08503571992544157	-0.4799659558019975	0.016822739526240492	0.5346735587313478	0.0027784861375713802	-0.06671597189610416	-0.1033181642422994	-0.2648123582375263	-0.17822888865273748	-0.5778490208319006	0.032489608697676864	0.25187358679853605	-0.39533252878741015	-0.08468160830168633	0.5506965911926125	-0.16790077079447496	0.750083189164606	0.5350827039380688	0.1616727212191732	-0.4244453300873163	0.09590312225724014	0.198647504639644	-0.13997211060554238	-0.4400261994097263	-0.5702407068718495	0.24329125426297554	0.06889252895168348	0.4784023154060067	0.21571868989757556	0.6397638323271876	0.2778175020894526	-0.7536814920637736	-0.3483550256860746	0.4541515688493446	-0.12379798030411701	-0.22292996648718233	-0.29520945388490494	0.357345726645765	1.0546674945378876	-0.21494611180439327	-0.16102929079328981	-0.04808195631218905	-0.4797119568247392	0.647608698622568	-0.17226454473687722	-0.3455619821197822	-0.6782900724664225	0.40394635206399965	-0.09193111746926065	-0.7834786866282725	-0.43568198732690094	-0.2671368689824551	-0.5042606114536652	-0.6052570717567254	0.04434983067778056	0.19417897696891023	0.3900716257823217	0.6367384110944353	-0.10646866163512923	0.6176794525307877	0.20649515201611296	0.43235316606019675	0.3315238308639857	-0.5855143425556842	0.05052673682366286	0.002677888401611332	0.32688745210982434	-0.008450765692182779
0.10131621414289502	0.06445747871580716	-0.22015956676492326	-0.4351080554671101	-0.41409399158786975	0.1259836619571925	0.2502597679231699	0.01663350212408501	-0.33031902023771625	0.2557845641663985	0.3607445715959639	0.15870324983717718	-0.8202365262090904	0.35686174998928144	-0.053440977223121806	-0.14496368283619776	-0.06541879595673473	0.332411330218321	-0.08754277893305959	-0.06752539191975969	0.2778540844147445	-0.31270411905717505	-0.8487784097716229	-0.31220627257191474	-0.09051757012076918	0.5051021612712954	-0.09744455123689424	-0.38938983132864385	0.8084031719017601	-0.3592371529816437	-0.1199947103937617	0.966039647533752	-0.28161803807246905	0.11669076626184591	-0.5956580386776529	-0.12002698405663732	-0.10747908262896437	0.41293430742064463	0.8932620744374615	0.3799982804386259	0.5477561896818477	0.15584169459856334	-1.0921467746668918	0.03359357102271124	0.10768948823866709	-0.1447882353263741	-0.6589873677813363	-0.3822683669350788	0.0014097542159436796	0.26558458037347576	0.23683933041393812	0.046844190528364374	-0.007675774789982229	-0.3635648411536775	-0.22321262010508688	-0.1878444981214095	0.6520048072344284	0.36375279233241176	-0.29025853301404386	0.7637810170831756	0.506259745761652	0.5688785474108383	0.6104865829410578	0.13712332430407345	-0.591137215980815	-0.13053156224573303	0.7541648929250401	-0.027557741176153637	0.17218193730220885	-0.4536547695365773	0.6350937521638418	-0.4212967322960924	-0.4948602796484965	0.43740734717003443	-0.23446766995192883	-0.6399720346249146	-0.48626134234333374	-0.5284180543107636	-0.13315045106115073	-0.5431513896213951	-0.02595118693419991	0.35421702454183585	-0.3404952734279183	-0.41122651778304165	0.03810762995995499	-0.13407970914954723	-0.17656360046357514	0.3249221772778683	-0.21618154745871124	0.3036552661313347	-0.10257046841317097	-0.8608256787256457	0.6838594965621728	-1.1165705780954578	0.41994714114724957	-0.2649799446707394	0.14720260780354477	0.2931262947685413	-0.2879246698911041	-0.12058750553677505	-0.21614117636355956	0.16622062082657008	-0.3042235157330276	-0.2833999341494589	0.022222168620717766	-0.0462325036727071	0.34115114920180256	-0.7386368286759128	-0.18640023358208163	0.05504960684999626	0.28111977325425985	-0.6780325679081407	-0.9758661770315313	0.37343111684673647	-0.23740287317706613	-0.6151629947089055	-0.023166397659017242
0.26515035847368024	0.3033963179792473	0.047067804264866835	0.5005171224478654	-0.18477909718402263	0.4387705603862802	0.34431966662515956	-0.06309764194093723	-0.08195221162523238	0.04458681425327294	0.48783524546876167	0.41955139922232926	0.31150718155432	0.36770220255435443	-0.1868454361921074	-0.4346663770014381	0.012753803507268752	-0.3648653607835855	0.0698488351488073	-0.2763516890371743	-0.10333585831398943	0.1911744031737757	0.3898176038680295	-0.05390712583855454	0.30489081031954623	-0.17026569244034057	0.6301800834144828	-0.955277136781342	-0.4183888637317076	0.12247535986976857	0.418023387800438	0.6949755853533355	-0.3285074496118116	0.4852589763572776	-0.45637044245831904	-0.23211548247149164	-0.20523868115770308	0.0885887475817277	0.005187211332774866	0.12510132559466924	-0.08986484367219488	-0.21647585083990983	-0.18418323815141424	0.1419751631850975	0.6177609389039024	0.5643462089334415	-0.2787888266116142	0.18500190256860458	0.41363217077703784	0.9193153030605998	0.244232137111609	0.038818396493835	-0.13913187895749574	0.6315537840951545	-0.6168442936267601	0.48696258166304196	-0.10582210306715978	0.19277748670285352	-0.32328174775618157	-0.11610614038752982	0.1006143557108204	0.01022977233994409	-0.4783308715009616	0.2922287991023195	-0.028371335005007693	-0.11305854313807456	-0.5089366138315893	-0.4823790754133551	-0.8165334549255407	-0.11101512803076459	0.20785722498449605	-0.584605138677938	-0.0879665505915712	0.16715570990148762	0.4569812162095979	0.38461202203056905	-1.0676027605506972	0.26260302783663453	0.5065184670766438	1.0392610217994407	0.24858629363482063	0.521332210630348	0.39779604612238184	-0.41237813841534954	-0.5701792810151396	-0.9577319757969622	0.45128721800520394	-0.02339499066983765	-0.2380424219998535	-0.0024323617828625474	-0.43946447700148894	-0.06246073881835732	0.11919001552178189	0.9932452703409514	-0.7028013262111782	-0.3970437533784184	0.6177672778061539	-0.06116724693852581	-0.8483694283522943	0.00043107865588591025	0.3881935681177179	-0.31019503750989535	-0.19130178972521775	0.157198254547509	-0.04153494975362395	-0.0955543086056883	-0.2679407565781744	-0.0313961064826427	-0.15135647179056744	0.17919718311389213	0.11918441498554119	0.2942068509649819	0.03462034688153621	0.15127717000928048	0.18256628570862515	-0.5747925947251858	-0.20940692392478333
-0.9703302640710969	-0.3039757538381016	-0.16454818893934492	-0.5259440944643018	0.048733391385233665	-0.5670146408174516	0.07505276920080263	0.4088624454798878	-0.2965795387734499	0.010016421438408965	-0.0576493705586084	0.32706557683882165	-0.6150558507199326	-0.5093564513942291	0.15786980859231695	0.36284058894131893	-0.2301298980345336	-0.29465776063677906	0.8056153423057374	0.14114730400447384	0.3375515253285543	0.5662234669771579	-0.04862319480488477	0.3668747759012429	-0.02979893267267789	-0.671173406140311	0.22355566218034356	0.08617685599442501	-0.3248902465522705	0.3708722436254722	-0.30402373049990006	-0.3534576836060209	-0.016259246026299606	0.33674777919194515	-0.1961410025615624	0.14807988316438944	0.22329113253385519	0.7435865547695563	0.4167976330188805	-0.28020667254927506	-0.18174458219412445	0.17488398575063252	-0.14733645952865748	0.4623530578285822	-0.8126535284912355	-0.17585062131152243	-0.7890598446843884	0.19047674069534587	0.6038027618633215	-0.10440787937644225	-0.1962887668559707	0.04477521319059921	0.21479318843014927	-0.6188984699852602	-0.1710439081082803	-0.060327240660254675	-0.7820870948161455	-0.2897719192298678	0.024345229392324422	0.48627038731827127	0.13394467453166412	-0.014685812472231946	0.34257480835934273	-0.9181980887261172	-0.2368293899542501	0.05801348360663304	0.2796297948998167	-0.03598972970394069	0.32897618677602647	-0.12236352392998562	-0.31729439829325345	0.22521601245278883	0.2623964744414166	-0.6996767716345899	-0.3458497211331091	-0.4290839456643785	-0.2432018242788284	-0.31964860823973223	-0.1029539522739833	0.3759835635553185	0.008598735186134514	0.8561255328250709	0.3434662205470384	0.1123628469562517	-0.5277816861618111	-0.11800299558632059	0.2847250222336166	0.0764423786354764	-0.08503297053733819	0.3211197369161984	-0.05471754977802979	-0.17600337344798545	-0.031109641330220015	0.32959554441821504	0.46634912691364744	0.11520752312327315	-0.1773638210440893	-0.05936517221731012	0.21409619384704315	-0.345811336966705	0.6133125901943799	-0.4453400358569933	-0.05060747006055638	0.7756673155839932	0.556672694092572	-0.5219231413753397	-0.05799877511850092	-0.27674173130570245	-0.11609383068360077	-0.0540715193639005	-0.111862431779201	0.4011247869720681	-0.2211752312639061	0.40634293911180147	0.12311452218085252	-1.0660321875108059	-0.4583908106944577
-0.021161906148211257	-0.08629236939380745	-0.05266662679545017	0.45099737229375764	0.4417970787640799	0.18903594649157743	-0.1311079111003612	-0.19325417558904603	0.21611571318794276	0.12942216737200024	-0.5736625726204253	-0.15155201189796277	-1.1663303161367655	-0.1015425065407857	-0.701996537207893	0.03689425151370779	0.755336308584334	-0.46960336845489775	0.08157380096158451	-0.04518750837966105	-0.21374653540820984	0.44831235446557843	-0.29480369647149596	-0.3860436327257944	0.31123367632197857	-0.10363038550214401	0.17118508027153814	0.10585953186156571	0.6147136228307608	0.288148318973011	0.2943837782135441	-0.07663265970840924	0.30438129167527433	0.17089780561317544	-0.28497701816053256	-0.592665598114087	-0.15202684050526552	0.12696998280815044	0.39751783300731014	0.07521619584109025	-0.1287839166684123	0.6376005000585301	-0.04704607705004158	-0.11016737829170456	-0.4525923311599449	-0.4251722077006391	0.25290824554095986	-0.49345944118132845	0.0767469437419417	-0.23288445087409254	-0.4456419282369242	0.19085155990638988	-0.5085094736429152	0.10943218323734627	0.38706523113767005	0.017888318487354955	-0.10879959033826116	-0.6328727421182915	-0.17405045933034285	0.31285997697808327	-0.13214784915231878	0.4033761213104797	0.6699656301460768	-0.26791835844486545	-1.0123242820895677	0.4017697344471501	-0.4898599255838562	0.4010327300187204	0.1438243298046558	0.18635068759077117	-0.5281590018418529	0.6371031494253969	-0.007331898979898876	0.38369836790529877	-0.16935616004206386	0.2579587854576846	-0.21041833912124497	0.35263386428226545	-0.7174074228639574	0.5450643767558311	0.27413707088461664	-0.20478352248252765	0.18685816748851575	0.14762270846355702	-0.4650597497142227	-0.4264105042743458	-0.21887679405558436	-0.32467361062959355	-0.36937641345086913	-0.7401517244927743	-0.3036759120681807	0.08438835950291408	-0.19318398260832326	0.778629574904611	0.5095877554656653	-0.08624831924456758	-0.37950490503522627	0.12539651422801712	-0.13266212552368956	0.0913891074766134	-0.07130134512239265	-0.09033894502556851	-0.6985948280274669	-0.5369027757311373	-0.09211397600223244	-0.28450114610329796	0.25508956192119436	-0.18348406858451524	0.3654711640057584	-0.005623609136136539	-0.30820155693512447	0.5706498244783696	-0.23660379271507545	-0.30525640956195843	-0.5867187272446367	0.21207567813968162	-0.25695045111283077
0.5833315763409261	0.26619256525340995	0.32286284272807747	-0.7641986810634356	0.08245750797657524	0.6466364313097362	-0.21470025948070984	0.2838495451938073	-0.27866738707878697	0.054215673242550375	0.6559488921590833	-0.6486297531806676	0.33678318949027913	0.09745871764705016	0.1429005241794634	-0.04576337151674063	0.12022995412738118	-0.1546588665450407	0.5329807828986628	-0.4161668679579288	0.409615428750118	-0.401525723319353	0.152032022418026	0.2276878104847312	0.01905706238874073	0.11753890949632353	0.04016408071582298	-0.4695779775367763	-0.8833227620992611	0.1118761160861105	0.19405219122026174	-0.46545197587696263	0.24772256177809454	0.10232547370310167	0.15928004850890326	0.03194353806056999	0.5790358121463549	-0.015157974630931253	-0.02650504595573342	-0.12296653011706603	-0.46163655830152356	0.51467225828231	0.346300342363888	0.016211698325477978	-0.4227748105978462	-0.42784415540453297	0.3860562044801211	-0.27163850482167146	0.3820800245051956	-0.8013839916280594	-0.09926824966570491	-0.8951313129259222	-0.5824849070288364	0.6450855134252442	-0.12728366156078474	-0.3617494590182798	-0.03380979022681203	-0.2826170087209971	0.40867670872932527	-0.07624852100325802	0.2243647860221843	0.25820170226956857	0.637950716455778	-0.5831154761165307	-0.023721171737948448	0.38000067525479836	-0.2132126118732083	0.3662247623946293	0.03682641640182451	-0.2955578629498737	0.4979473468277563	-0.268190792096483	-0.26644455500598546	0.02541346908525669	-0.3437240448335385	-0.19224492995093434	0.07889814204945006	0.4321797861387731	-0.41196790775379916	-0.768123886453378	0.2584596896636382	-0.17331144982411623	0.3839744592570358	-0.06981645498423965	0.40583787405263605	0.5034610058045228	-0.035228969140095136	-0.013992930711126443	-0.8168784808736701	-0.2626820187207934	-0.045699920534488334	0.2006248760726274	0.3303327726935023	0.6667321747863835	0.19709898561455597	-0.029228105482000638	0.7748797616762622	-0.28179934038222326	-0.5740119523221606	0.1687320599141747	0.42770579461878194	-0.060521294368460654	0.3123704344669768	-0.13815770811968878	0.04016078046412262	-0.10689655787369305	-0.1582218762077564	0.2484705982268092	0.07308792156581578	0.1664050483461581	-0.7868676196870618	-0.16253362956124814	-0.09702969353719315	0.5522858553707454	0.10544933508103801	-0.059708272576026726	-0.33238398709140204
-0.4453334251596159	0.3343530282853606	0.5240353408051729	0.34005012736492135	-0.3736240686807445	-0.2628841866524796	-0.3877346435604309	0.3928876671706209	-0.025120247160075698	-0.6139308211604557	1.213110158997718	0.167952534032328	0.0813812851498003	0.15904614478560258	-0.37704316563930695	-0.6497667661361324	0.05330497001726426	0.21436522789400655	0.0489122636039169	0.11996216127752429	-0.4401912333092391	0.30725069839356034	-0.28767106719681845	0.19152668376329593	0.2738234563879624	0.4802362765254644	-0.28018315203041105	1.4900649660211052	-0.2935700397258811	0.3665914669079677	0.13867737579016018	0.12262732969897126	0.5448356678748103	-0.05314949734014706	-0.5484342252712993	0.07730730843972425	-0.08985873689892676	-0.4412397367621617	-0.1012410878263972	0.021110256456908248	0.7282519555657077	0.33069116583886926	0.241101060289665	-0.08859772602556862	-0.18156879976556362	0.409953029790895	0.0022238685456557714	-0.681321024276448	-0.06909177811333893	0.6132111810438373	-0.7649470266468957	-0.8583273141142004	0.4367609609584496	-0.44328507730528643	-1.0062757322452962	-0.2896979172163061	0.5092880675812026	-0.38441574178639437	0.3890960478585632	-0.5223951656057179	0.008675542547680295	0.24476848981762442	-0.09020687454901159	-0.15847506783693466	0.28415933282381695	0.16367419920710005	-0.2641809953292274	0.16783429349280893	0.41064443417676877	0.5063032334777051	0.3195971890417302	0.7198600051090545	0.09255713351474745	-0.38113867288534525	-0.2770853003127688	0.22493035234727277	-0.11910425098479475	0.3247405783670341	0.20304817135378186	0.3989169918514078	-0.11256017162022412	-0.2888949293523238	-0.07595590025105928	-0.3511851123843098	-0.0015698974379234714	-0.5315586959431804	-0.10224600815511925	0.3269352870490785	-0.52462089814364	0.7239211109208861	0.026648581878221056	0.1232946304822937	-0.007175364568198955	0.3588564170994708	-0.5867427653538027	0.3786113993472324	-0.04053286855951748	-0.6744285562141268	-0.07410665241802517	0.11208527531650296	0.2563185845084611	0.31797158103936585	1.1094992320342711	-0.6755839505688908	0.21809240219855502	-0.5265521838708477	0.9571195581946966	-0.506566940906978	0.0009352707228483729	-0.10545934698106504	-0.24922310301744652	-0.5778529428684879	-0.2759042594942659	-0.2694849328834763	0.4786398902381682	-0.18533629874825233	0.6835562217651757
-0.11586989733049999	0.484994824759232	-0.6269582428662857	-0.2112544029293628	-0.3705558275358879	0.31978526659058004	-0.0540416778532747	-0.2243652610789969	0.17325511135961005	0.043588596596751995	0.12904859742037886	-0.3851005874042228	0.13707336887514626	0.42603085108366356	0.17647700324836665	0.020430286133137392	-0.40859056548667755	0.1495292486156479	0.5822859753070084	0.24635108118555848	0.07410034782330585	0.587682670673149	0.015936992267975052	-0.20703017583944786	0.11159155716079466	-0.18446716092394774	0.8905607352275281	-0.013311767611145562	-0.6776373537586248	0.6889490965905715	0.019657172810595803	-0.26767866131697327	-0.2844637277575103	-0.46140699890132525	0.2797473511395939	-0.21162702570997022	0.3033474510504241	-0.07307526965474911	0.5036001808717832	-0.04444807016419389	0.09189620494947201	0.10220800987257822	0.07804286193218869	0.2137207181277536	-0.025592996260009278	1.0245208851594287	0.09454569158592314	-0.07845031325540539	0.2154556013194973	-0.30910557234400426	0.8239456978532355	0.0845474921946031	-0.2927518080653794	0.32665612737385635	-0.0887719488019571	-0.3779372840185555	0.3966840522985476	0.2935577584302219	-0.7993732824101968	-0.4462194104546024	-0.6264392075712502	0.32209941926883173	0.13737840889225691	-0.3944417274840872	0.0564819655433334	-0.12168277814593076	-0.06977694280507295	0.3553443439306697	-0.07159366205268251	0.6569031043694822	-0.4322327681957767	0.13155076994765547	0.03987039365782578	-0.6278158587680042	0.17551522114321857	-0.6471820620414562	-0.1181615392424674	-0.3258875290173095	0.4782991097361913	-0.08488907321272195	0.330631976720291	-0.2638287429888365	-0.21494886081507267	-0.16420900983404355	0.495824041461479	-0.1353700739560478	-0.017910549229549974	-0.6356777032442429	0.4912941708825269	0.7771118999983425	0.00902974327822196	-0.5628357985896673	0.34364664689803226	0.12575210621633176	-0.41175038616732584	0.10066405174861141	-0.0336997224207253	-0.14553951414295835	-0.20600398568786085	0.2594177947093454	-0.6620695007405957	0.16157387087065464	-0.11824005284540648	0.1447226347840031	0.17774773228288304	0.31134937388905726	-0.8065242341897535	0.8031673208086936	0.06114388661500195	0.5320157807545062	-0.6861243011311459	-0.08927249533109939	-0.6765997759312771	-0.2782432960366143	-0.9475136986351482	-0.20669493135999223	-0.03022969352784826
-0.39455662753350046	0.5781734403807218	0.48804981787948726	0.2936685443182765	0.6096938568847302	-0.9021661293939924	-0.48941636193462706	-0.6210799094829137	0.2567564559381043	0.17301947350498673	0.21509153753579247	0.29209685430389143	-0.4862515041553635	-0.22106343913847407	-0.5519771776908009	-0.19727540864178708	-0.16928320258802085	0.056983550499894384	0.09063313504031165	-0.3076397510990711	0.6778569199210942	-0.3281736711554406	1.0552616128486494	0.6208006182508448	-0.49335757091547644	0.48738628735756523	0.10048475752153962	0.11158663238945254	-0.05213889206440851	0.2982479832635487	-0.17884768381702335	0.8625894013146187	0.35615779667965536	0.12922425067620316	0.06035678389443478	0.0947733859778347	0.9059389818299837	-0.36257746659502293	-0.20813586555529373	0.10568600418994598	-0.030484141645037568	0.0023343659365187962	0.5087087241461832	0.6968365775415217	0.22962596462211415	0.17196011226791363	0.3639693041633481	0.3551267931616872	-0.3202274043653458	0.2954441316753917	0.3301543178973446	-0.421273187931835	-0.6206799608888535	-0.05424325944406937	-0.802723173947181	0.966434297065152	0.354512213306688	0.6430647989507434	-0.47953577156978267	0.24365766494458507	0.12799305719106874	0.5570399261419806	0.3765910029078558	-0.11101921785026297	-0.1530376287472781	-0.21779967266079103	0.6503964949741566	-0.32565688849602853	0.6802534347567795	0.6562489491814121	-0.18181738197934763	0.10090350642448372	0.24149231970466567	-0.07311524717108528	-0.18062269916186174	-0.1105824536439041	0.2680584317355354	-0.465302019157317	-0.38103228754410795	0.05450498883620044	0.17080640716762205	0.12480299873641056	-0.4229098689819854	0.08189427357470723	-0.2004034408675078	0.49554179893070893	0.4528082106091226	0.5936359618910488	0.08945788319478902	-0.5984321145133719	0.5642178537894181	-0.05172182394151392	-0.10045566987687815	0.3941503693393391	-0.3875827546631151	0.7542341641045041	-0.626570176098143	0.012196655677257964	-0.523782575102885	-0.17907774739407994	0.43673311934210757	0.03016390927147346	-0.5494993727999745	-0.7195869837716178	0.7664737509554527	0.1973874255610583	-0.3806100379035382	-0.056467992670388864	0.054657603072931084	0.505177885319239	-0.0927487311914482	-0.06257681942725846	-0.40985872914072147	-0.13259248293629244	-0.1101065179321584	-0.12775544280216794	0.20145771552322592
-0.1937949774119137	-0.4656921138127988	-0.6104552701221229	0.46835567394117644	1.0232561317186026	0.7308751942275419	-0.4147745291129313	-0.0038264490860402023	-0.18582346535741961	0.040459457774646865	0.5948805855951541	0.038775423204236645	0.5565533956830968	0.3139653263044825	-0.6205884836888002	-0.36381074503493965	-0.11909205192571269	-0.04155439189880745	-0.31062072510332595	0.23848608461622722	-0.3170526364043112	0.20297065118551785	-0.5320028429055258	0.07412019246420319	0.6855992834888067	0.03240356898469799	0.17345355909546487	-0.29312953800500596	-0.4896336599436293	-0.2719819291393801	0.4788209559223022	0.07125656602791346	0.2977900005648982	0.38540568867432534	0.021657914565867947	-0.007503933164636138	0.17840411802985967	0.050047567162828724	0.04170192888051508	-1.028520534762014	-0.0762399796882065	0.8720174285691435	-0.46309768646143895	0.04391391619988122	-0.14223703390494896	-0.6048454799254799	1.088265424991855	0.36178569397288635	0.21418749715331598	-0.5220164995286356	0.5220048541880057	0.500222058513459	-0.1373850342361035	0.018522151859268306	0.44292072599240523	0.0251634026634306	-0.7106530565250071	0.24634447772268436	-0.6313369381081214	0.31945614114267323	-0.005151446466882101	-0.3175923488625392	-0.33311343127724324	-0.07776522003895807	0.14859006606918446	-0.4303360635327762	-0.2275164917020052	0.05055976342248115	0.9171790196952407	-0.3035560796383208	-0.14164858428483773	-0.07963722475473081	0.22387230186794654	-0.4973307839506823	0.4176046418081139	-0.12183926695859092	-0.34983272407515387	-0.2826046778003342	-0.17372006718835611	0.276776752586897	-0.7939353873117705	0.4621541076156311	0.6464701403449273	0.5409172702771757	0.08136499317450939	0.2287751069079154	-0.5643624505513589	0.1947124776908936	0.14460790901303527	-0.08567202152670231	1.0011518319229702	-0.42289585620012715	-0.22015872832398248	-0.31687893882508655	-0.5206627561125969	-0.9310546899241006	0.05627705548286374	-0.39881939826076435	0.47571721807000783	-0.08187177632848168	-0.043584309821137646	0.029743857166027236	-0.8217956328346886	-0.07315967933294731	0.17321040059531626	-0.31649645512300295	0.3823111363862779	-0.7592046455888595	0.0809259639192977	-0.05322863501272542	0.11525576551897676	-0.46201773005336483	-0.12797314917597657	-0.41411140593740714	0.15667942721343003	0.8035617620171658	0.5765340569590702
0.21616736945986811	-0.43876819083769975	0.11928242779699333	-0.38399970008237877	0.26295745870269965	-0.5130876237158202	-0.21002863600557212	1.1398888279268233	0.291791225328651	0.10185742617681635	-0.4420897280361259	-0.20875172446778317	-0.5925435689411082	0.14538205744008925	0.07086617304188342	-0.17770103126529588	-0.23646130961483416	0.4092729399556386	0.06420751096124255	-0.23326108663618525	-0.08620357570662013	-0.8562369725379847	-0.05931796811591428	0.21595963968004475	0.1031391770958427	-0.654215051173678	0.17229027144653206	-0.24247521343665426	0.31842356966204505	0.01746744674271644	-0.3142986111478602	0.36895308153210354	-0.30864046603951056	0.3490939870468021	-0.22469994447138592	0.3694504749597276	0.08306523127467072	-0.08132582147257478	0.010622344210112555	0.5013069201587596	-0.6878590290263816	0.28797185686898746	0.5642032524889542	-0.14488750854280255	-0.13778864237839938	-0.35538303664873183	0.20189275182327818	-0.6893026103229956	-0.25020745144703244	0.32699808566166544	0.29300812084504924	-0.3293934645952607	0.31041470738586274	-0.27058958565124813	0.2527390022689094	-0.32085133151527906	-0.00043199073634747387	-0.3376933231765351	-0.38610250442594973	0.49339603281727984	-0.7599655034305053	0.3195935362533186	-0.04087645493082809	0.4067004598115626	-0.16184195189482814	-0.1128353610991949	0.15182619898333102	0.15381209428573206	0.3121123407408689	-0.4145507941531828	-0.05170247482565202	-0.3888596070008582	-0.7675020579706474	-0.060112284092453415	0.2506207863808946	0.24933238238126165	-0.7676693296531388	0.21414741857817207	0.21957851787945956	-0.1124599939152732	-0.4250004573919525	-0.6795156099477432	0.6364197330702251	0.8585575973081632	0.8117989051209905	0.30892378876933946	0.9461059945069875	-0.41897070525252317	0.2538569447693704	0.09044531009825992	0.2363772480511474	-0.03098315194653229	-0.5087941189591344	0.41114420077186375	-0.6145673483681771	-0.6423044156365738	0.8736774271076055	-0.12297102420906054	-0.8024724114185673	0.15230921601024522	0.4755536035418771	0.4552856839141068	0.6556242866971863	-0.03844097373877749	-0.226396327302755	-0.2583052372938358	0.45246901439772813	0.6159575320235662	-0.6181761441123815	-0.180489473555527	0.8133196200969681	0.10457573393708954	-0.18735371288973457	-0.7089023470105165	-0.34205789813438126	-0.12358634065368217	0.2697225897922087
0.04921987836491185	-0.6857597702742556	-0.1956303617932733	1.0731895775771887	0.21214663017770777	0.15273330681457573	0.12162931139825714	0.16063222078107986	-0.4343449035270451	-0.47856703886804025	0.4196119335412891	0.16760231177441645	-0.5317815493585557	1.2630094564513212	0.10317106976165129	-0.3514917082612159	-0.6319723398368188	0.9294325097922398	0.0326362768363345	0.08922993276696324	-0.21998877322265248	0.09191697789122745	0.3150576922198161	-0.4512416795257849	-0.537392885979678	-0.040663918364755795	0.09464481223938795	0.33683773188832894	0.587993592591571	-0.13754897825115467	0.2544184678471306	-0.20923793747769856	-0.23012903107809685	-0.07514495062477118	0.37816482456955025	-0.21417008118449535	0.2454709094955602	-0.3189887036200714	-0.06318854520215003	0.24629085612485938	0.06534614316220462	1.0380453047630247	0.2975041657379311	0.5089080766338747	-0.024200947085157205	-0.18072201838988497	-0.41604623878950314	0.012984912464403793	0.2988175313901397	0.5520729462787818	-0.36661657858865154	0.041497360005124925	0.18991469799543811	0.053748605391858585	0.25741402029330857	0.2765899530230148	0.537906020920937	0.07523003320551243	-0.05329336260109857	0.0038770356115737834	-0.3741276051189599	-0.9310390986262759	-0.30321606326591305	-0.6632718965709077	-0.7934865589752682	0.0032405536645127775	-0.25066739292410795	0.41128688176200406	0.138282092527268	-0.1948377044182546	0.07026382127225854	-0.45391902962255953	0.5270417729235539	-0.0430278328590943	0.1320736820301802	-0.5068157107834693	0.2403965315624939	-0.4508437850460572	0.6239323211160199	0.29394388697860846	-0.49888309009498716	-0.4533246497148441	-0.21351265808339925	0.6484930462715338	-0.25029715496567806	0.22680456386477774	0.29022648714689275	0.33910573181060444	-0.2747120930251678	0.8848572827193559	-1.0137841022708136	0.8799422875720171	0.21771423556695374	0.23373630738172968	0.5459866358624803	0.03723710531705862	0.7179385667691569	0.3799586317455081	0.06630436793330259	0.05304370189703985	0.04569841733257983	-0.4401160045188561	-0.07243806934733801	-0.06248217743262406	-0.01234028749305205	0.9453600745193663	-0.03401742751347352	-0.30237047679305884	0.26006339818487684	0.642466070297241	0.5319874983117172	-0.11765507851554087	0.4941263294263037	-0.2409416979013891	0.23265760804977928	-0.2573825701067834	0.012883796531370936
-0.41085126101425357	0.0819645162572076	-0.020438352342525196	-0.18720818401047107	-0.03379233866970125	-0.04680294166935411	0.2229269961240838	-0.44830943042602794	-0.6544636621478023	0.6045902731911795	0.4101065232111988	0.42939648906252853	0.07670025773707474	-1.0548622974953332	0.10175842359633153	-0.2321027444785427	-0.013295477227022373	0.21405578696271937	-0.28150683946852423	-0.272211370114592	0.5468519535738328	-0.0932283046240563	-0.284135987439285	0.4279125102054226	0.07890568347127966	0.02084035319017268	-0.6956397971034666	0.22353413412693074	-0.04275979642155557	0.2921743638622837	0.44595283885857223	0.010176705536274686	0.4902384700439718	-0.3365617055244362	0.0336147948082165	-0.08468218958253906	0.609562379174236	-0.5257788941398983	0.12299427258827046	-0.06669054345655695	-0.3147130815241893	-0.01261465381645784	-0.6175535873530741	-0.028125567986520016	-0.4193563285252768	0.558675378217537	0.047812808904539865	0.3800397159618974	0.16669677448060644	0.8075969226518325	-0.2250332561235974	-0.06804511226169536	0.06786357024087711	0.2781153145899109	1.1229304625509047	0.16986787811248244	0.45146836858132655	0.11824515223707946	-0.1387347748715697	0.5040564480632586	-0.21099922026922793	-0.1423060772622543	-0.45708996322852846	0.0848310288130074	-0.8029894916598643	-0.36181946971863577	-0.5298103651402928	0.24026309358738923	-0.0665216818790364	-0.02113922823301699	-0.8212656128717949	-0.1835952173027114	-0.2734295108701878	-0.3056679311210206	-0.8170421517616875	0.35959288098650133	-0.4282714331549239	-0.09241048287314521	0.13432271141480326	-0.47380123630154586	-0.6116198515183437	-0.11571719335547406	0.31374583678481205	-0.3069448570902546	-0.27424059916358495	0.2819339302588563	0.2590943291676181	0.19319017041606734	0.3854464597027039	-0.4700750279608933	-0.7579266102107893	0.214660204786013	-0.36883704754444474	0.2016193201168958	0.15335390841075244	-0.3239865726560156	-0.5273619386225368	-0.2656361988590969	0.23279331476426093	0.4416876968451522	-0.6916519921975417	0.14631067922077193	0.3976351390549704	-0.023629905531007658	0.6848942177458356	-0.418505317590944	-0.3468607769444939	0.06905497175260272	-0.21940707405163945	0.006676292248638801	-0.10564107052439078	0.4816540052882226	-0.12889510979633123	0.13253681405348816	-0.3817254130667636	-0.5407058072600334	0.1315256057649634
-0.12830800743596826	0.6005509826517771	-0.5362618731416776	0.30445077817532623	-0.15401312935431888	0.5768105863751952	-0.5510776693449422	0.05551410071140343	0.41474793545881	-0.11572416217256733	0.23833928243151564	-0.12581794688365447	0.9828900197846399	0.3514181362725716	-0.19878278714556555	-0.3271912751739747	-0.7074644781446552	0.4575393778393344	-0.2298897852612714	-1.0784546386306788	0.12134726673359943	0.34794270789326975	-0.2915413339255283	0.8466190030380549	-0.09493006832473123	-0.06741748192902512	0.9689483635847956	0.19938846338792035	-0.17026685700227326	0.3836094847804816	0.40338810617135684	-0.20464430517758347	-0.06343464143332175	0.01871524938412803	0.0646370876677318	0.48806480337494795	-0.3881335586850441	0.5071623200823794	0.34417747503446194	0.04253750047378991	0.6251848674193983	-0.5955365722219795	0.4617921802442515	0.22183614526418174	-0.18377631967078217	-0.49783287303794765	-1.0916994014839754	-0.37173661352709475	0.15838126907411054	-0.7146363543724441	-0.10136209657276123	0.3055650605406855	0.5108300308161358	-0.5519198620397563	0.35005716543916526	0.4993843472325169	0.09679828651448169	0.010971598964278148	0.16187313982285226	0.22485372204491455	-0.46953191121562327	0.3497367064406436	-0.16264980880612204	0.05428483309019001	0.23395827617339202	-0.5410863344825555	-0.2771113036875985	0.3541686214695403	-0.26833080009599836	0.09995880907048599	0.18108128838300022	-0.4834415592041913	0.18105332362459908	0.2823403942854337	-0.17447385330818613	0.536245676979129	0.07457408749187709	-0.00032553713903301506	-0.6658952276563572	-0.09260222177768718	0.6415798126585277	-0.1802217043501614	0.3952576101295384	0.11272653802175787	0.5250164402200325	0.08209517732400627	-0.2961609270910307	0.7048738475989913	0.05360981207475514	-0.15075548927034693	-0.8594377737423704	-0.5825504158796047	-0.21345400627788466	0.07091957429930232	0.002751084694650505	-0.12151393609958344	-0.9068472046676492	0.07255695257167105	0.10400076306512637	-0.5817538867800774	-0.49054381719369117	-0.10053821924108519	0.4618336390058676	-0.003886267983363596	0.38185071467037845	0.69057563517663	0.7516353047532114	0.036912559964221416	0.28958160048429654	-0.30168965754299404	-0.3138764643862952	0.13890443219165421	-0.6736648896017043	0.08323248008880453	0.7537327693601782	-0.20117482708074036	0.31232944161810794
-1.1241235705301333	-0.9176567121570197	0.10570049302076195	0.2839461141519419	-0.18359858829358242	0.2633735629325344	0.9388931277672806	0.11579106603542134	-0.5715365693436764	0.019938902979018864	-0.18707098923191828	-0.23333661424411867	-0.10444963704668937	-0.0068125431691674785	-0.33221252569948584	0.17638468382225597	0.20652325257861268	-0.8808784236586195	-0.540512831830337	0.37018296209463053	0.7020483944774114	-0.24918612101261714	-0.22355374055497376	1.366321493959217	-0.3584303050316465	0.4165776262649941	-0.10408639598288656	-0.192991649423483	0.16901962278950194	-0.0004787495060908119	0.3422539972638479	0.44562977084800104	-0.004356071582906	0.44062307286229413	0.4363433448704017	-0.13621207584617023	-0.5589789999030672	-0.45411112617731764	0.5611268495443146	-0.20577162775251534	-0.05514058325746759	0.2610756491917661	-0.16237626561004398	0.009807584866532581	-0.013255551200568646	-0.04447199812752218	-0.16747393572688424	-0.3597441748967372	-0.23770885548075044	0.29898446426939307	-0.11865673620345608	0.14329158423188068	-0.7984592057734992	0.3693445781580073	0.003512766964175665	0.031782685388574275	0.22123156869911959	-0.7741947199649448	0.3445711597729115	-0.08010011822355645	-0.6164874992918447	0.2533526008272775	0.4811479472684643	0.39839618890299666	0.6583068598855593	-0.42506183563331223	-0.8330619960804819	-0.6469069155976761	0.5861496692111134	-0.752683509033295	-0.1755170567029913	-0.36450023162049716	-0.029605706918615138	-0.44036708215266995	0.3176084675522137	-0.4357096436045555	-0.12307584730251568	0.05031587281063861	0.029784148495955405	0.34164373569529466	-0.3192006736247477	0.08659900683627245	-0.019718088250044855	-0.5387665668604456	-0.35699260993590937	0.10274152099267748	-0.2804858528472392	0.463298871454123	0.7707934545243241	-0.05743456937593315	-0.06813654827029833	-0.2696365904158404	0.08525907332901458	0.2753641614162151	0.8163530060285814	0.20838451868997052	-0.6947914745207168	0.2658690244448987	-0.2855122920047525	-0.05788188984299411	-0.41141395883511905	0.2317543316428912	0.18867938694936362	0.8302186230098783	-0.7295706616411853	0.4400194415548325	-0.27836816393240277	-0.14252614053320256	0.3369538266087741	-0.2615216069097573	-0.653131122348017	-0.1763308035756543	0.5301247673918996	-0.7808240565429603	0.35599879977976506	-0.21199222710175478	-0.02341437688324994
-0.38166548096636005	0.45133335349896797	0.426281190779445	0.15177635890850122	0.22843733875990532	-0.6502668643704557	0.7138391145090673	0.27039937181649576	-0.170870399033919	-0.3347413104146137	-0.9351275972092993	-0.17991723875595347	0.9606675906525304	0.7717350791653009	0.6559589581848466	-0.6593053290004355	-0.2121525129418681	-0.7723827630979094	0.7910371846215121	-0.5873639544304963	-0.7768732207282149	0.12466563487691715	0.6703417103390049	-0.4504419717376099	0.14488929367069595	-0.009255335199822991	-0.09813028288097592	-0.7536071750391156	-0.2871517272724201	-0.8012313541196309	0.20707703035274566	0.21757016279218935	-0.007748849252084515	-0.5214834987427679	-0.3641489924845507	1.1274118681456755	0.4686711435923465	-0.3320082077639958	0.5808847861597021	0.13290636355498262	-0.03879837379434633	-0.15977684521723956	0.26396977360657925	0.019758269223230953	0.22234916606492847	-0.1886679124698648	-0.6543363820333206	0.4280759414585039	0.09929784264371191	-0.18335754378146493	0.2162493755356235	-0.32892747042285814	-0.24512896533041806	0.018358835430319794	0.24692555227581967	-0.11354463126789459	-0.07304332863294452	-0.06751908401511465	-0.12656031360023048	0.1964548087844509	-0.06745420559077134	-0.19073894651483264	0.7354259833084911	0.42348537514702905	-0.46490753381913663	-0.17098483820304597	-0.2838815185422974	-0.46852460935991164	-0.8706662810010773	0.20409909703119192	-0.061619588507544	0.00518146409686755	-0.01793024063726292	-0.7887872242869829	-0.41101492868191797	-0.42862545085016107	-0.08381498580855808	0.5815748922188864	-0.9773176122876767	0.25605348360414676	-0.712222672042939	0.02847228452820486	-0.2236689101077906	0.0004688802908879479	-0.09109647699596517	0.21830251880400064	-0.16326552925961396	0.6603520700240882	0.07925525954535227	-0.29327458743678864	0.3300216204370809	-0.23942425278749935	-0.28870787505720724	0.01683449108909413	0.1359147736244537	0.5119319105784497	0.5128546622455137	-0.5449914681590979	0.1645118384358747	-0.035292820897099335	-0.48441767755949994	0.06800647509510094	-0.24363169905928608	-0.5861244080272975	0.401306918256408	-0.4013195423695472	0.11526440049920952	0.12742828052332056	0.00827750296372079	0.47085431492811874	-0.6041903726008515	-0.2612100434597074	0.1089400641975269	-0.4157696947995507	-0.12246697013565576	-0.35025983875028754	0.33325715920860566
-0.07885204201914361	0.021312947764215637	0.3412165292088568	0.09846226371077207	-0.2949583973354352	-0.11179119653118161	0.49039542781667456	0.5101736503175912	0.013555076988129246	-0.5777690994540574	-0.0905615355770431	0.3655300792566442	-0.47744320486020164	0.15800313714172962	-0.4825650359162163	0.22844636198831209	-0.00993347223753389	0.34244933345436374	0.4942005749875485	-0.06630646439499104	0.6136558154579403	0.38313937902638995	0.2334102412221821	0.24904084940881932	-0.44328566081571136	-0.09987475430965455	-0.17760139603643865	0.2711468073583416	-0.4570369719864794	-0.974725153620597	0.6122373022884665	-0.14484221701082212	0.056611254290604075	0.07747345514587359	-0.12406150563753315	0.18515884317213702	-0.5926426164484121	-0.7258355538896193	0.20230541539107025	-0.15579421071053992	-0.08434121607163869	0.11201295089379805	0.0010732687617751706	-0.7509387549157548	-0.8935189895348984	0.4767070546188451	0.12628836754782116	1.0666434374134588	-0.41221834652087264	-0.7554972998238576	0.34409112033936456	-0.7374157710279159	0.3142630800650982	0.1520049416611598	-0.44464586288554103	1.044429356845699	-0.3002006817010072	0.21026413392012824	-0.42795448830787364	0.17336125083687626	0.21541654720488085	0.45435193402452195	-0.35968735466593965	0.029997740134446546	0.1959956587173973	0.012020390669058571	-0.6536870884292446	0.20771755350033655	-0.4478733338079277	-0.37987905994438803	-0.1469088115576685	-0.17286243421368128	-0.4665590089299521	0.24044338864963768	-0.0959293015723371	0.2957384629434133	-0.11309450718422008	0.011247537168124244	0.8144398747538278	-0.4609050994851754	0.20134491610356614	0.31216043281071126	-0.5393427001529804	0.7285528318902736	0.7661232099386376	-0.30200924413287256	-0.06804620495455405	0.09173072610593996	-0.10493191262912839	-0.1115533144756902	-0.15714248739402667	-0.5382068686245726	-0.006243078419670746	-0.3828400700758912	-0.0981557740980719	0.2504126349091108	-0.44410476475309096	-0.18761661462798668	-0.24159474512648874	0.1564030679744453	-0.1148295638462022	-0.15416270542046	0.04444379188255253	-0.07148258554129806	-0.9986563187131882	0.06232019726538949	-0.003025396959120793	-0.5126356656162517	-0.8732976562387669	0.1044749396057064	-0.7675954701637867	0.10431898261350996	0.6200223846947974	0.3944908922999739	0.20841461440017764	-0.06490949105609413	-0.08016970343213439
0.2612002860638829	0.7199690573440289	-0.17433668093873403	0.41433548895340355	-0.004847620764535789	0.5356074793654285	0.1739164720076029	-0.6275770348484447	-0.280493958293518	-0.6233114386708786	0.8488708022134089	-0.11559238083459611	-0.39976275306050374	0.03409124339853073	-0.030571366621845175	0.4412105305840515	-0.6239969502807879	-1.1134881067211808	-0.35895849765372384	0.21421636260838492	0.1648724118584471	0.2368704004388875	0.372981708618189	-0.48559588763282086	-0.6411166033674318	-0.28245587841610914	-0.2037665253833014	-0.23257622532113145	-0.03811396137038042	-0.06083536043881566	0.35684546648555265	0.503431576380837	-0.08077533840208244	0.3417594387004705	0.3322096223763535	-0.14452203429891325	0.5743234280076547	0.5216748310218465	-0.11544435524939287	0.7770125983191912	0.20616640304851339	0.2134542839392145	0.41565312734955395	-0.1169200052688227	-0.1011059563126504	-0.1451608742682181	-0.1454555264254349	0.2883387297861026	-0.8382316486163726	-0.12072460333861217	-0.7229734143011227	0.06272440179998752	0.2323529822067235	0.2255519337692945	-0.20695083449624974	-0.19044129353538963	-0.8211761304165429	-0.8068372833980061	0.4019552982431985	-0.07691912983768898	0.7012981043916048	-0.37603884312847796	0.14740660579214107	0.3587327572978404	0.10288956230677694	-0.5262034035661268	-0.04944175495013986	0.6161234649281777	0.6980712399655445	0.24057038979320466	-0.4661170298499535	-0.3755147741060378	0.6117577413379636	0.6103385678908747	0.35940171252290243	-0.36832071059301374	-0.38779466805984325	-0.221445663101911	0.3065745187167678	-0.2829850966257396	0.03653220590893575	-0.273961987207168	-0.49174426663162546	-0.017445102633975404	0.49792411741195985	-0.08467347250619839	0.08552747159847092	0.22479520798674654	0.4466657750680701	-0.2784315856453614	-0.7477686320831454	0.15416045096584832	-0.41942935542401755	-0.287531098655924	0.3031674983209744	0.08125870083637919	0.2035151822086467	-0.4197122726901557	-0.030675817302526	0.5814019276686955	0.08210423802753164	0.5620606843013979	0.6292195789891187	0.2431492632270645	0.28760901513820264	-0.6860652292361059	-0.02607047994472343	-0.07344458812510676	0.4264096767884048	-0.7261812625191065	0.015362675382087566	-0.41057237686363535	-0.33302711619642433	-0.3593982851507646	0.13681171118895452	0.3384623894254829	0.2908934683816836
0.7677831275386999	-0.03752637580142698	-0.06370866032447411	0.24986387646853875	-0.15930754083777235	0.023536452892909503	0.21181107366402901	-0.0008418557692091496	-0.3091079891551201	0.5933902727635523	-0.1090621800977024	0.4140100344773506	-0.43850770889297414	0.2837422517357541	0.5126246788634	0.2108747052293417	-0.9636769889904633	-0.4342459932337522	0.08864008963448997	0.04303126345323081	-0.23366844806588355	0.5837686871143232	0.14214302207522253	-0.3881503536759624	-0.45211355004874054	-0.17275150414412718	-0.19418076349109983	0.9952352642387242	1.0049457252464875	-0.6956227856007775	0.03778675850627537	-0.08110645734985861	0.04626226775795556	0.3442554335178863	0.912624424649587	-0.27931816983933255	0.24124472415035836	-0.5359290663346282	0.6800391312122347	-1.294198376404228	-0.10564721090496122	-0.26258861314790716	0.2822969070696045	0.2074812761371329	-0.04572505552337973	0.9472458671178464	0.3793279423575279	-0.4564277387263561	0.22217136251735994	-0.41218140318510416	0.23140433840922742	0.09590121087818947	-0.3218764202517977	-0.8730053581212258	-0.4916051134018645	0.004413796507202973	0.4769345237415618	0.4764449992521763	0.035600480948667884	0.3705535503188107	-0.17423512442464176	-0.173570733429211	-0.22189315647530125	0.5081418351163723	-0.07763720943838856	0.24970080595303062	0.6357772161276242	-0.07900936168315607	-0.08418146249304102	0.026664397693023447	-0.03797369099809989	0.22320780448770627	0.6132947251149399	-0.1506867694379667	0.3546997747658159	0.2444981814244417	0.07025989300805013	0.21702353457629844	-0.2721930408750882	0.5202999312024985	-0.32614942609655095	-0.14443159248460238	0.24042295928800506	-0.23820062314726256	0.0768304019378579	0.6551520634675376	0.03631556440905388	-0.3997571321434986	0.31990459210248484	-0.588105739067742	-0.024162248733990005	0.23472667792061555	0.17381560748254982	0.15834270646304438	0.03277980165824362	0.27522900189726	-0.16302386203047914	-0.22579757957779514	-0.41571322010016315	0.3590674823137012	0.1757318920625004	0.17606968411453292	0.35090778411095863	-0.045915396156497104	-0.5578366929210153	-0.5757648293493506	-0.05589986250505346	-0.7884866469396681	-0.1780757087302129	-0.2304565734163166	-0.2611191290738863	-0.5589219259752134	0.20776061583304636	0.36499511065760104	0.24499982109711385	-0.3339285875887156	0.5126421933945838
-0.12284238646172227	-0.3211006069719954	0.018422263151247738	0.6449616677779104	0.36236394018647133	0.47929926666203937	-0.5108919548031458	-0.03450980588094989	-0.054973258491901426	0.05496026522437597	0.39643796227626554	-0.42761530090330035	0.7641293173083719	0.037132487583186935	-0.02919322572002691	-0.01693175922440981	0.44916367885230674	-0.09850842589682214	-0.36515033235709915	-0.5156841551035714	0.09201986413695927	0.14335489496278112	0.005683864942245349	0.5747811988279332	-0.39980431830170404	0.09365261363630972	-0.2957052876670383	0.06347103626322892	0.416015717309297	-0.4111093413473327	-0.3115795935700948	-0.25047299689539904	-0.25179169736652285	-0.12098868297757892	0.15557669660103815	0.3936316519112237	-0.018922801883599353	0.6192778998851743	0.3239788859817006	0.32552463906296814	-0.9315694762882093	0.42915478543270114	0.5893547722843332	-0.5224370276571765	-0.37793984019690074	0.35657557785418725	0.07023489308132115	0.2578337608632675	0.06857297404511752	0.09202476956239723	-0.1425953446062001	0.08078041788936706	-0.6106598138247538	-0.5465001079502163	0.3095415183133365	-0.29727346857853526	-0.05914261537500795	0.44840021145432135	-0.13559908952161615	-0.020107530461059443	-0.2635459322510479	0.7051941549866059	0.3220800529424844	0.2137620036739518	-0.3366007873917056	0.46854385742433513	0.9308157992848668	0.5440465878685651	-0.021918932329233545	-0.013069435813162177	-0.38688242416418583	0.48619317337136725	0.0335303729797005	-0.06204597767074884	0.5293780991274721	-0.1978960363455963	0.19777381706470717	0.34391096981814046	0.8655703283204275	-0.4954248160024292	0.16219715302223583	0.20999471546660256	-0.4702209994082059	-0.23987920125841855	-0.3567864471254306	-0.503138028926081	0.4792976094375116	-0.033355348901276775	-0.18076307814508727	0.09887306261863427	-0.05411715222788356	0.06985072534800961	0.09639078382925725	0.16214771902747477	0.04338499584494292	-0.11850209735679491	-0.44525411361712747	-0.11006016100995894	0.7911209535760038	0.4085987106510372	0.10003347186534768	0.15390909132362973	-0.5995982649506765	0.0816419266246107	-0.6869357441146119	-0.6161667109959953	-0.21754689297984078	0.28793436645503373	-0.157350326132885	-0.5128174918221173	0.21562624915435555	-0.283068660293857	-0.4684736832333296	-0.1801701599231988	0.21609654995801184	-0.3007508972687164	-0.25182024491697974
0.024610884043793572	-0.5785152197038382	-0.10388055345650977	0.09261697659202628	0.13057936756218116	0.4630965991260401	0.12242780246891168	-0.3941980564513516	-0.2077209717905636	1.0967245119564717	-0.13267634865359682	-0.13525566486911925	-0.4034562953363522	0.1760881759103054	0.13256323653513888	0.019503974168257412	-0.1929711279919223	0.10898693249089711	-0.08433826934786495	-0.06975499206262116	-0.823503005063223	-0.2084257801320606	0.2734010252999235	0.1265997568289073	-0.23671972505830993	0.19149752558036195	-0.2674776189335186	0.21988600061249305	-0.2556706818363064	0.14641807974170584	-0.5216583594607062	-0.7669961978010383	0.18839576242495557	-0.29720261954308064	0.27507403224422755	0.7392485081510543	-0.11982971346278193	-0.020587147253926675	-0.2566753508206084	0.33060359607206175	0.13510268218949684	0.6048193421868526	-0.04286377824202673	-0.11159373014298098	-0.3328265022985864	0.34815333030094797	-0.0940128058104037	0.41737365821878236	-0.6825594153869411	0.273458819754705	0.16159451691371174	-0.23984891286636106	0.0334692776850577	0.059941592743834725	-0.40592563739174814	-0.07856177090822875	-0.14386306049068165	-0.03278822725550687	-0.3308189455234402	0.12902979401951295	0.4385554194631616	0.1276826407614924	0.39386427009628955	-0.6854827333933705	0.6678737482023772	-0.7209512254729434	0.14485440728812846	-0.22888358073021142	-0.10941123701704404	-0.5996066161186556	0.5995138090792123	0.0005887855688960835	0.687151183678256	0.34940454705202356	-0.38741113358423895	0.29908041940881724	0.4840636925208922	-0.16986187942990355	-0.3156475257446506	0.23053979737393693	-0.22772752388009948	-0.217933450038164	0.8835550584930263	-0.07735325781730099	-0.5410248718810369	-0.7973677474167206	-0.343491975067696	0.49117288821717325	0.03551251306786256	0.2863116497683216	-0.6260198828248053	-0.6512378167323761	-0.010874512417428359	0.04116382755435694	0.12921761393523504	-0.15180317612501235	0.13239788747059875	-0.03852520399462058	-0.42823456493361256	0.12185440136568967	-0.386144568995086	0.12799819946113702	0.23308263001442145	-0.03344233482701385	-0.6249519837041453	-0.25703129634008365	-0.5733284928636453	0.06760954799018035	-0.11226979913631187	0.30739056836432166	-0.1375487437058876	0.4533831126862604	-0.32767636444580006	-0.21034806523581778	-0.3744817208946589	0.04512750907121489	0.3213505586175549
-0.6045604189711214	0.3639982527856458	-0.4444287403384898	0.24149668676547775	-0.47281651899681165	0.1861933861443433	0.39533397242855406	0.477528776785604	0.13041165112315914	0.37327897615458155	0.16045779249104336	0.529639257409676	-0.053496328720847565	-0.3265758531994149	0.1659067772433856	0.08214067646591007	-0.029934767829579174	-0.3658382025673184	0.005045125479544808	-0.07650065183641677	0.21679781400832573	-1.240524765591195	0.19478300903702495	0.08489536643207206	0.10402094945434878	-0.24054293141002095	0.20112608851240055	-0.6317423551918061	0.4260535625663474	-0.05475837964825733	0.857484076684735	-0.3350526375579637	0.30928414726577597	0.6311179942326006	-0.3470245237257756	0.2667765098447856	-0.1476940118323194	-0.10011039958497446	0.24407352390029421	-0.466953670886845	-0.15153033331959356	-0.17424277129572402	-0.029929638621221912	0.27914592425114004	0.2059499196002233	0.4689040578327959	0.44387880825033516	-0.44936059210801615	-0.00663671483023173	-0.8999543675006575	-0.4202707131587041	-0.7918339961141492	0.47317785685768093	0.06801513363558279	0.7920698933442798	0.3529696603195513	-0.18526411454406796	-0.19900747946359004	-0.09686095504369584	0.7051834779670684	0.671203784156088	0.5177353357770123	-0.15545638795670225	0.01863002444630417	0.7759511771796429	0.5669894925994114	0.18274498609975093	0.2930061608042524	-0.1659754014597816	0.7468728288841713	-0.029845309084456425	-0.22691777484520542	0.6266832229182682	-0.33935827567514215	0.4209763872102529	-0.7597003677383859	0.07874788499203848	1.171222887238337	-0.1762765061847786	0.38907452424846356	-0.1691055960184064	-0.36840210617171115	0.47097794710975943	0.10318708347784729	-0.6261238730549112	-0.23900792235264404	-0.27334870123191807	0.32858782583993784	0.12173299844246376	0.48364924995903363	-0.5731681662310723	0.883390585242968	0.6142109870017632	-0.4184412516695076	-0.20616615556991347	-0.0593060827211501	-0.4448859036421639	-0.19002628982690975	0.5628895642466333	0.04515626610596128	0.4565744532927657	-0.040033893125472106	-0.511174580108718	0.06687082957322284	-0.27469135155724733	0.3113396388847357	-0.2694359824184378	0.3935905044664584	-0.6765096049972315	0.5434625647858558	0.11662453248751123	0.1808241361302075	-0.6904093304598646	-0.08940298320358897	-0.39900693636516643	0.03897407905919007	0.07641771861975041
0.3486275127162927	0.24688845507905313	0.8516296434963524	0.03038352661345887	0.4601005822352079	0.1498738858998173	0.026075289000495504	-0.7901223038457778	-0.22255098805304754	0.39872003871682227	0.6878828623461105	0.10676019135110378	0.028452326718181313	0.49712077504006585	0.4843594795385469	-0.49678604206283233	0.12207600966751164	-0.7476976897218616	-0.14940503374038366	-0.40751391179006335	0.3545018006061551	0.20518941091187823	-0.4225324493533523	-0.06027583966427807	0.15362570727562844	-0.6988211294789101	0.23739576844291926	-0.072252684887697	0.31759896645952446	0.3361965970266373	-0.4096543426174979	-0.07121567238681893	-0.2909533401103924	0.28739497809011916	0.5696437842950637	0.1673897325834742	0.05885465672287097	0.10194506697517824	0.7688797057519589	0.1783011173371011	-0.2638061057733001	-0.2629484518231235	0.4412774223610146	0.8994038536052346	-0.7007657604304243	-0.4779938673457578	0.3098163544828045	-0.28150422986041695	0.05389451600809799	0.6086759302694165	-0.06566558575228801	0.057952838654529014	0.478231964805363	0.407528860432911	-0.03927012618902899	0.7459061305986027	0.07835118374328426	0.4219320671686404	0.1343162354727273	-0.003695185186502469	0.09222375726005536	-0.2576372073200518	0.10099744296363006	0.2018615204370627	0.46133442669505476	0.11453088260266285	-0.674752040129413	-0.46910001578378574	0.4087801001291034	-0.01596294066514602	-0.4747776042292641	0.3509821771162648	0.5773841020104687	0.06331758496427099	-0.07935086963696937	-0.18036240949756013	0.10954786843011986	-0.14539751971989667	0.41213260571412696	0.23085840695553933	0.26817509717482574	0.5257147094897814	0.0625483027448845	0.22321295667712343	0.12254821131394476	-0.2890492973624546	-0.29470149120857353	-0.06871339645463163	-0.2097359586426652	-0.2614459548602523	0.6483562806492694	0.19366653587789012	-0.4241640440879692	-0.5977407935771211	-0.09363799847401712	0.18916954853296175	-0.060383720173624936	-0.7211275345941819	-0.33665178574299	-0.4128623200434342	0.04647420657329591	-0.3255784174173972	0.12396499400587653	-0.15661214154782782	-0.23224717024996386	0.2401230847295258	0.2832191014079206	0.7503775101407266	-0.6024876749174187	-0.7313078136462717	-0.15807190756891587	-0.07328270319700127	0.00045757233904452206	0.15933027948873404	-0.24501036959445968	-0.17923517023679802	-0.39885776420717267
0.6428247235335508	-0.32574991823083027	0.19020372321392087	0.15152695566721897	-0.18318143809983906	-0.8094262411098927	0.11471862186150972	-0.2277075669314211	0.8396594294557803	-0.3298606818889104	0.4829540556782523	-0.5116328995312885	0.3765551032575212	-0.4347958164660473	-0.0835890852518009	-0.037474573614119995	0.7029556412802356	0.4913259349552916	-0.1083005395818621	0.13388979705831258	0.0706599103882562	0.19830557908667343	-0.15511267229815398	-0.5154906089209873	0.04722395394158238	-0.06047703188616133	-0.17896073876994564	-0.0972006353004171	0.5140221155734878	-0.343062127355999	0.3566432939734226	0.2824032712375961	0.376964925294182	0.30616406046204925	0.6686120655841494	0.16402424096814286	-0.3006370662085089	-0.25913392080738584	-0.2025200009001189	-0.3928804174271304	0.2698860433907622	-0.3335685659784915	-0.2674013681005023	-0.8177755769745325	-0.33316073102700267	-0.20160561091842316	-0.5179429579621027	0.24340682209746248	-0.34769985210783544	0.46537614655481635	0.6806128741531882	-0.3241448122197861	-0.47012660273554197	-0.008523977431583	0.5399021803030802	0.2716128844186945	-0.365810217573087	0.1541768183929752	-0.4656507772241846	-0.0029077586545187264	-0.8304384198177335	-0.20121660013904524	-0.09129304817094797	-0.3063474687193847	0.2430057853046408	0.27669209551533425	0.0969810903842888	0.09892794695804073	0.35129508356257794	0.29608486495570263	0.14411809029851363	-0.23822645483632104	-0.17604771449119092	0.022747008692383247	-0.08148925505682411	-0.9278117228149341	-0.12928895071916582	0.1313853359312092	-0.2350792643599149	0.23819388726004204	0.12902376398259685	0.20231153574252325	0.34827844384969864	-0.3627401525387735	-0.18026184089678524	0.0327730958495239	0.4507775204220572	-0.09533013962865558	-0.5116810554145285	0.21022855997377202	0.2230672201982406	-0.16686975301847573	0.17334256482508525	-0.1808517464552547	0.1577970874055534	-0.16040559595943582	0.9532483467010905	-0.7184264768955858	0.1800519313146608	0.6852875660194345	0.18875064568005104	-0.27321955228451844	0.7752007359453298	-0.15670430118445997	-0.2692010681510154	0.5875752159207689	-0.6925560834019083	0.5749895434571467	0.174384278330518	0.8266956482102362	-0.6486792197499941	0.4749955628273163	-0.08352542294700695	0.3678219948506796	0.02082513919459338	0.48753871962395073	-0.4086290270353048
0.49580612494175497	-0.5742818580759981	-0.42516540509083883	0.32913980738893694	0.3753087969707617	-0.2239334241978139	1.004592330297719	0.1513983648453139	-0.3929179414050269	0.19122554601943267	-0.9381071755468705	-0.1850068654406384	0.15572620414217303	-0.5667359296367747	-0.6976416261915122	-0.1782764634017044	0.4014565672294291	0.13473489176750575	-0.4171104818904157	-0.5324453998776955	0.37887441969274693	0.5023242690913645	-0.00824356916182336	0.1956611069834016	-0.0016820369207604506	0.5490126120777241	0.580859212965667	-0.315809126881511	0.37666863867189615	0.15852219472539703	-0.051093500298594476	-0.16361197109328593	-0.3225337161293508	0.20991821720318635	-0.3854123545660557	-0.28086439264803875	0.29945034714106683	-0.400800580412686	-0.4568784796138735	-0.4193951617003251	0.6227590366442493	0.7556672728340532	0.7416283160972722	0.31885447975638875	-0.44142934252915217	-0.3659100063834245	0.1514200558150303	-0.33876980861781364	0.40601039711679265	-0.19853698677179746	0.31826533473505836	-0.7416840467766316	0.5110347169329661	-0.32071860760195114	-0.4157120848141457	0.973138299998662	0.1451127348673643	-0.31680966799394616	-0.17590464712419193	0.23580156007015216	0.09413046379749726	0.36244970434456447	-0.5836046994302692	0.12315276516491093	0.16414103806270805	-0.8723296858518824	-0.07739803553711305	-0.0433899576939163	-0.3024483290351532	0.7568648535661449	-0.32436556739785644	-0.2668234919324826	-0.1729759230797345	0.4123580860394585	0.41368352570900857	-0.3694257011058068	-0.04249513436407936	-0.5018939476330648	-0.28459025078456895	-0.8073247288416788	-0.6495122556717234	0.30771846548541615	-0.2523940094755481	-0.23333231312049227	0.2631178645467125	-0.33868374182172317	0.593174122172689	-0.6025140734702654	-0.692766410633817	0.03178004584071974	-0.4952765929143535	0.10735103431418166	-0.21389819678695154	0.038323693139642616	0.44470859305662325	-0.21747071871276458	0.12956159976074755	-0.3417030164188726	0.7903560189523335	0.14342564447750356	0.08598711067841297	0.21880586962304185	0.15342420145305355	-0.4970897842006017	-0.33187711384632795	-0.6301394710266579	-0.4114336473393942	0.652062195901262	0.46110341208033345	-0.3991472035130211	0.005193996277702397	0.22738119134770055	-0.11514139147926206	-0.42127271990454973	1.0247549883663898	0.001796525219786527	0.017204137117643688
-0.31831129757968535	-0.38697594221341225	-0.30362209101734156	-0.4870227239859437	0.22103707146681512	-0.7983465813974427	-0.9017316938379308	-0.7917387686724838	0.735021806267179	0.5556423294415783	0.04241750344818055	0.02416450298645841	0.25870635534971875	-0.16543348761246562	0.7975062844026961	-0.7411925101409195	0.5382481215670919	0.28126456978899034	0.3620078181430055	0.4312218984827539	0.07527022902815807	0.7616156302021551	0.03949416766916944	0.6856233188333113	0.2980637504398014	0.13365557234081357	-0.010555832383218881	0.14107591982884435	0.5141495491048405	-0.30551732273699594	0.04310565555391294	-0.14832116930567532	-0.22364099928367778	0.05566244946052469	-0.08852321476866865	-0.42004745180983877	0.33725057651428475	0.4488613269198417	0.17355815508208772	0.11296749447835558	-0.5318172858615958	-0.23492792613959348	-0.0055379448571785846	-0.5032317388112486	0.017972860228123968	-0.5818462193830948	0.6382691918639491	0.866200206869465	0.02925007930577809	-0.7852394530258135	-0.4830034895935504	-0.9881139679515931	0.7617784432783001	-0.296309217325258	-0.07602996767261837	-0.21871901923430623	0.13343736073929827	0.003581434360435066	-0.5964538493073441	0.4085993606511397	0.3184932381426106	-0.2796876235299727	0.13470896555261427	0.11867871862946477	-0.3802279015478412	0.7569828170362403	-0.02203395938620875	-0.15482355448273444	0.272659372849143	0.26347595005772184	0.8680193768194829	-0.48978885454476834	-0.09957213459300869	0.32106382408995787	0.6168070394430646	-0.3984208262965019	-0.11579394029708741	-0.1632116769310774	0.5926068440253278	-0.06013534859882243	0.28466458725332683	-0.31415737037265207	-0.23042845517417312	-0.6167280756726619	-0.38928213490363023	0.4536553506342389	0.6904687919960317	-0.0789837679998614	-0.08884929362903896	0.6536564093559448	-0.8085904934675117	-0.2668710855658594	-0.03557692570487177	-0.06771338146989488	0.1103477115695369	-0.18411237881054987	0.36574829121229513	0.5342753984427954	-0.13276400595000876	-0.5230173142293204	0.20432393207715852	-0.3962663375711785	0.17361691682500732	0.1804395706764652	0.23180037928533662	-0.3423619582286097	-0.06676158243829802	0.025686555535691897	-1.0136724030067148	-0.18150145503420492	0.02844555049304085	0.27127393234603053	0.31586529205291847	-0.7855670102117186	0.11342192181645225	0.6133513288823483	0.1830520128702743
0.18272444326932258	-0.23457670627367105	-0.19965705216265597	-0.050168605953569166	-0.37027653722416215	0.23043872061199847	-0.2241390734883145	-0.02931010400745908	-0.08916190707545431	0.4287777214594476	-0.3081727000283691	-0.043927722984453715	-0.30014642147744997	1.2087659367904784	-0.043530219766962926	-0.007878772719703948	0.5712059330166015	-0.306818164845952	-0.14581357855801644	0.1667568162693455	0.5534695627020014	-0.04270183803844946	-0.2363924218643091	0.23123849349133824	0.5235607540665596	-0.1030568294404843	-0.0431485365454905	0.500180964751194	-0.14080715731313687	0.6857885886869622	-0.3411441029299787	0.045913059495388646	0.2111416148134848	-0.37099356504506353	-0.7907261976523975	0.029113639894873453	0.1295961042563853	-0.31804427217111875	0.6036428591686526	-0.18832686881216373	-0.16293230869535122	-0.4072984230838676	0.338589660250392	-0.08557297481042904	-0.5050246884922945	-0.254167310175752	-0.6080377552213633	-0.22266826439655696	0.6135081960872331	-0.16310685386824278	0.3628349959231656	-0.09415813049789383	-0.4032312106237344	0.2688701039112413	-0.04641835612988679	-0.026089104578450543	-0.2026017560052474	-0.568269063251278	-0.3438474646706292	0.3398866767318383	0.7759119562040102	-0.648433097930296	-0.8619107303701515	0.5208221933235525	0.621933600372415	0.7585082064056928	0.6697417680429005	-0.6526125666207663	0.4948798497556151	-0.4442030857274642	-0.2965537993684462	0.21218127534777698	0.5776292025474513	0.05807306916554644	-0.42291111034340295	-0.19109966172106999	0.08400737560819047	0.3578935439000904	-0.1573467316287919	-0.04093932632067755	-0.04911956633577948	0.18891086100563723	0.24382881812893287	-0.22264892221629212	0.388471629097152	0.2334799799137296	0.5104732075835142	0.6163351560409337	-0.2583214081146455	-0.15929746410402182	-0.25299480098487676	-0.08240270552416613	-0.022905507201109725	-0.12701958380475928	-0.11473526715656551	-0.14311047189225015	0.11333102143864728	0.25254887308818863	0.6236103744230661	0.5586519720866598	-0.0282812739425944	0.7958503702252101	-0.08563012868244714	-0.08169485242990433	0.19286336549818436	-0.042133566480672645	0.18641974050969387	0.09185851088412433	-0.12053807565957629	0.30889105901157926	0.005205961678396818	-0.38131471654716276	0.10646529501873743	-0.11348110664229757	0.25369749768400857	0.21313008867844915	0.12474798696199792
-0.46529685012815	0.6864040782873104	0.4410083028979137	0.9084960731853278	-0.6124643371586702	-0.12197471431646752	-0.6067087735278112	-0.33202811256108294	-0.8071779004140438	-0.19996747659134312	0.6333162084577468	0.27362087211630565	-0.36281137638935235	0.037505975297017886	0.20172133627716618	-0.19466662457027217	0.08293111379537203	0.1782388938318982	-0.6144958660776667	-0.4013958341927952	-0.25232472970683334	-0.4254842285058579	-0.4893798736656445	0.30301101936383396	0.06074133109338199	0.17499484020252778	0.4365981116159712	-0.06870885537934293	0.2519208063255774	0.41820114569178163	-0.4884800905149832	-0.12375813868237744	-0.692934216286484	0.04186578977248369	0.06649389796549844	0.012910920617154405	0.39689286795077283	-0.3128710358908284	1.0121057171664196	-0.4584655231555313	0.07670433736968772	0.05874764811197989	-0.4061074249733162	-0.43586673987929814	0.04508971291000838	-0.3320213595587566	-0.45779606562809505	-0.18370877561741505	-0.2624976477421948	-0.782975044311059	0.2031515382575538	-0.25735628858636767	-0.395107945757266	-0.2959059900727343	-0.36278029839344256	0.17585555793714638	-0.2631844938381684	0.20394868293128884	-0.39260903890350873	-0.33784489637121123	-0.09318279201044476	-0.25981889424527305	-0.028345414653051352	-0.7569496480934159	0.41383974851090644	-0.019846717336347228	-0.32071105407175304	0.00106244940817006	-0.45156230984051376	0.26709579959780094	-0.07515870564860488	-0.11865736736762827	-0.23405298758628285	-0.09549907140360918	0.13986358633913876	0.5588210433714673	-0.3805759109191041	0.24113069210828605	-0.28062505132141063	-0.5415487936266531	0.5166673510249841	-0.008038593932654608	-0.3273669753349165	-0.062059392105986086	-0.1292518721134829	0.0909016538667884	0.20265870737154645	-0.12745889274830746	0.3372205771697087	0.30337626898809794	0.3601805042103105	-0.3310939859737294	0.14708944936552681	0.15244098369646283	0.03753170403492775	-0.3553536441670205	-0.04179026838424559	0.21035411131668197	0.025703275847765245	-0.06198303365176991	-0.08458834916441593	-0.708136209829716	0.019667815729428002	0.18041089828325116	-0.34183514935905507	-0.6659947836704433	-0.3714603316767406	-0.20521005817145496	0.397952419406554	-0.25717445074955236	0.2909434908044608	-0.14812011148843426	0.8586759481821108	-0.09945335451686646	0.07874130354860172	0.3758234318614859	0.38853648123583906
0.6559047776732104	-0.2945819603969724	0.01670053116809207	0.15045777041023434	-0.12785879286124335	-0.2656411127678022	-0.800588981571578	-0.5216276907188748	0.12064160876294658	-0.4541714326659628	0.018790052474341245	0.17321806297461972	-0.05523452917038299	-0.15664954502630987	-0.0817477134009046	0.24385381196136363	-0.15496475145457386	-0.11541170636760596	0.02841123831686534	-0.26768437235734865	0.4881422482938	-0.7259243357575657	0.3786694297170321	0.1378925815203997	0.8486677128926587	-0.11404742218022168	-0.20135154405384767	-0.22843188403752893	0.11796592223492841	0.12185637459149058	0.20953911144904644	-0.31669920621217335	-0.5314045917485818	0.3046844586868066	-1.0048393839998888	-0.20616853012914282	-0.28630834926180526	-0.46519804275510085	0.17172719212045054	0.3193838265913389	0.007684280614252202	-0.09714935471891983	0.029377293017967054	0.09966279595206236	-0.19537183936422264	0.31731776022409247	0.37755664927480564	0.6433089651774745	-0.6341135389442242	0.18117369434441394	0.334413177717765	-0.16198120715460262	-0.02708202838841947	-0.28462628509241855	0.006749912516955978	-0.031658161042827114	0.18276380279947577	0.0011471881662979623	0.0455109703068882	0.48224890819628424	0.364389756459848	-0.25037711643785643	0.451188900282775	-0.0010361901293249375	0.4171394465666005	-0.8786781291649505	0.3040130963002784	1.1684424021236481	-0.2258877940827684	0.24986122266570868	-0.048423064342597626	0.19894033326957902	0.8207902952914482	-0.5801613308392394	0.11591484585477396	-0.1609300463970317	-0.11826780034745728	-0.06748030496430173	0.10468192160181765	0.7382487122387115	0.40693557352177384	0.20473172091383549	-0.35214378288711157	-0.09321370239552877	-0.06733347932534492	-0.15551893921621548	-1.4895870551447843	0.46504048211569116	-0.005792776098151943	-0.10035300269207786	0.29629327962935326	-0.0016782166142518336	-0.20664109419675955	-0.3146747611175155	0.47404431108231687	0.024704618415272897	0.40598461638026745	0.8113062528893124	-0.29690452548499446	0.0019638335502656884	-1.0293357585558733	0.26565278042640705	1.2772951605084788	0.5506397119815755	0.5988998587860739	-0.028195441341836717	0.19084866784150856	-0.6329330384762292	0.43729108931607463	0.5205998812754183	-0.09436344951258792	0.22737061079793944	0.9313810894894272	-0.19371367119186841	0.33304746080324343	-0.6098003232073169	-0.10394638402978228
0.07541863146668476	0.06558528614139154	0.23756805436238754	-0.3200974266974544	0.2768137819761754	0.5136536101093191	0.19558577980153105	-0.5441965590591498	0.583264385265683	-0.777954914320635	0.09498243665283126	1.0686321835849095	0.15314158645217482	-0.2768342063176005	-0.5544102082928067	-0.18735622981644615	-0.573835460831218	0.5343246431096383	-0.6265496292689751	-0.5806312550591182	0.1726260561711253	0.5569592524072193	0.03662400618594715	0.18363407036682003	-0.18804438991677483	0.40944535226610024	-0.2429629040021158	-0.2036770625348355	0.3124843926484803	0.20828143731868368	-0.7708732794972047	-0.6141254784180784	-0.06418010884281415	-0.030752015456601035	-0.007360574495594551	0.2159900745509282	-0.5467515887369567	-0.5359800174774982	0.31344747110158194	-0.18757758543241165	0.27048590667616057	-0.09361491424618335	-0.3971744190004855	0.09200856455920053	0.007538295257782535	0.1880913627102086	0.397421374913848	0.653021773213114	-0.12757892056801867	-0.05140094605382217	0.014132502475529543	0.2826477201014785	-0.1918847104385271	-0.1109965637360505	0.3493603991755113	-0.21771631233304456	-0.3106179495486688	-0.8610845022945318	-0.28777438279441897	0.3131123975466061	0.3814371627606711	-0.059511837499501785	0.25543723608818947	-0.4800024233903556	0.018670624026680648	1.1702116090522479	-0.01213659442195116	0.12722807670956676	0.14485710742398455	-0.1733638858245817	-0.12419658218161886	0.019929800128344128	-0.01755065387531833	0.14020905775780587	0.21888652075347328	0.026374391430536312	-0.14153617506575972	0.4280307349941311	-0.10029017077487742	0.06485928007197135	-0.3735473025543334	0.4970434879568908	-0.430486004366902	0.7423023697717946	0.04942039191117434	0.5074357372776248	-0.07612767415615511	-0.7028822466109758	-0.02833294838054039	0.10104820558497807	-0.17572572396530298	-0.3848180432386877	-0.6707431288789297	0.5472318002367086	0.611138565102404	-0.014599605833876825	0.40860788265140985	0.49382508145587267	-0.1303430363274459	0.08089195614667603	0.7747822871068613	-0.3131405651107994	-0.2884504343200728	-0.1321697462435727	-0.0947426471421825	-0.33962835971058475	0.6433101598369828	0.7010243863547652	0.6543727111539505	0.5060295920480159	0.3207100687543494	-0.2584554261937148	-0.7617146257459604	0.022924888021438272	-0.3741268825986069	-0.10546575653522534	-0.07306117617210343
-0.005082222628825092	0.7557883256052667	0.5817611071116402	-0.23175472840239453	-0.017550889415117406	0.5074849463970527	0.17472118610021015	-0.011271500804693448	-0.0004912059559618782	-0.8713492215873931	-0.013619928261358188	0.2764395016836824	-0.4656631287994086	-0.5239211430376819	-0.3414532709214112	-0.9659473764655762	0.27936217568657734	-0.11845049030693694	-0.5375877010466591	-0.11094301645758803	-0.1632511428663708	-0.3299205343090656	-0.08079998693865735	-0.03170472711567832	0.7691483725562096	0.050225762579227194	-0.5463086575499899	0.5906715337095754	-0.7494654422596391	-0.1388730734527619	-0.22402512952907885	0.3248586310253569	-0.3297262721833766	0.1404059568431031	0.29651226042983037	-0.3019411210648371	-0.16736177128802915	-0.671998074530569	0.01854880772677348	0.4894750754809699	0.16700882059299604	0.14306811671265582	0.14942216390521718	0.6853183333031155	-0.5196059555223428	0.6116418737566892	0.21125434553990732	0.44448070865949874	0.4820622258759163	-0.9791764931219736	-0.29762827955457416	0.26632934685788007	0.016659731499806377	-0.39853222170520464	-0.4970059863619245	-0.5933282992068308	0.022137796470106316	0.39515908642379843	0.3326137224384597	0.048295524581176016	0.1145015459848519	0.7468778018616795	-0.06386125744162104	0.4422862613164864	-0.21995741200929547	-0.17462126304872416	-0.4082488595029658	0.15269300976684613	0.24434881696561345	-0.2315884789430291	0.24272780037492706	0.33144663338386954	-0.011228783563729236	0.6707448336952525	0.6232421310887177	-0.8793826112830014	0.18344453007253075	0.2851993018656713	-0.5488507098379287	0.30278930474065374	0.32330490162752984	-0.45429879916684873	0.5666691862957631	0.3065853578512499	0.15744509189986447	0.8783425280757203	0.7101548899983168	0.10094918547360865	-0.6424135282809258	-0.5978344040225788	0.0981696625747235	-0.03545527826930678	-0.7824659917004182	-0.14557824982138004	0.023341254584861724	-0.6127505224200377	-0.39229399396123216	-0.18195050958196796	0.444279955588744	-0.1846438928765081	-0.5906648168382416	0.03715779203929631	0.1976949332714967	-0.04551447010895694	-0.04947399297210476	0.2860860229801749	-0.6602811550948522	-0.03403650236279293	0.3119732877505324	0.12641193573448775	0.9015728885034506	0.5709861844474738	0.2654211501047694	-0.6880357365956209	0.2385801109733893	-0.46107578483478634	-0.1901772581712222
0.5563206564088021	0.2709863724693999	0.2887101430128916	-0.3356584603782788	0.15329528228247474	0.3435778682715383	-0.48737350388388695	0.4699877207136672	-0.6457071151603405	-0.03265920296053447	-0.1514418944367168	0.12744185599984267	0.13121779075389994	0.24325502195927148	0.34109300444773727	0.30737670896460334	1.0265925548916495	0.5593724414416962	0.2790381838101302	-0.2996124243177499	-0.11547218401591929	-0.6975612029872724	0.07692838145612525	-0.4952974162188469	-0.6621131724928072	-0.16915909417663522	0.2811093272312221	0.09215032299270332	0.21249741859512417	0.06056040331423008	-0.30212862198950036	-0.12940106594286785	-0.07975440955505968	-0.0700531483837429	-0.7854493509707636	0.17079374590896032	-0.03504144017516082	0.0427205883841785	-0.4039772776703102	-0.39350124943678777	0.15385982242688673	0.38631991002301497	0.06009714872553023	-0.6181542711604245	0.6329503729439004	0.3083746569799901	0.073875636930721	0.5225145076004799	-0.12951102541730847	0.4622345692819566	-0.929804946289674	0.23539801369517208	0.428855820034531	-0.08650335602949176	-0.1857401661154409	-0.3460947587682209	-0.5669262128927749	0.33144539505083925	-0.259059969263759	0.19157142906443075	-0.09801959622925863	-0.4036750567297504	-0.5547310157679819	0.07916546626264781	0.07755165932222835	-0.01031894086721645	-0.11919577782739404	0.5194951810699325	-0.10494519202594133	-0.24015345822026488	0.07020909855168884	0.17443505221146335	-0.7421507221435124	0.344878863007303	0.8813757514971867	-0.6673223736862157	1.1269744876254013	0.0806684015072984	-0.7676545248928486	0.34442165409789643	0.5468889371585228	-0.3380885697501764	0.4330630174030811	0.41760266715390576	-0.47671558424766125	0.6388678426776006	-0.44398427345917113	-0.29285148295893854	-0.3521947213221372	0.03146635257143628	-0.012692725337845516	-1.0173332986636907	0.33836720056933794	-0.06977352089380481	0.4929749761262514	-0.4502764630786422	-0.6181120643427108	0.12591495498906058	-0.02258953769490399	0.4330764443447476	0.48469303817859855	-0.1654725216131151	0.31281104788069164	-0.04044122250546272	0.6382747598813924	-0.654812862680658	0.019122024569086564	-0.042553829702423496	-0.4172453180247582	-0.7327593043303701	-0.5076103276567462	-0.01955798131923585	-0.019956384120699493	-0.4401507202007547	-0.3097692321316386	-0.9178099494378434	-0.30455438669183643
-0.0347190222505392	-0.19635204126431702	-0.9386760047626385	-0.34003129512702746	0.014034826213407871	0.1357219558893113	-0.05075800718756682	-0.1581417631150502	0.1606154771671568	0.036740399146210856	-0.35567560785525265	0.6728733480859058	0.46954882774614803	0.5925249389648871	-0.430734774902019	0.27750668209668555	0.32665569614897305	-0.9195619396849226	0.30190087827371825	0.38390176934210557	0.2070956090443587	-0.5391888823080401	0.45416947320485196	0.589783817239508	0.6665276416091036	-0.1316271652191049	-0.44055796168711714	-0.13794301879895468	0.07950806134956734	-0.25185321795946275	0.23607518175719433	-0.2990684567345356	0.3514014677165524	-0.11779267426030327	-0.03239963818748679	-0.4659883235682707	-0.11666063516547179	-0.8067215698905915	0.13049796695249397	0.18688755679952682	-0.20502657403664348	0.3492800964521689	-0.015373222866724613	-0.055969637019377315	-0.032228041786278395	-0.23761665221659498	-0.2576606855301187	0.19109267933160404	0.11199775018746874	0.19346405223119514	-0.4045567655947079	0.5670270411459577	0.3506265085243236	-0.1441039817091433	-0.73578139235857	0.0733408683482969	-0.20053032133775894	0.6049854485097991	-0.09003421398030317	-0.316868142428102	-0.8944900877530365	-0.1489726963657364	-0.15018274362628578	-0.1116915366245791	0.08710886878245383	0.2623622613883458	0.14174293814093403	-0.532959850750746	-0.11422791733646506	0.04254222218582608	0.025230784722651504	0.24577418044578073	0.1453923396178771	-0.3747587137681973	-0.7174216249485046	-0.16239643982794863	-0.5220023197141932	-0.09412738846247908	-0.019310818554248956	-0.4399958471647283	0.7149979560010006	-0.7728083315431113	-0.4601746653481387	0.2613258713782024	-0.14378344879305385	0.3140611733088829	0.08153687908178117	-0.11556280750819745	0.12648024388580073	0.2353089630529398	-0.22758323758194415	-0.19610040127258802	0.504268328426871	0.19833081711047257	0.2157990791184287	0.1479723130608357	0.29747882954430954	-1.0856664133965266	0.002018797925511132	-0.3941660987099434	0.20718775573794407	-0.49925622434737216	-0.012097643654023622	-0.9364472446937382	-0.5696876382431628	0.07583673309499457	-0.20902780725511225	-0.03685879932329238	0.15078888583123431	-0.0970323089925429	0.1527144621646277	0.24633322204359753	-0.13394672534868143	0.6030639633416393	0.15549259318856704	-0.07799699601590421	0.38549754550794013
-0.35679946062634027	0.16735225817773605	0.23450775286128345	-0.04261084492502087	-0.17017320632579522	0.01461019894361074	0.14686396372551022	0.15081533771969313	0.21905997666302252	0.2779401085536771	-0.39759872803685714	-0.2778557239013297	-0.4501644400328983	-0.08417255505295447	0.1480511087330378	-0.37674449487462325	-0.6556026116407718	-0.2897602530217522	0.08005848977672232	-0.07321807347436363	-0.3361364779949806	-0.14748664645343335	-0.1654806618597049	0.5037453416759848	1.0608101685598694	0.10944723496883209	-0.543962240961176	-0.25170385383961436	0.296779715991912	0.20483022124354527	0.47050608435736585	-0.8287821271919112	-0.0290388064305607	0.5443039649691606	-0.022583300437216236	0.43949386212878205	0.44588768889389263	0.05901645691376419	-0.4861905384610288	0.02989462467132459	0.209781218549411	0.7139017602861842	-0.26016959063223016	0.14626970134611325	-0.09330268317724888	-0.16011425187081338	-0.07908844811516884	-0.4142991363257203	-0.5873729792877547	0.10229248279326326	0.6581098426866793	0.19099023513718175	0.29376416188221016	0.5965657091789617	0.20486933236215268	0.3493976716844092	-0.41802263078914037	0.08620579201612295	0.08946714947826256	-0.8907490902164759	0.05126423604063418	-0.4162959038522342	-0.6171443132841371	0.24392625669494641	-0.7481524004405173	0.06464169060080326	0.31398612313895774	-0.1789884151302119	-0.6646557985229532	0.0958669180972923	0.339332062302212	0.6941386021102043	0.24895832719321986	-0.25187043888565985	0.33098498854778086	0.4198837753308212	-0.3257715157404676	-0.18027929232119527	0.18053704630061218	-0.4428478310099223	-0.023908354456863345	0.30287092136277144	-0.409234952095513	0.3435751916428939	0.2626313969659731	0.7014968449387485	0.5234199418332732	0.3226029502540002	-0.39188739639910336	-0.18306376366859187	-0.07216156295205962	-0.2601991253652994	-0.2397667685583866	0.35133490960157415	0.7891497159796325	0.7777481153662819	-0.2125984274433433	-0.0376503401270759	-0.14283784443500716	0.14777231572431668	0.0470475384991223	-0.3324436245427517	0.4586892374364768	0.22299573582380947	-0.23212062191621435	0.09488475659585002	-0.7761592842162538	0.24606407708039632	-0.3981161250150524	-0.01722684182938027	-0.7642877483816284	-0.3965990501635944	-0.04274259421588882	-0.8760770700518024	-0.37400070889559783	-0.17403914100680154	-0.2699960217653094
-0.06453360687475677	-0.4665369862973988	-0.18013610586693166	-0.7866187824741663	0.6062110214205697	0.5403983252868351	-0.19540873153903712	-0.6596025204456784	-0.014816509056678183	-0.8452208734380425	0.03193457602498136	-0.07838076779970511	-0.1227355943348973	-0.1903459330458917	0.6928145562862875	-0.5393685067990415	-0.11933415402279174	-0.11054386111835977	-0.19647131863098657	0.16914521124274506	0.13448609634358658	-1.1114085712264543	-0.14750372846100557	-0.11232612784526746	-0.33015295852824966	0.8091606854643749	0.6113905683339962	-0.3597311743766014	-0.5663087901304019	-0.17683699921609866	0.03922247989343817	-0.7271899461323298	0.29115932771228414	-0.32101127324652157	-0.4092249507612853	-0.7931885048476656	-0.08277066020233063	0.7403482238018481	-0.14271340161604112	-0.02906167874589222	0.2537569994384153	-0.7251111526353108	0.10597068195755277	-0.4156129624189091	0.3457936238016741	-0.16060794375885662	-0.1676524112193015	-0.5195990892503106	0.32457896094765387	0.48922632484348383	0.11792565824240332	-0.5745922535988481	-0.249455202272937	-1.02106964762545	0.5524737918571392	-0.3096048277008787	0.4174086174749469	-0.5773891131401325	-0.38982583525996456	-0.23429129590882006	-0.03852476795421288	-0.4554906393155835	-0.6248392056622019	-0.04321769481132557	-0.27600501267584004	-0.19683365994892912	0.40643665823872344	-0.34441686153821083	0.2572650923496548	0.14921694958731063	-0.3501347362970759	-0.09001373596869001	0.058063331428433604	0.2531645293732594	-0.23630409074876957	-0.4997866905811471	-0.08547617441092713	-0.4671716550687975	-0.7648483322204657	0.44722971437013304	0.2820145634161265	0.380015965241461	0.28018200840199325	0.45693064592422	1.3055696982143987	-0.4881807948107371	-0.18316996301159005	0.3708691055742355	-0.16673105484200904	0.06807584151376747	-0.06388932340954832	-0.032407631473975046	-0.5364953099240499	0.16388527495237776	0.1800231470834252	-0.46764567542720864	-0.17055492084663634	-0.2832407936984328	0.014495090204710515	0.09829404923945681	-0.01693768176654974	-1.3142396962088017	-0.2965024901291624	0.9415943041010562	-0.7489757275754807	-0.990261076261701	-0.2277738369960062	-0.47193321252629067	-0.08901247560574495	-0.11998059788635633	-0.1266648528807289	0.3470447557578795	0.00933139327320834	0.0836290897662894	-0.17745998646164393	-0.6457456743144403	0.05111287365066691
0.27078588084055083	-0.2391451611034164	-0.2502038375209469	-0.060276728850388636	-0.13030322504019642	-0.462416298183984	0.07313333785383486	-0.7422060766928151	-0.012495210447310319	0.14778592125770318	-0.1564637200568584	0.6546221478445102	0.2954714800182408	0.3878921085555279	0.7715376581345865	-0.2247911568878375	0.08470921141895038	0.3012719017307055	-0.5380790663065657	0.3245845365017874	-0.6814069931351464	0.2941872686781995	0.3248118874023986	-0.4801106474387685	0.2249973540411187	0.1346726393013329	0.16585314488448724	-0.42733875456869674	-0.04655128270688098	0.2912816794228774	-0.072500018064694	0.1999202515462774	1.031558180029349	0.11967140530902319	-0.26245679525613586	0.726962380914324	-0.436172718579359	-0.0344789358672921	0.011192353451301635	-0.001705676698045709	-0.14367848920478646	0.04181852834024587	-0.43846987223473477	0.6490343594459311	-1.2110849868014009	-0.34473228607441697	0.3980341643908492	-0.26181639936754697	-0.7042580361431358	-0.3008689564036436	-0.971786801739115	-0.04215138851710126	-0.22399908485310838	0.060953257027698424	0.7159089078580056	0.12182860075504282	0.0714924427728655	0.385826796651315	-0.27889486241223965	-0.5188071030081642	0.18833113705083657	0.2577446695361161	0.1431762339566758	0.056690890463675994	-0.013602736433811448	-0.196108005727715	-0.08975370394963503	0.29358835737814365	-0.06878238536632748	0.23986826591143698	-0.517840403501185	0.5278093180214428	-0.8810619985557834	0.2754581024636939	0.15799948609119044	-0.44097085238926703	-0.060794403141248815	0.3288556500686571	-0.06375399418008904	-0.530856716187847	-0.14037649300645397	0.539887174776354	0.08077739327534224	-0.07064192124051004	0.5613773444325251	-0.24728827390400013	0.19377664344135317	0.21449016318809128	0.6297121124385191	0.09145180399809366	-0.2585698749794753	-0.3200656211737269	0.5186240786782039	0.22116301292176888	0.537696540460809	-0.07437157712093168	0.3724738035063361	0.008186463199253643	-0.08282999527186527	-0.25823960053026584	0.5325855574722909	0.38209504974942443	-0.022117004887328207	0.2804331847106367	0.10936725127491223	0.31211269048584106	-0.1652482646681628	-0.372476394620762	0.026107771602087177	0.34660253024212545	0.559326464100878	-0.029329757275202373	0.048081026262134896	0.3399747471608106	0.4334125926708155	-0.34707925592946176	0.38184150555226626
0.6499539839105795	-0.14861183487692006	-0.01799974661011454	0.022976017321794447	0.4484841573662621	-0.0006042529062734003	0.9293341718317641	-0.24284934788641577	0.5735685570732766	0.021394758912702965	0.4076697050988226	-0.16018076510218998	-0.04629895784780049	0.20351429257039344	0.6493408378678253	-0.08215171096826004	0.9143570829869196	0.08218840833841234	-0.10791743707758415	0.1780947028369267	0.39002976007533535	0.022655646090253747	0.37648519563117705	0.3566244850594354	0.5685625932283571	-0.6931601979718559	-0.0943059855989688	-0.18425489929888322	-0.13809001333573914	0.05675959184104372	0.1235148935676217	0.44117590842149595	-0.03221488346854004	-0.06777635500534045	-0.11645444604002361	0.19896773840802204	0.1442226971600175	-0.5453700217070363	0.1912671528766557	0.017370145599450347	1.1122968336622339	0.19619506756720784	0.028084833503111764	0.04698007047478934	-0.391906128489664	0.3017805038720005	-0.8576813461249474	0.10461564790713136	0.09556035045571508	0.022905502909188257	-0.08516535017999938	-0.014717517756506683	-0.23422445609662734	-0.2844226757029444	0.3478461761958104	0.056201512082234145	-0.1267813623027401	0.22622142920688365	0.685132892915127	0.40662582410699	-0.6844612553659691	0.21176367910267183	0.2670183543357102	-0.1874294362263912	0.4097751998335102	-0.06107009735041647	-0.1810371696972166	-0.23266769710801205	0.43633572539882	-0.013591302667967375	-0.1026770073082846	0.03834116637325848	0.6464419003287505	-0.538988888057568	-0.10576307738880136	0.91751924587432	-0.09216259553520041	-1.2233232189185266	-0.09633832307494206	0.02801601208095663	-0.26948384007442117	0.2047085080105016	-0.29414940021855634	-0.06990644347892833	0.28680847789739	-0.3804911620062467	-0.3386551299490422	0.38525434401068026	-0.11128030438110073	0.10008747452886958	-0.2629580549333279	0.3759971706412559	0.459800202034628	0.5037372050866203	0.183930768384768	0.22163865865365898	-0.320522187273024	-0.4060584459950015	-0.10450865769486044	-0.22486105088394978	-0.4347027924230315	0.5145055092565822	-0.9457060948138918	1.2188908729612902	0.28068952376205875	-0.8147463182777847	0.30931525394750775	0.09933399979143077	-0.7471001739304263	0.6740982876693962	0.47513832905091724	0.4113515385636038	0.002245871540952386	-0.6282272802537471	-0.9490664740266322	-0.29639454132906146	-0.4310934452225976
-0.2452630418696961	0.18227311369531615	-0.39523526137552345	0.8599680789947602	-0.5698975777080112	0.5620972312522124	0.04048033910672768	-0.877025858064678	0.3555720452179307	0.07653327008654356	-0.845775822158316	0.0722998631566779	-0.44870532451048106	-0.002956308658800347	0.20186767693680885	0.5751388614794102	0.4942471763785413	-0.28443138282869584	0.5779310991789613	0.08586445319649914	-0.36190755578708944	0.22084096272930764	-0.204566227211657	0.7130802958102402	-0.675842696080571	0.26679592258072393	0.40278071814806354	-0.497209500424226	-0.04364129822148282	0.08508008042298414	0.04128423837277497	-0.017597996510781623	0.38745271857927077	-0.26606789067914693	-0.09783268157443327	0.0006534611848096653	0.5728396627051469	-0.10388957067203117	0.05634202479014108	0.15710821065528555	0.11753074398818329	0.24550686313753006	0.4295916065431454	0.5925881574108665	0.3401287776097367	0.3366542729555287	-0.21669368736715938	0.3232290372105422	-0.41267220131496873	-0.02792441274092437	-0.09025812126001548	0.10699482208584242	0.18040466735240354	0.05441908737403641	-0.04146722294681966	0.10035532986003222	0.3670857867574063	-0.7523140358717584	-0.7070027148444985	-0.14778960084099454	-0.3108743648948939	-0.16066722930382502	0.3096423687240649	0.4155518417772573	0.3508026311661624	-0.2976035552754636	0.056272726410013865	0.02690600453916749	0.13608692165207714	-0.4026692656926937	0.2897048494322949	-0.83059656876292	-0.06439094314024787	-0.07700164357280483	0.6971609043758356	-0.08907624493061551	-0.37402950571250354	0.36143804847357935	-0.009254303025356304	-0.5515330392858779	-0.014557763993283067	0.9669384686154213	0.5170777420201838	0.08327044595979831	-0.43196105968745563	0.10008511053130706	0.8275624167764407	0.3544432343986521	-0.4448438031876427	-0.3994692732495514	1.1410614436250615	0.8516915138764958	0.3942688328776542	0.253615986950444	0.5903126635564907	-0.40656041112776453	0.08940354747861312	-0.9910530775041517	0.24031661610352367	0.16398916229326316	-0.7053969423517122	0.35149002887203956	0.42264427666557514	-0.406517398532803	0.4613825738934919	-0.5441050738537024	0.0489468071467055	-0.27249088418483	-0.934563149032299	-0.19297019332589968	0.42849217283673247	0.13163467490932634	0.2928142828075044	1.0204334411220777	-0.5419266700589358	-0.5072055538088467	0.0946171393732143
0.12407969699552367	-0.040044886368463255	-0.126238915051619	-0.15559659193976108	0.04767645416680726	-0.3419740062094349	0.17928722124309748	-0.5100144318776721	0.21686035297707876	0.05969381348153209	0.2325255271809337	0.832088032587545	0.4464518305068003	0.08170006885730877	0.1649096354293256	0.1784802385403943	-0.08491638576956975	-0.36350110442990075	-0.10144263319110483	0.23328900187753973	-0.17686488754738697	-1.128056201073837	0.49344965269326246	0.3634875274601517	-0.39175643562432744	-0.042205745370859346	0.8242158156065604	0.4521924772785385	0.30875570676319203	0.81003772422462	0.4429424919608085	-0.5893762485804387	0.4771126896340505	-0.8940136964080967	0.5148174608224632	0.33478018567387646	0.4076307973150056	0.6822439346641204	0.7364286362157886	0.8212473208423372	0.32769617275744967	-0.5460346868927557	-0.12165887509575696	-0.25500433291435065	-0.3542835803066064	0.3398106474746411	-0.10958163693354216	0.26032621707862014	-0.02987021044162077	0.2637708653108694	0.4485740944768413	-0.0126893987329359	0.6521943218668608	-0.3511193228443655	-0.1518309856285277	-0.6091523719083267	-1.0221165014873066	-0.2094336007264853	-0.41303922701673557	0.20913162832429158	0.36163364737876097	0.838987131006415	-0.13102801119978796	-0.22194396202671254	0.012704648090029764	-0.1562481971255853	-0.5819500245152587	0.26821689533923504	0.2777490827624857	0.04814589925620219	0.5430561980511655	-0.20458507854205388	-0.7157991909478718	0.07503655918782492	-0.18441271446033852	-0.23962360632801025	0.008308291558821382	0.07117431623394647	0.626259089126211	-0.1746538621373165	-0.558527608878072	0.6369792066510414	0.3273614188514014	0.18802096473196034	0.1690197418907466	-0.03706610484471487	-0.5785927829352183	-0.18796352202966926	-0.8517749244006275	-0.40030072086611745	0.26994545662942787	0.01060393592668813	0.40256362794170614	0.3661712476487331	0.21942969060614634	0.32428813849595634	0.4040558856360548	0.09871786212819955	-0.30416937673756295	0.07462193900272394	0.31497138380073797	0.6110446129441597	-0.07788840579028333	-0.5334354299503447	0.3111575528341529	0.31386611651237944	-0.15965922724054876	-0.406003248716856	0.4914437864118391	-0.817460000824963	-0.11056475745684609	0.15997798701737667	0.7490850782176643	-0.3042066179736621	0.5355780081399314	0.7940341044359589	-0.7003020186909749
