-1.4759851904925587	0.9994604779660524	-0.38196438290261225	1.982938751981966	-2.085801487419772	1.1829661720521676	-2.6409146969704254	1.7266104618895737	-0.18078101703183455	-1.0262773710980406	2.8443958478234705	0.9077105173530368	1.0696934476757411	-0.7389301602851189	0.7198183119795575	0.5380787520889638	2.9095585797212284	3.86163160720309	1.2657616984027338	0.8787883823066571	3.8894067898608946	3.3594905439447516	-0.540756601834344	0.5414811682630999	0.34353856993534454	2.1878807469637405	-2.7211170848794506	2.0194882032085615	-0.4783307921670151	2.02152638115493	2.0903572782582374	2.0627112102364253	-1.4206486356190258	5.693715442658334	-2.314933869558782	1.9689162175924169	-0.8640835340000977	2.751198386868947	1.3279653752708835	-2.169326264271144	-2.1984495922576666	1.8374260148909891	-3.7421318214294543	-3.597637332972211	2.2645115890180505	3.432540656406186	3.575278490133961	2.209629502613064	-2.934918643396848	0.58500396573612	-0.23524193444680874	-0.2800068957520439	-2.941310019506572	-2.2809839547905524	1.1546616842430224	0.34561800277006627	-1.8140583556124033	-2.993241410678681	0.07550052065742203	-1.3618724132719755	-1.6821749040949736	4.179901616117592	4.243868531077824	-5.321859984625732	2.0793551088304327	-0.7752298177079464	4.799824856113286	-2.363579049418807	-0.258107807331043	0.14213384755323052	-1.5678229645407875	1.2417756649598324	0.9556552197638792	-1.3659221702021302	-1.954206225655947	0.15999864344299675	-5.2623085574247765	0.6939411789181095	-1.7794167848164384	-2.040502712036878	1.0155798437540347	-1.495120556603641	-1.8074943299318094	-1.5545080040564485	-0.5314552534745579	2.3961569305397123	2.4876840293107128	0.520985342975274	2.7419720804039494	-0.2383188071871776	3.9276803640339595	-1.0383265983971688	-1.7085894844649698	-0.09196552500017811
1.180814984083388	2.1841355865863847	-0.8907486916810908	-1.833828976074875	0.44700641997451496	-1.502627076459722	-1.422120830416554	2.02948490827332	4.066635323137855	2.400881592941832	-4.36569542211356	-1.3016151363343138	-2.301852437150889	0.5568425138953303	-1.6314443614233483	-0.0241114578133729	-0.4789039745988321	1.0695963845343588	-2.7121909958736636	2.4341043169534418	-0.38154641278694423	-1.4666431358536565	-1.3814551246866582	-2.864438535563555	3.85657941108957	1.8181299641659812	0.9707974544607623	-1.5875444178285825	-3.603566950058564	-0.6129586667219528	-3.9913783152919917	-1.33191288462031	-2.0156175187669874	0.8097936420554989	-1.1252012944829224	0.9917416392779465	2.506121090773722	2.6252084728713423	6.0120083389086165	-3.180470150893091	-1.9136671023649827	-6.562902558479499	-3.0608775213957395	2.728192686708668	1.6859814294398685	0.16940724438970028	-2.791228298430007	0.18983165157825274	-0.12583918697627436	-0.48193605542229695	0.6785885548085028	-2.009288573679815	0.4177558394807462	-1.5148131741474378	2.0054164590113848	1.1825454863795912	-0.8776358062516659	2.133440771535477	-0.07897735300577559	2.937614588404849	1.2618745982392368	1.2753514814089826	2.7043745309384537	-0.06156105427823197	-3.393772894568648	2.5211641315218714	-0.1072520481629798	-0.5174519003592999	-3.2205973207871366	4.896887386238492	-6.018145583216933	3.3238493298018423	-1.7417365407574565	-0.16378939340279733	-3.9231141758075734	2.9751005887827175	-1.466019874821988	-1.7171966330095445	1.2794290864615556	1.7342729588884511	0.44595482599582853	-0.6046546884447965	1.1352567267414642	2.284668406393111	-5.020007273601493	3.6508036306125153	-0.8649882828709622	1.6616310876813791	0.35487828143257927	0.5469298738458945	-2.390933758228541	1.8334234931523377	0.5702464023016817	1.9421492272723757
3.6052555172423277	-1.0141204643613215	-1.8470163046567862	2.317577304521318	-0.73051896641814	5.002568076243182	-4.002707142431507	0.7336079875861221	-2.7048187512622834	1.5387561590946055	0.8944836562510348	0.7516428157127092	4.1939603664764515	0.43509758763305845	3.2416038348484113	2.8524308152836495	0.3546400244703616	1.161162912239168	3.505333215754708	-3.6228274687900117	1.0043226317103198	-0.9825195989853897	1.4491912664624846	-0.16920314865985034	-1.3909106105798568	0.35328428002486884	-2.7227929418158086	0.6887557487617241	2.7167371259147703	0.055690657178060717	-2.0570831271923944	2.628509076775026	-0.8169485692311605	3.0324806282947887	-2.2256295470153242	1.0964609281801607	3.88052450848461	-1.784702102502278	3.9556328227899407	-1.2352743296849773	-0.24215706404334433	0.31923865714609884	-0.5724387035676163	1.300354449868055	1.4053193249321478	1.4550173930966812	1.442644774697924	0.22460345111392857	-0.1783434929590506	1.576539972785019	2.453504973965348	2.2092780291639715	2.5154310181423223	3.8195062381764204	3.463209666862891	0.5734046337557734	2.791071436052122	4.627493474332624	-3.2126121453572107	-0.28853387918708884	2.5673462849832567	-0.030650691386500457	-3.4078557619383667	-0.6803085956153491	-2.089435551394815	-1.7434158013022247	-2.4173583699808137	-1.52251063577775	-0.5939896776473117	0.6424402792744384	-0.48601673865756095	1.2646962338369847	1.6146512745918673	-3.451232678709815	-4.1819627203567356	1.6306738866570343	4.096943749052322	-0.03145739324580001	2.0386665538681243	0.0032519000984993908	-3.1439133939424946	-0.07620158289547535	4.183049946164491	0.21026259730248043	1.3288975722910803	1.22536364923136	0.7991431083748265	-0.01509836730265302	-2.5480485161252884	2.5384298175984985	0.42095788419120744	-0.4728046987470037	-2.034045784789948	-5.29016318947099
0.6467190900844874	2.1738773810070495	-0.9666526746851852	-1.006560573659317	-2.7193685761761626	2.587335768514633	-0.7301479556927523	-0.18812565804710107	-3.1182309155486885	-1.847422157003864	-4.601616275629829	-2.531296221604356	2.5797181889727336	-0.6022183158083303	-0.3123247367077946	4.996772778812785	-1.7799092142324453	-1.4819445648165799	2.469620592626279	0.23901577530684548	0.3860561829463615	0.9622557747562749	-1.586841359229256	-0.388933602855898	-0.4946485823201963	-2.3477940926863528	0.823433029883321	0.7390209668612703	-0.09437607428598789	0.6559004612161884	-0.014299016548574404	-3.2554251041372533	0.05461158964105934	-0.49689284342205997	3.681907356824984	-0.44169264884687226	2.587870231511316	0.24820491474219558	1.7411561979920613	-1.2286071791644158	0.6370915899940105	0.042269895745360435	1.6727181473055042	3.085944185481564	-1.3517545283228283	-0.8180441346865915	1.4681628981191603	0.5945241648462637	0.917262563489172	-0.2395671059609117	-2.655614780843358	0.7622319941330953	0.39249758271806073	0.45520075507422897	1.1227125871476815	-1.1329213440581354	1.507218657810213	-3.9396193554946604	2.999779639707207	3.3866094757761624	-1.0686789906859488	-1.167022966364891	-3.47201739854384	-1.5067482928809008	2.7537739045026313	0.8597607173101709	2.4983053840162692	1.433077246254148	-2.6855986168420167	1.9275540428733426	-2.8461223469749375	-0.7064191930579643	2.281044620396332	-1.2996147661811455	-3.6414187607072193	-0.5416766056919546	1.4397656268558168	1.2655275990835684	0.6743040030724812	-2.1959202706683976	3.7994140523784203	-3.932559358688632	-0.7266790124352482	-1.6226119419555494	-1.1860111304081509	-2.5724903582611676	-2.5377108570481104	-1.7548065748445048	-2.196888381117899	-3.200450165472782	-0.4520531941764211	2.595196318590555	-0.7372558712091254	-2.3168026380579043
1.9037157178919966	-2.246505385340331	-1.3437064713767393	-1.007678447737659	2.969507216871956	-3.269906737494874	2.7207121677469877	-1.1329513480838524	2.650723552199067	-1.9275717652847522	3.2652773017961603	-2.744048668724413	2.0136715350134873	6.2379344803145855	-0.4431007559886473	1.3913603698239223	2.363524813542144	2.6430303658231638	0.016218378885477093	1.687372419539673	4.531296757354718	-0.2126019943940337	1.576301611015503	2.1201050420660486	-1.1477286979732444	-5.877483275281044	-0.5839820415264534	-3.5115256365070877	-0.42957083332303236	0.6741604050143801	-1.4290003259148902	-2.3519766234646267	1.1603090505117852	0.09786990096434572	-1.368214176226927	-4.001315305323138	-2.024975441003791	-2.8121317892335362	-3.6877595460649024	2.515978322835203	0.8993111549412401	1.0180476735313773	-2.233593610060009	3.2728117444371483	1.0874098686392122	1.4240237393422717	0.1379255095459924	-1.843050875217419	0.2905415832505915	-1.801664106672069	-0.05178649179362919	-0.529434099969076	-3.470887820501093	0.14482105041289287	0.36819387883764954	2.2900379106089774	-3.2448164617153794	-2.201161685768448	0.5655300928636883	2.799900615249962	0.5530162755194641	3.2260561108999943	-4.227866214016967	-2.0619829493652677	1.023971530606055	-0.8162484229353189	-0.9046389515456615	0.5408816738143565	1.4080150906120896	-0.9312311898510849	-0.9605286388158236	-0.00258739266406259	0.11692933052960433	1.2960785454035821	-0.9967044387895392	-0.14080406507252557	-0.17469830924894594	-1.7232605312055778	0.28536796257970737	3.300064910812574	-7.872607722337881	-7.063286648921355	4.502737160829085	1.6762517762371252	-2.351973680173409	2.645697830686539	-1.0484109536615036	-0.3063793749936604	2.458330476018531	0.7169342908223474	2.780097382895784	1.729090790324437	-0.8401908035363944	2.1742293040677714
0.6306839596586669	1.3272726985287708	-0.8524519979100031	-0.6082460456157769	-0.17860921774156346	2.824041764627172	1.2046398012810127	-3.1024955083945303	-2.1471763131152173	-3.936004597562307	-0.2900452400430022	-1.324386079280721	-0.1802611489428509	-1.9770520704140344	-1.322134873403902	-3.828851817563342	-0.23200486874765266	1.6603846239511635	5.17523860199176	3.1719665616479036	0.02194446012091233	-1.6071102252850347	-4.678488549560842	-2.161106146418434	0.5938819431974406	-0.3476011197268443	-2.4952109513381133	-0.5068173624537268	2.289983829436528	-2.9220804399475164	-4.707687039816219	-3.983100604947126	-1.9048124122927548	2.8319044859804032	0.8883112013850055	1.8633707126130463	-0.021463181793540866	-1.5214944027623862	1.9721297863538771	1.909136021078027	0.7922632131170826	-2.0363024148669995	-3.1941833456554907	-3.1386591562417836	-3.800083617056989	0.10740429213218372	0.19222863009981037	0.11304724576899498	0.1452826063656083	1.7333833997267487	0.7699221750059063	0.1016565231807818	2.362240492194094	0.2334624275537758	-0.03541318077804026	-0.2039734854907078	-2.329589775326421	-3.0102002637900256	-0.9474080006827714	-0.589290246128674	3.8691335608698534	-2.4308056908542675	2.9879667325382346	-2.090343576240958	2.3404744640807396	0.2855971771585065	3.954105235924015	-0.354700835340315	4.225450510479666	-2.0039126424587113	-3.321898261303925	0.5641250478234249	0.7585223033556928	0.3335087918381934	1.5651323733666442	0.975943089947021	4.132014490435153	-4.549354088092572	1.8553206458080664	3.0939057765209936	-1.0775291995042278	1.5503954288762225	-1.4918791644871192	-1.7738345310734207	0.7744644845876177	2.567144024289185	-0.2333986806182184	3.6428233914594106	0.7167794243217112	-4.071893158322971	-2.553125827446246	-5.7441671901919005	-3.0374926863868006	1.0757010371090687
-0.305494777899017	-0.14720286946386169	2.5130723377668085	-1.7424530521271755	-0.7146182669927305	-0.2549756265372331	5.4404830145099305	0.11753010393049554	4.291468939282498	1.7879295333547183	-1.1313675161316308	4.111160504101709	3.666605491138751	-5.910641756801204	-0.7702953361520621	4.471608000545158	0.5314528634896014	2.06231311924278	-1.4339517889601385	1.2611712386124005	-2.5362584897904825	3.0490391124177334	0.12176873254358829	-1.1551171255642858	-1.0835361942320185	1.1534042135919087	1.1374657655074576	-2.248948873308326	1.4369335442009579	-1.9803407746560358	-3.3443109390910095	1.8521841672233519	2.548904908836401	-0.31235381376783067	1.860386924043869	1.9739485483258765	-2.8783890984967893	0.5841905022569329	0.04142045504085007	-2.0585121074749093	-3.036292677348926	1.8960303258872984	-3.0056545428827817	1.7756645949951033	3.2735715333486164	2.4404948233058468	1.851338650805947	1.728808240616406	0.2543512440459975	-2.0722078486156628	0.5071147946033064	4.110409287005071	-2.031348960543549	6.619299056081905	-1.4537284125736816	3.207185140438284	-3.538478678117978	0.6020182486157818	1.2447659235371262	-1.610331955713724	-0.6332097189190637	-0.8126758812105567	3.957206761541945	0.6231814750068697	-1.6175036414859394	-1.9084056549466082	-2.5158310932816286	-1.8459611873475639	-0.11955025881138528	0.15063800743974762	-3.40148815214295	2.5663448520030685	-0.6389815889277104	-1.122727357186136	-2.7199227265149104	-3.273551343334494	-2.741204488026171	-3.2400105652379136	-0.1690173093084214	-1.239249997878367	-0.9516313865293856	0.29644645161238803	-0.669808997521859	-3.6768116912685187	-0.698044013276331	-2.607801074400159	-0.28437067457430787	-0.2872793623935813	1.4454380413896228	-1.1374586080788451	-1.0268470605701163	0.09974595595913768	0.15387061426818052	-2.546999065570738
-1.8368639771368287	1.9635619779649596	2.5546946543693925	-4.98383810223463	-2.946834134015169	-2.7145720233096275	-2.116219338884318	-2.8833672430939896	-1.2660122699817784	0.90156404661954	-1.6842911848920803	-4.0773121372574606	-1.0570413537143628	-2.9456486396573993	0.19944038296495645	3.749252586263281	1.5588981951177099	2.399645371339983	-0.310820825792511	1.87325340609036	-1.4698337540694477	1.011634935964168	-2.084627801819498	1.4148006951841738	3.0056623952784007	0.07325440474299308	-2.7533107686193024	-0.08618162420538064	2.022625295272205	2.3872037893010685	0.16856710131203154	0.010572346065784268	-4.408254551254179	2.3815401073580627	-2.366735431114442	-2.3419995189058547	-2.034924904500167	-1.18343182691203	-1.1282259124361924	0.35156874149687334	-1.1231914142317736	0.719539373344087	0.3631938122045662	-4.246538678854501	-1.610092533443401	-4.127779969660737	1.130604846108815	-1.297426787137648	3.303160724898209	-2.7010837407896395	-0.37651046019386303	-3.6166149476149227	-1.6463689442137397	0.5940171009644818	1.417522980203395	-0.5697071259889865	-0.8720830744589706	3.0869657299406463	-3.3474685005506313	1.1032867168928744	-2.6674800162626022	-0.29675722022714646	1.3516173851745803	-1.1414862248984299	-1.8361007872594375	-2.042953233926639	0.43289637809281684	3.3641923195947356	0.7470512777439847	0.22371451528375644	1.1943395691199035	-0.2105778477513415	4.732182076721107	-1.9685776432864817	-0.5360291634115796	-2.3336611561980494	0.4244137861455836	2.3553011045552403	0.19207929456683207	-2.6062375691682433	-1.6915282485790881	-0.981841351096104	0.3429547267131014	0.2939366061312522	-1.1696067403689288	-4.340090677805734	-0.7322231371980213	4.290245323495728	-1.1067507641103063	1.6739753091268077	-0.2798899842711301	2.8689720042361166	0.8924400463062476	1.929105476277237
-1.231251471807467	-0.4814166985843282	-2.705936124486692	-2.159019383219679	-1.122666075969277	-0.9107046959244822	0.3019309563114746	0.7485044558663749	0.8898718232328655	-0.3202212566699366	-2.000752483253703	-2.566756066543265	1.0818908222242654	1.6019109224283519	0.2803411655274566	-2.6932609959943368	-1.2098818816536798	2.644157875581402	2.4775474280139913	0.053504716972631754	-1.6112901383776042	-0.42565949920801427	1.5872872877061663	-0.7389982862166952	-2.247866772927454	0.6008736333171953	-0.7495843309518803	1.172186822081038	3.1094420139999412	0.6491647528242667	1.2528947510954171	3.552113290519589	0.597730490226336	3.083014557791188	2.735048647689056	-3.0133084812098567	-0.19886847368481902	4.759615480000944	1.9026627876080973	-4.304460180737283	-1.2832566477576022	0.40767451347530326	-5.950914152777366	-0.6298394434573437	0.15834947810821406	1.5655000244130965	-4.310950113034181	-0.996441533020066	3.7568129288800436	1.748887592374146	3.805458821747873	-1.423299701509349	-1.8184813551333612	0.2024087629705479	1.11401436926704	-1.7975589952118916	0.637970819484354	0.5495654515775297	-3.1610503397235483	-0.16999996781719878	2.950181229627837	-1.2863615051725033	-5.148017243447654	0.843629569737698	1.5440720986936258	-0.8122877884175921	-0.31982366994521144	4.15784161547005	1.7642011644897513	1.343042145747881	1.9193185532007275	-0.8720374259767752	-2.7442056992882793	0.8260057587144842	2.6173602146142754	-1.110031846114396	0.5571554525465463	0.6896822335297031	-2.8258436995043352	-2.3936832382480513	3.056638187884013	1.6122103433429746	-0.6671772706037082	-1.9871129834883432	0.05243642175863626	2.762702557205544	2.7448781251176415	0.7886480641220555	5.111302838976791	-1.5065162558406706	1.6029819782971506	-1.0266574930024899	2.815543568378183	2.1797710219744966
-1.608931659472466	-0.2572441235568726	-0.5471572328898014	4.2008615411551125	2.930403060137795	0.991179800997204	3.8267280330772784	1.0677971014828573	2.578467222539013	2.5455327095987936	7.2397448348524085	0.8750616133353291	2.547731536190826	-0.04686385825269433	-1.7684626755828996	3.616805104295435	-1.7382311945144837	-2.5715545036423775	1.0306130054282496	0.16592303725311994	3.8878719800493644	-0.04370496782083059	-3.8496380667461287	2.4404271121031584	0.43120171721821243	-0.5189308431955176	0.8880837825981766	0.5920903619680884	1.978764502805707	0.3163651859561103	-2.0675515414092613	1.4260439200864599	-2.0872474762238986	0.6711573448702439	2.6405453719862213	2.6578659993765177	0.5850585861297732	1.4820543782535918	1.674488156087561	-1.9406425254815516	0.1777584096473081	1.301159920658453	0.9321732719866179	-2.278359102841243	-3.752628835095928	2.1206255826446365	1.3478086149148667	0.04972291035133147	-1.4190377199268782	-1.8696173630713195	-0.7337873166957141	2.5816270725158716	1.2294177649155063	-3.2956962277568387	1.0126216328643651	-2.3625180825210634	-4.053588422355323	0.3527525253632053	-2.4660657396586414	-0.025377473394533646	2.7097021391915717	-3.0969367861867516	-3.5884534034719544	0.011765725574830509	-3.754941927508292	-4.094442247938702	2.9158065249459186	2.5774727450216552	0.12065281411727088	3.14226586698204	-2.4079422918186615	2.279595405817526	-2.664801870130472	0.4982868558474199	2.0673387962249237	1.158705022929515	-2.9639787817166448	1.5180672939844837	0.6791809511807142	-0.042800222712061034	-0.15970581678458468	-0.0459082650426313	0.1276923814849761	6.209768441279276	-1.551985720294698	0.7750103607636168	-1.152434616568582	3.4772811643779726	-2.187562233976029	0.41409436350294493	-0.16915083160999073	0.514275218932749	2.9721115234439464	-1.2037246376583342
2.115234518500516	3.1831711953228865	-3.4513705803725436	0.8623106857871767	1.0039784076577036	-0.2889455517175799	-1.2333115570077262	-0.24437422525920952	-2.2596633300353095	-3.5731749912208506	-1.7160112507890242	3.513493814659626	0.030929943110453623	-0.9315887812931085	-0.9437686972868987	1.721394368277815	2.6890759386861185	0.22354198708850276	0.8790075130052556	-0.501536271535558	2.879748393080302	-0.148884584071392	2.7763248601623296	1.8916506426790634	-3.8831523944144064	-4.624119198271285	-1.947033008983939	-1.3035588344985383	-1.6748994192713997	1.8376739418000185	-2.1755642481761583	1.599914390452997	-1.2506099090069214	0.3218191189573188	-0.8026773130682656	0.6877353087207856	0.5064739380957635	-1.3298983985808368	2.522438467638125	0.44827222096794694	5.628061288461914	2.6551702744364634	-3.4357792369164155	3.4656717726495887	2.0093153230346887	-0.4348232449458754	-1.2867048593275736	-1.9119349543579933	5.049570224991337	-0.9147319562655812	1.0604938978116898	-3.1999867017886214	-1.1168871167548775	1.6484377742097829	-0.08423832036352683	1.995764923835199	-1.1305544258128064	-2.4013988627465235	-1.2131907606818677	0.9327820142634455	0.6950794132082043	-0.6547576594697	2.7160416651006187	-1.7842601130821296	0.7600247809127169	0.03382355847639534	-2.763327039715588	0.6633990704191131	0.8614305573288168	1.1379140022259095	-1.84539559590963	-0.13420102463503217	2.115794516036262	4.657375841783747	1.6219082845637838	-1.2475172549645124	-3.1621141764314746	1.594578139205988	-4.840620513392084	5.216383005849572	5.392663864618622	4.458963109526963	-0.4776044830769717	1.055967145867464	1.589084935128555	-0.1249706151101737	-3.017093217921719	2.949703190024214	-3.721565852761385	4.165665930142127	0.17137387767389992	-1.8320489108663764	-0.9254647712850225	-0.3984559251385776
-1.7930318528630877	3.115737942757798	-3.531265416977728	-1.7313227413141035	-6.406666651862178	0.4053497047240074	-0.06766373086472817	-1.6204476663718363	5.127217672526679	-1.8525041026286029	-0.016224484939128456	1.3742421276373558	0.005997997170085711	-1.5450105552288078	-5.365456689300049	3.7557231989233837	2.263247538537589	0.3276460021088496	1.036953756230486	-2.8922342649801096	2.819325139475026	-1.3956429930952017	0.9732116900685743	1.6156276626848278	0.09012578164884857	0.3534427674364231	2.916117470697522	1.2636051398898702	1.8826282701202006	0.03228914812449283	-5.084255902959606	-1.247240345278111	2.6062295198733247	1.2801591230994607	3.8713461988100857	-1.4971984169995505	2.0539356196221754	-0.05202203274433409	1.5021981901208343	-1.31317621632119	-0.047047672715456575	2.0381324997403127	-0.10396197165705942	-0.4518923338535864	0.3402407193650794	-1.563454242391406	2.0700405507495785	-1.2322669331337366	1.8053874004673085	-0.3111713011406424	0.36981609638285057	-4.050271863874323	0.6601915827494699	-3.586334610474078	0.8521160429993596	1.9119312752678383	1.049523714383792	-2.6780258887940436	0.029825383384278054	-4.609187647507945	-0.038589888611470044	2.946952747271809	1.310596812575636	0.951142439472193	0.10336314711986838	0.2750238730925511	0.7031443974728095	-0.9172845088532294	-1.205072021698825	0.5108815102521487	5.251220727090075	-0.22742034898603564	-1.1904019832173267	-4.488902818439055	0.7616752201388097	3.44668697292987	2.454407115199588	2.8649406189051407	2.282520548872346	3.801798159641397	2.6527615881956086	0.1754124882760008	2.769287503363595	0.6077395033884136	-1.096640742771535	-0.2299313939186798	0.16369402690975332	-3.7266412507143523	4.439325310852196	0.5579829440668341	-1.9174155074796966	-2.564573974758049	0.5346110501433214	0.036095506029870474
-2.296517493834988	-3.8991139517262483	-1.1729824622013811	0.7579836329530281	2.3056120231568085	2.43099364294275	0.27826932405020277	3.281870815767151	-0.5768056961219865	-1.6144622525548566	-4.364968367276694	-1.1952669904917412	-3.311343845801401	0.9592859066686654	-3.290190851507985	1.856683241497431	2.117639459391661	1.2759747662894136	4.416049812625507	-2.172679180125296	-2.7903066181073553	0.939870122793008	1.6836186893758642	-2.817178334917875	-0.7443989260366267	-1.8044492683098339	2.7172493702983194	-0.7254478718946503	-0.9844511184804418	4.192698615042495	-3.616622706245491	-1.7949527436004595	-1.6622708171551988	1.9563189549571163	0.6604693117378819	-0.9013861217542714	1.4978235414088537	0.750276025437155	2.696589988494465	0.462299279585785	-1.7694334386669108	-2.9011126837300982	1.8858581010138267	2.1737518074772635	-4.52417944730239	1.0621246948359757	2.7955390935672817	-0.10796629056330209	-0.9910188644429019	-0.972565924681717	-2.4008330526109547	-1.5010555691124257	-3.3203599158121424	-1.7622485112481177	-3.988268767369782	3.4670708677534123	0.29412555792947387	0.5660220177857554	-4.367357588011175	-2.511539893566739	0.4185079457423231	1.284413349627498	-3.5812424338743036	-1.656603174221169	-0.5217059159479733	-3.022211144580798	-1.3853135888276	0.7339670373067021	1.2664997088684025	-0.22145573953676717	0.5317915360768196	-1.1141208921301016	2.5593153099834334	4.888536654980764	-1.9004699470587805	1.4841776394992656	0.6185296586649446	-3.7013108671694224	0.9419798941310471	-3.205288423808866	2.339058089148922	-0.7472027891858083	-3.0884121172910874	2.1132353187748056	-1.2707151948608795	-2.9218804356851775	3.7648293631119167	-0.05995898717935367	-0.9536983830570469	-1.1635623766677996	1.700049123994757	-0.01617762658201227	2.291583958555924	-5.17054133934659
-5.191623225267236	-0.6904566879262565	-1.2524015518660467	0.6072613562437481	0.6730686632439632	-0.4637899835311097	-3.5751199017272057	-0.8407270286428862	0.31411603335518345	2.311659759919782	3.955500102646408	-4.098791410527761	-0.4206146258079918	1.4049140594014335	-0.6525783552750789	-4.993672869101826	1.0638765958055483	0.25959955455492817	0.8011321038978774	1.4510117777944653	-1.848787984463259	-1.9132005999282036	0.5082742967434671	-2.0301292100208457	-0.7745435007358054	3.524742036444589	-2.8610038274539003	-1.8154700449991092	3.359097241335029	-0.6156256965200206	-2.1847537688925676	-3.1525442874477876	4.960175476507418	-1.3878559735710962	2.4910866000917586	1.843660987462818	-0.44582557688490976	-0.8116455720714578	-0.8976051388209484	1.3444946543364036	-1.5098447376939623	5.252922604446218	3.804466604981227	-1.211551124520282	3.7181657862961357	2.6401006707579553	-1.1274533794460626	-2.2514689468209284	3.703014700789064	-1.4610920146981212	-2.9714185507109474	-2.0830545863712033	3.7958960800913175	-2.4934783204560653	-0.7262428718332431	2.085284668858681	0.09027869613054974	-2.2471743279152596	-1.6302182272298003	2.1752542215539146	0.728270150777326	1.1096846777705864	0.6931900974361062	1.448706115949613	-3.0727624625890964	-0.9802207750259169	-1.2448803245528908	-2.132849989136214	1.146423085649492	4.738041212211136	-2.0326931256848892	-5.163694149159183	-0.8543326270127112	-0.5118732434637872	-1.4513521590295448	-0.25273333399635955	1.541064100614199	-1.0089702048323663	0.6327294116029433	1.2036305028110401	1.9823892845755864	-0.14559458209847737	-2.3876780842045897	-2.823262151559778	1.2281693749785807	1.5498659584552734	-2.730580405560983	-0.5222886004760542	1.6687783381490413	-0.9809212487521602	2.1544045165759376	2.56052548963634	-1.363274718327744	-4.109991518174384
-0.2201357757049272	2.7342214858725176	-0.2729268043716778	-3.123865738244212	-2.4017871707074065	3.7148378677857616	2.6898041286999423	2.870008391694896	-0.09684682548072604	0.3943200859336487	1.3985096307033988	-3.5268415016037444	0.45036829717917665	-1.4832242715327102	-1.0124172623958718	-1.538804914933588	-0.7763282797502374	1.2990755618455279	-2.6227387329240113	0.8580821010557222	-1.3986114795145954	1.8513181353697459	-2.2055815715363636	-1.0002011341674735	-0.9176964351023748	-3.8880472004280224	0.6065637928072201	-0.2638596281930938	0.4384011076177173	-1.7745932360495802	3.106320383077047	-0.5475162915176317	-1.6009276124961165	2.626006159699877	1.6060405919620147	0.7164331043204978	-4.547487960980864	2.9979036822520024	-1.3971997626781252	3.2456873574220073	-0.5012239766540019	-2.0291409362876673	-5.243856327116932	-3.245047565697397	0.599209734717596	-0.0175966396786602	0.24427918129414342	2.453091937207024	2.78443793155005	-5.325971991618728	0.9346773686308621	0.2293239830593525	6.5566972029833925	-0.3119965915674179	-1.100078375259623	-2.3960713834909404	2.153414480184416	2.982763870493278	-0.6853573381060287	-1.562352437953857	2.555797970944262	1.8405866668939008	-0.6978996779939013	0.990571308412657	-0.6935353946789219	0.9471198502429511	-0.056289208723604156	0.09537090834169204	-2.811652324690934	0.45628924838109064	-1.7119626967640316	1.0391075441759305	-1.1232424485436494	4.013422120115133	1.4759035512638459	-0.5873876276213654	1.04629498614962	0.724410017551322	1.677052537682826	0.6730390985268326	2.046742535807591	0.902567962769545	3.583845335610381	2.3420764608774656	2.291955842435384	2.4493473217173283	0.9860501690691849	-4.867581966459882	-3.6746385011958753	2.7328445147623244	0.21793009499151497	-0.4301541587157845	0.4901437393009121	-3.99242262741494
3.01734391348926	0.19644959426185718	3.1490071740307988	1.578716217170692	1.3951696099687556	-0.46609546975463634	3.707788542417713	0.2213681526946754	2.118918296714658	1.5083810075026536	0.953837517246041	-2.074448931319412	0.8337665728710101	-0.07013571813352391	0.36662731614500255	2.8274286142834435	-1.009610223748669	-1.4375125301318994	0.8344543978705655	-3.369927346673308	3.7099266198994383	2.3626701889188335	-2.070681354402848	0.6098180887967841	-0.6696002421559741	3.4901197838679825	-4.216369832874528	1.6380105323847411	0.27457084759029143	1.185639093990949	0.017446938221803186	-1.21077541924476	1.3823142041232397	-1.790610904914061	2.5295127243697535	-2.5252043165390927	0.6779632979056547	-1.0846751203238598	-1.5708800051847491	-0.0626072629135024	2.691940646774101	-1.8280436668329914	-1.6610687880216286	1.6846845048947856	3.9266548866761823	2.844454546268972	0.0925741048729587	0.2687934840377818	1.2871480163130813	-0.7614460787342884	-2.850943333333273	-5.368423991271009	-1.0666282370386977	-1.8729893573660796	-2.7523633596606576	-1.1121194575872808	2.196943625447808	0.631582371676035	-1.9940738701655951	-2.3718588597459953	-2.5731756075901484	-3.2883531471216036	1.6724970485997914	-2.6616372346716437	5.345385430696708	-1.58256381505305	-2.113425858581817	1.5887084591370961	-0.016437272439802048	-1.74928661271565	-2.2299571621021226	0.46471484900912813	-5.329994800634096	-1.7529451203841029	1.0345832167926705	-3.0420440994253846	2.810381501623538	2.785694988317064	4.776672554823124	-0.6804349017073283	-1.464017126972727	3.338266506225935	-1.583645809724542	-1.7130959173033242	-1.8658708359316283	1.3884411051879768	0.03011739663424257	-0.8934247970423078	-4.439760658618385	-1.5653705472349109	-0.8620473307600469	2.0862198864947836	-2.9253760464693808	-1.1121700305761186
2.6149529000873692	-0.20673074535434285	0.7360834216946975	0.4653153924593255	-0.9427524086949913	1.430682662089541	6.827333153854103	-2.839130745144489	0.41474191680131667	3.332102318390978	-3.206380369416491	-1.39957000957076	0.12923858615762637	-2.2601293112758865	-5.053462896480714	3.0105837675484097	2.601150273567622	1.8299457253811093	1.4327000004684556	1.6160688734157647	-2.501476115852295	-1.5084317781666585	2.188186207020267	1.1764362160377289	2.6323227200887067	-0.48647645567809855	1.726356929252322	1.082193427367573	3.0354749321303163	-2.2141548204167014	2.6781294499842865	0.21249955080226082	0.8087650360007198	2.330747188189233	-2.3907995227432237	-0.07088870672384419	0.8791110759915003	1.2117146957620706	-0.6410114447258747	0.9610995511470125	2.539202872656775	-0.2906321430621597	1.7196167739791308	-0.5059540805631726	2.483961077723602	-1.2585846089640051	-2.543251216208929	-1.5463866182150665	-1.769487072576263	-0.5454731883643701	-0.038764842299413946	-0.1944286511291441	-0.9485785512901641	2.784713197419999	3.2010643141841015	-0.9449540423870465	-0.06243778758932954	0.6908916607477795	1.0322681032437784	-1.5309545297456497	-1.2103962436104578	2.78463677437065	-2.932178874362016	-2.0450947062791367	-0.6166404913398738	0.6543079084391992	-0.9723500931668888	1.8580370549123062	0.6116743188958517	2.255773226504385	-3.0963273117475723	-2.199401283772506	-0.31116179606065497	-0.1443349264817524	1.922157719618561	0.17591369442311283	2.9992389481924855	0.5687795730447878	3.263099084180713	-0.08789254091602308	-3.0644761301427774	2.5959915080537352	-3.1244623840540906	-2.2280072717087736	-1.2532640354007654	4.951869375413207	1.4912214855126529	2.94044813075411	-0.6078533340288145	-0.8155849123644159	1.2590172658583236	-1.7085088220410978	-0.8592636459837406	-1.1561616070482625
-4.311352225391683	6.273371647828408	1.1584517707183521	-3.7451206530415417	1.4555019617269949	1.0266068344978243	0.017240447523537032	-2.2746174676947337	0.6070402903947284	-1.4231585659744186	2.468064523568572	0.4655458363300438	4.544033239464207	-3.3921840919459925	1.8471411987500843	0.43878457371447954	-1.2662408242927	0.7797688100955922	-0.37539951746302935	-1.638709200613022	-2.2573909573363027	3.624864190541203	-0.8615350265728704	-2.143902342671312	0.9535527916603853	-1.8587529317847078	-1.3470439135561931	0.41088866543305413	2.6805012367611183	2.0740833963624525	-4.012841457638537	-0.23399394906149712	1.1189089242313506	1.8251377872645147	2.7708968576484647	0.3926845334447512	-2.022361971781513	-1.698850151786574	0.2855118535315638	1.5652140375296653	1.5750434530421908	1.9123550380454064	3.1046067668092	2.3720240255776126	0.8476118576471766	0.3617124391936231	-3.2291292479432077	-1.7946167333343295	-3.3476625520773986	1.5061371564559825	-1.2989791648128002	0.9013825072790932	-3.897913571546555	-2.3103001532267315	-0.19790897475998212	-2.5289063572474473	-0.003107373180718518	2.080979623389478	0.05142096504518673	1.1180206462743394	0.02081219914146672	4.742440276767743	-1.0492216558210579	-1.6160535410084254	-0.3632221560116002	6.4052433627137155	-0.4136575902835351	2.5763382058501842	-1.0433498384232571	-1.3829845532707103	2.763467273848102	-0.015408129421873088	-2.614805411014247	1.7302649828427437	0.07451483178462708	-1.2694908071902717	0.2651208253000694	-5.174787711879123	-3.896236524234115	1.9012643540164083	0.8566512577313685	2.864479254686405	-1.2220148238475232	2.3144738178127064	0.3533669278528539	1.6836090740879759	-0.4846507399101356	2.474634111167973	-4.242245598423186	-3.66662966786378	-0.054263386532556336	4.653042549020055	2.6278802986467524	1.1864221347325923
0.5637597215454205	2.035505452472945	0.6814298798822452	0.4225553131495788	1.7974146428433315	-2.0018978159449223	-0.7921539318387966	-0.3365622449979834	-0.9772625107617611	0.7439362797851484	1.9859630463774907	-0.21977063365905447	-3.364418030197354	1.5063430941124676	-1.3060797708122214	0.7260143765385988	-0.16756255599408143	-1.3796167393019454	1.5466175715646124	1.9757262354944782	0.2693306570049924	-1.63456475302179	1.2539125969919878	2.7481999517012645	1.8809946926652004	-0.5389950734978316	0.0346678059211711	-0.3910804334712858	1.5072950768418103	-0.6323005415796958	2.4826428212197844	-0.47992145118722634	2.1432806499209383	-1.0232362323723503	-0.6638518356844643	-1.3661405319934625	-2.2026646287701315	2.9051311016385175	3.3411643116002403	-3.076512747803775	1.0213779309922288	2.4927344184690803	0.23375614225747576	-0.42703948427787397	-5.634303491907011	3.6511039550345137	2.0700165253232483	0.766926608851327	0.7057382407154895	1.907693580802662	3.0912378612460536	2.3895467903319827	0.27333947235838946	-1.114780808798416	4.161496313303094	2.5584480796834437	0.6782382681416222	-1.0316922584618633	-2.0415799063628874	-0.7427180852272074	0.06004753721714947	4.0159614788688165	-3.1877202084544254	3.499817056083064	0.8601971694171211	4.9234359239378875	-2.6474435777417202	-0.03953090498502158	-3.3831275014401236	0.6308598348811552	-4.098404552647091	-1.8152482265037049	5.4830532385440565	-0.5119812238141965	-0.21285358461655998	0.6231733531852238	-0.29481965596228304	-0.4121314264074896	1.3887531739528745	-2.3573591820219737	-2.7519953540121573	4.357765608430007	-2.4710746181171577	0.9929791867251794	3.4152474977486786	0.09103530732173463	1.7735490451841331	-1.728268747101561	-1.3104913521632502	-1.2575791418588524	2.412288907024563	1.163038059909372	-2.514964967971281	2.3772170247233553
-1.3956671521384962	3.751009412717665	-2.302546051822584	3.816074407105259	-0.9083803337396031	-2.2980977933697475	1.599901458594794	1.3656761249090512	3.295843063827136	1.12919939851022	-3.0464160213597133	-1.7054448198583878	-2.0242614346959003	1.5043086386491635	-1.8620143648415288	-2.362186713946767	-1.835565696881135	-1.0230593361725533	0.26162107921213057	-1.5726027166858818	-1.8062498857528082	1.8134840239059247	1.776386837837839	0.6245891614916188	-1.9763938225696254	-0.011639319700878217	-1.7772228544736364	-0.7719482629001259	-0.07895634433359443	2.9392377779588905	-0.0553055975716037	2.1353257539497954	-1.4126326071386692	-0.061328806356248586	1.45612629008572	-2.2459695176389864	0.14219872384257856	-4.83498701089773	3.025581312718663	-1.042630584673701	-0.26581594435893613	-0.9150639282991991	1.9283153181937625	1.203757155949745	-1.15048884248047	1.6568380551120896	-3.1073912760893037	0.40731962444378417	-1.22111578123928	-1.8096708574673714	-2.583094759838837	1.1361468159632948	1.868045725267125	3.7675780152563916	-1.0182844063526797	-1.1816898952625592	-0.6557409483117609	1.532348119922664	0.26764335257244826	-1.8279295005644784	0.8958057936999299	4.999518989798354	1.655397798431742	-0.9881638420347795	1.0803324916283958	-1.5803693152557239	3.50387390452025	-1.9464929252182315	3.1054440930192486	-0.5480028166117006	-0.4263259107401921	0.4181011623403723	1.5452985568601902	-1.0080639873979136	0.7458855166549435	-1.105562035873961	0.6034590806005227	3.794606217929192	0.14631183158777977	-0.6702582206581424	-0.7491323044678223	2.6765805347945553	0.152416998701837	1.760701628015178	0.5041634828828425	1.8799885591902221	-1.7387197411609876	-0.7441095199512489	-0.9557600540908108	2.915049311626237	5.585498264535719	4.3939351096793375	0.21106828158207702	-1.5881584816950978
3.2513592475114055	3.6274992987761183	-0.7317184886249205	3.584070464258569	1.8167880028855385	-3.1603695512316725	1.1416820371782344	-1.8468895652987911	3.446104376602641	-1.1712777188456394	-0.6510748599713537	-3.460178111017449	1.2735072501177747	2.6848139697941797	3.180070897921683	4.264420158917947	0.47770137263498463	-2.628686586564079	-2.579793707559046	-0.6849108934671331	-5.373651179588139	-0.6148161898750365	-3.506296904216137	0.9500773581354401	0.8814602288259489	-0.3656847428786535	-2.9668064003926693	6.6375985353246065	-3.8177684863879326	1.0233827862161573	2.1915021713080365	0.5217497494638644	-3.278366959064036	3.3919687146365054	1.5785857366133909	-2.0780477114919735	1.5153040132660498	4.097938537260435	-2.1554869211697256	0.4284029140721429	-1.3398395239506082	0.9657206081572465	3.8784530727719395	4.680589141049276	0.2225290663802021	1.325566062338845	0.5092608942405499	-0.7854971450462007	0.4517909052625926	-0.40720533487211796	2.7179512003251722	-0.6779745687980473	1.2128863962692238	0.7945370750809638	-0.6970906981763947	-2.245791863851298	-2.2713692336223517	-1.5972664652457245	-2.249905159372482	-1.9959295080046444	1.6032602126237758	-2.077973534550703	4.6134409456887395	2.6643659027031803	0.6553820618692793	-1.4153012670529368	-0.019059859503158638	-0.8362747220627794	0.5278927324802514	2.373348659481696	2.256930777082812	-1.0131768823174416	2.5143876122264617	0.3179215659412083	1.1195909193235725	1.8677110285861624	1.1463273327432877	-3.5405933886719616	-1.9123328405537932	2.623015670397013	0.3909467973962693	-0.9034874419797295	-2.2218703214948077	0.654350330541554	-0.8858324779956183	-1.8619834723433242	0.4154758280471622	-0.45707586740346073	1.4537896057683724	-0.383976091700484	-0.43299149665393516	-0.3230812993613861	-1.6143930986715822	-0.5177262859407991
-0.12054037986611549	2.4262547999472472	1.1027670963064222	-0.06634611070451298	0.6232448604022598	1.9374689304666948	2.2841382387130365	1.271024608647476	2.0053718195673844	-1.0382242772013017	-0.8563769593729039	-2.1174147531322776	0.766436771062038	-1.0151078587939413	3.0741590740192923	-0.5042600408689046	-1.2852450541181013	0.9659664152133368	2.28418748056536	-0.8381293909352207	3.4792827460275406	2.0529817768018535	5.458946431944122	3.00204114692623	0.595977229275358	-2.7786013862495076	3.487383821508593	1.6991749848975246	-0.4563380133870756	-1.865834330715447	-0.6041020725176541	0.0950057581181307	4.498968780650173	2.8946610649239983	3.0696849361030645	2.956515049285105	-3.679043361209466	2.2501058909334546	-0.30899482433523767	-0.013147141003219698	-5.026609780928978	-0.09189101622821486	3.2699625915949735	3.446966142923136	0.3219245533615654	-0.4387993448465069	-0.7894418264135227	-1.0997041056653412	2.140397836303241	4.19666007976197	0.32095600124512447	-2.0108011207212333	2.2941637461015394	-1.1298641485183076	-0.3789291691778952	-4.152002907635845	-0.1863698493890051	-1.040485385072571	2.3884389595606246	0.5530920498890616	-2.2855651564317703	1.038991452817989	-1.1801062618717213	1.7194833094671051	-0.6140960346110739	-0.8076227422314112	4.94095137523496	-6.8198389380424045	2.5529111392825734	-2.9831516830514997	-0.05769677962401221	-2.055815388529613	4.421693358587375	-0.12951749915001176	0.36664566938491894	-0.4648979759272832	-4.331142046891823	0.8806848898086224	1.4606152293443642	-1.2941625800579426	-1.4966150069957938	2.7864117517435436	-1.599459523907269	1.2258199870311672	-0.1360636916578877	0.7511423523281466	-1.2202544146439926	2.1272565120101303	-1.6922683725579708	2.8517968185148597	-1.8317919075292048	0.6768009813816144	-0.962085529753375	1.006052752390548
-2.569379290229917	-0.8671590510998509	-1.2789896438107642	-1.6675185850349372	-1.7881373097674949	-1.6825003605177058	-1.3264335888833143	-1.688552988696329	3.7275995759869414	-1.3600390281431074	0.5455681889560412	-0.5474205082746773	0.7346178020590401	-1.0878388564734882	-1.1483087060068733	1.9124795770423657	-1.7927041473633072	0.7408157933899927	-1.1864878203819924	-0.9517779738768143	-0.07565773082104915	-0.3933900663270291	1.6536126680582726	-0.6612168578183071	0.834277092035761	1.54603081633117	-1.700267098224532	3.376203530387448	2.0153149199461082	2.632598619936025	-1.3213218700551488	0.5281347452164376	-2.9240357607153964	3.2691268783769605	-3.06983163166003	0.8455184340241175	1.1545800293606043	2.0089414542248334	3.2887874436166666	-0.9661320211652509	-2.450441913676638	0.9272598206999177	3.35270085429291	0.11747033672931642	-0.9494820435395911	-2.3799284396937357	-2.3179129904607	3.4672736799096078	-0.2984907102069682	-1.8132959794557966	2.020662601828427	3.4290868928032383	-3.0029070174036776	-4.143522043735449	-3.8810283105100027	2.8894996688463506	4.0335834835827775	-1.7082925047397535	-0.49804179520854913	2.716055408985511	-0.9583244234418361	-1.174451463855116	-1.7648775807290642	4.402849409294946	-0.1509735874776605	-1.6133241322859746	-1.7876746117625586	-0.19805285729517413	3.4937503626901325	-2.3395332235673374	-3.4574931704265377	-3.8795653353964066	-3.021620776280747	0.6936584244566191	-1.6018852355161908	-3.0156718263453652	0.10874558700741223	4.289596261656633	1.6478884478633387	4.248419688402528	-2.9542103569918203	-2.200671931577024	-1.6402134857539767	-3.0908295507001196	1.9945277582518481	4.40024810779472	-0.12586659324529387	0.7012744350864469	-4.591010770270114	1.0844978521126802	-2.1190303745940984	-2.291004252012197	0.5426551884416843	1.6475238548995201
-0.893435896782566	-2.974187067021795	0.5384767433713536	-4.380551734728015	1.9507721186297287	-2.2767167142070805	1.6621081755561764	0.5158535686436754	1.0142319074929391	-0.706746273347422	2.6386074465016116	-1.3282910360562523	-3.4113155921240272	-3.114745337780809	-3.582335560341587	2.3970749536861757	3.757234181813638	-3.505383503664517	-0.7947109218666892	2.1325975548706797	0.584320850089919	1.5016642929909823	-2.6441964138955574	-0.7785174443406689	-4.5720476741926115	3.0167304945504174	1.2547053380795425	1.2135778492358025	-0.24652168673770783	3.076728645488692	-2.0613543827225165	2.1194454822962703	1.5935797580503916	1.1442169508717244	-5.072374440517536	4.9782717596496795	-0.38845101638277235	2.588380199938223	-0.7360494712541162	4.067120653565138	-0.09189258412720056	0.01915332213427603	-0.22790536504789208	3.0157673270814316	-1.2742190179144184	1.9823811282000943	-2.8562844737591684	1.0402441800878566	2.5738358908169006	2.05901422655715	0.48818758601561607	3.1287298721646275	-0.5663815619841939	3.5638393290650354	1.4502703190774067	-0.5050137200675346	-1.8983799980028906	-6.020073320210143	1.3037367831459719	-2.6662573122266244	1.0739754519031837	-0.11109573593817347	-1.542062754854184	-0.13402874599587203	-0.08093841691137228	1.551202778857098	0.7066880988434251	1.2981916770683095	1.7802014714164343	1.2869818428847233	3.4614493633946424	1.0543859975959764	1.3799978098502845	-1.329440098478193	2.548329795810881	-0.4788507990998925	2.0345228050299498	1.0102478143536084	-0.5173158425795267	-0.4599439707363592	1.0965974598529467	0.5283453262207666	3.7578074391225966	0.43775838879433593	-1.1371814226812373	0.8578401954096025	-0.5205365583219913	-5.1060588735535966	-0.45969203177671847	-2.199357244648092	-1.3988882906352362	2.3798547434327912	-0.26682751590766984	-1.013368691869908
-1.0940415199798879	3.182178961903794	-1.0441419972166233	3.759184670122243	0.007730329446616828	-1.8190394433007093	4.563783942181934	1.1934434608339788	-1.517070895505553	5.565292612155173	-0.8301391960413235	-1.7760929050219718	1.925375733971259	1.379220314362577	0.3588544298248561	-1.2046487591995718	-2.6378872119966896	-2.116475994580674	-2.938188579903009	5.370814119389554	-1.0355578047910294	1.1745870682619426	0.9171998099060803	-1.5440663469638303	-2.8126923116481866	-1.2363739971683747	-1.0104380775255695	-3.3401343069791545	2.6717341324518595	-0.48971853757798983	2.267051647830459	-3.211341504510627	-3.3497959792015584	2.403211517201876	-2.8303534027637665	1.5285119510542804	3.4835401178428	3.2552402106597955	2.6439044552879545	0.46990255351534965	1.1965735895758998	-4.364555109234069	1.160821827496941	1.4077820835299144	2.346958439126723	3.188801293332574	5.787269045382816	0.6680228288939287	-1.2882700805963123	4.370051435257211	-1.8281158323625868	0.6174248722939102	-1.188317506414858	-3.1837745577579626	0.6005939622286788	-0.3913959759200076	1.0566737937337825	-1.1883832983545126	-0.43988133472030233	0.8012664439775843	0.1998326394545614	2.168135712208902	0.04861757394110705	2.0894508625570376	-2.1889852915938732	-1.682311449418814	0.2559015745270212	1.0787364868639924	-1.6697990143800314	-3.5009522996496116	6.137792366763374	-1.4879550684194511	1.6485641034657006	0.6575788855077745	-0.48074488603101423	-0.8920068758712527	0.2966566925091353	1.209527154272499	0.505046253019059	3.4975843227218872	1.7944082437172244	1.1963243358872526	1.0586460919403806	-2.9854410986767714	-1.5104145975761032	2.441383992057764	-2.871426896421855	-0.012811673593044496	1.1094914129439526	1.4050275522601872	-1.1207160276816617	0.7795829551173042	-0.4420653829780008	0.01627952380005666
-2.764644462053992	1.843783546714854	2.1329521083100893	3.5251504556356155	-0.1882696200618811	-0.2902223952495803	2.5176342787551076	1.769831471111213	-0.12586764855184746	0.2469893712625275	2.0563420277566906	-0.9223511785124906	1.5646068266585451	6.0052519904884125	2.828504291170449	-0.23406447041466485	-0.590802654717737	2.530487201126844	-2.3930618103955643	3.4962905617708375	0.5064554138536863	1.4806617527141934	1.0677905410162427	1.211837878398978	1.5510679032241523	1.049656900013669	1.5541409822255168	-0.6208301365627262	-2.548828969077813	-1.5699350128739797	-1.5699081805569168	0.249827295135834	-0.7254218272308822	2.8339127809715015	2.145972640970875	2.173245520668117	-1.1578238973958195	-2.550564933234187	0.9570315341451706	0.939449082686633	0.3198268030591548	4.26748819155876	1.8607268078025974	-0.8675631914209042	2.027100575733696	-4.417792344126258	1.5451740835459211	1.9086506990129024	-0.9266801297167282	-0.10708772119765962	1.2178519391850071	-0.6925234078397376	-5.533299663496917	2.100101847136797	4.047611823391167	0.32621549494541363	3.222593285612161	1.7840445807548602	1.4481467582463117	-3.1555343829099645	0.7138532583481537	-1.9453677718717388	-0.2980203214668747	0.4957272202800782	-0.7942919215214894	0.8113985402057762	-0.028984937751322028	-0.20996992689447716	2.1311188392058034	-0.3211044153738844	-3.069982195908601	2.319333735090206	-0.42789206816682457	-1.225478223423294	-1.9084405677260652	-1.1195871039668706	5.971653406070194	-2.4577292621878346	-2.7093849902548235	0.6377661748645004	4.344014807288988	-2.1625257159329707	-0.16271195041077163	1.880139165042884	4.498368512892822	-0.19731469919064692	-3.2888567037732166	-3.9474049750803912	0.5834605756318247	0.0686015535771878	2.087508767606008	-1.6239246087442083	-1.60499828078589	0.5555953468232344
-1.5570358896069105	-2.117066281774497	-2.944547752656001	-4.6151731904890525	0.9378718893124863	0.8288179323221911	1.6097415018116041	-1.4740196681604238	-0.4698243505353825	1.3836298476567963	2.3893879350661953	3.333421538242584	4.547175310186861	2.201532569650861	1.233940157569251	-0.024458626758688148	-1.2287231693734604	-1.8672788945326166	-0.7584053608362131	1.7458025642020492	0.19975184920587968	1.511642424852667	-6.512599090750857	-1.5537993637363101	-2.6611844995327294	-1.0508955543405476	-2.5655561464422543	1.5283358685790291	1.9234746380270666	4.391358292425783	-0.39245070617055655	1.5565979149147753	2.0529620475583563	2.1365297266361947	-1.9339271356451362	-3.926314938370089	-1.1467063012688874	-1.580045108857966	4.471149786358857	-0.383638682682336	-0.23001003586380486	-1.7204055038152264	2.3037404656479006	0.9572316519942529	1.3507684767648591	4.689388687548703	-1.9711344841402343	-2.4275261830153254	-1.7746394871449938	-0.9718499436298699	-2.102286995473352	-4.031397828549722	0.6408465227962118	0.37836289794067146	6.122987781144332	0.6170901802161678	-0.2672069136570967	2.279544493489513	1.8731355937121674	1.1120128813318688	-1.846303603200397	-1.6507698100018455	2.0678200841123537	2.9630520216332785	-1.0248986608999702	0.6763076342792	-1.1708064292317546	-1.4818107442116444	0.17488740514286155	-4.312674999698437	-0.21442907548921866	-1.4598486619676163	2.761911229032541	0.8921152746585358	-0.3331081836320155	0.5396281516219046	0.6116100763957193	3.0784541239566177	0.0028944477119284546	-1.701244596162501	0.197367941811649	-0.3769477583035272	0.8696756229736703	1.5075477971998645	-0.1355412038251804	-1.4588217264035312	2.788927865337941	-1.163805956671609	-0.29915314437818114	-0.05196436781702702	0.5474674123304032	-5.950828467021275	-0.224273329402103	1.549691398880743
0.2453324911741949	0.5299178815194098	-0.5840561091129141	-0.8978180256499921	-4.189470599042933	1.4919004675471268	1.684963208686511	4.226675891680854	-0.3123030502574314	-1.4722523149284394	0.955323359672355	1.2308143039156758	-3.485036408505646	0.5753127539187389	2.588861481655515	0.41790673901112474	0.36825369813548087	-0.8007752571260169	-1.3753916719483372	-3.3146261572003892	0.23449659724507968	1.6934714376469369	0.5017393864807831	1.1457317182620945	3.8086862443171237	-2.5645181965489936	-5.188399686538709	-0.44284705830575577	2.556397873344906	2.448651355651177	1.3790341923626763	-2.2711073896567973	2.891528162425094	-0.023802692240490975	-1.0462229740802385	1.9468497816964667	-1.6797455489106246	-1.800242100497397	1.8376992471208473	-1.7446479789431928	3.2413622955219004	-1.7075143288298735	2.0135000795174225	-0.4321022035573299	-0.6498715871373163	-0.7497251092531246	-2.0010633915044465	1.9700195064364596	-3.275023883250061	0.629094531484891	2.6578270374970927	2.5760331512629473	-0.6766744233079937	2.5649140011146794	-1.1263252494660818	-0.15314133124780946	-3.9365067658047397	-0.7991769694434241	-0.6685775064229253	5.586579656419963	-1.0866195878476468	-1.7040424910823926	0.24133403679628848	-1.8600921004126623	-2.2160130190869722	-5.845086481258551	-0.7499881165861435	-1.2836496730260325	1.215309021192715	4.856362443000263	3.8034958509182553	-1.3827226400281838	0.26344593288342083	3.3295181240985223	1.362800088393533	-5.1202301240546735	2.9995175921064634	-1.4130259528588556	1.227301554009391	0.0783318733600244	0.18932542256635357	4.185001461441629	-0.09049046541463696	-0.7305538595684905	0.1616878481203938	-1.4614838040691287	0.45724272124655	-0.09591092969227522	5.97830909851434	1.2325156620274158	-1.651051300629469	1.3935432212046015	-3.7176818914169214	0.5167839239263996
1.2033501136626148	-0.5027982750293817	-2.176776207167605	0.3529482801981811	0.8643129133589394	0.04130774522765534	-1.7872173549821646	-2.0612372401905548	-2.1169965345199775	3.666568355104647	-1.4571698081789743	2.2616295618654303	1.2471161005823117	-4.5865090185798465	2.266825174606719	1.8975461382775893	-2.4936586370606397	2.6463688720708607	-2.617362724428998	2.4877630542557942	-0.08183931482317293	-2.796558120019558	2.5561787418324733	-0.5942396899830046	3.191266405067462	0.5887355246511286	-1.9837032274382902	2.79071522808981	-2.3689648757823005	5.218717561890004	1.925297932509809	2.762761397574144	1.5228708907306618	0.030578159487948803	1.2389783642160017	2.8229563369232795	-0.5337497504619563	-2.931842603776116	-1.852900772162208	-0.09449405398960012	1.3970657555403754	-3.140095241814903	-3.9301684307081386	-0.5936310177182761	-0.6457792107639649	4.260040039451811	1.7452870822793491	1.6091331117901904	4.120811358052986	0.9361316375797385	0.6076996808800347	1.3747470642591786	0.2749313357739625	-4.134520059228429	1.6237647586339041	4.515467121792156	2.5613621978936814	0.5359532442871309	0.6714296679228392	-0.13447813218513466	-1.5580098093805377	-1.9795456838260188	-2.000642530216928	-1.2892875322296453	1.542379239455576	-0.3988868734489715	1.7358780850621205	0.8452995104511816	1.717079922732449	-1.0356318316267557	-0.5636741299728123	-1.0503759447394996	2.3363225105907732	-3.0599717940806688	3.535166266286399	-0.5422233902653357	-1.3507472198361512	-3.392397359944224	1.787179686894649	2.8169505672141573	1.9304962963853622	-0.3365072388072602	-0.4609118936053554	3.9761522581689874	1.578896782463615	-0.15537543191619627	-5.274448236316491	0.5705685950730063	1.5109756611335035	-4.581898664452604	-0.6585330921053743	1.7787995022648089	1.139272713680433	-0.21481846626550222
-3.5780149111858415	-2.0727954305260763	1.4053459388952727	-0.8838648934345605	-0.6237648475807935	0.7707285085902942	2.3355768124157876	0.437959451794312	-1.1902895168383765	-2.448421792977335	0.6284315147412107	-3.8009379355704356	-1.6666657914257552	-1.2606130002732292	0.8986226410103952	2.3000247513902865	2.4068894916990566	2.026784873661465	-1.3370080934454607	3.0207577479205265	-3.2418157559773726	-1.8470041578211094	1.9080554023144594	3.6043869659945273	-1.0527027653504117	3.6237666646694104	-1.0667001277279902	-2.5098823379718316	2.590439321237503	-0.09751571598168342	1.5503146841325175	-2.1047166098710246	0.7237744246913947	-2.4530051631057685	-4.197832558937688	-2.993533341768481	2.55066525733763	-3.306918223388614	3.8780348508683566	-0.5540882046583195	4.135939924592304	1.0259661878689301	1.6069994628258935	3.8829249551852687	2.6080061836844872	-2.434684592770192	-0.9671985070367047	3.8899132136951327	2.7764024364948745	-1.8167364694309067	-1.4917581342223312	1.6013000325030702	0.720582841308703	-1.879058971687429	-0.11930690180575719	-0.5303282850503489	-3.328577491731759	0.9960198209172502	-0.6020314746291909	-2.654852073381039	4.117644791066108	0.022376158604426835	0.8472381924875538	1.4961403257597674	0.47473420856528664	0.8934570664891369	1.0803917969442995	-6.159937107055108	-1.4821910659146382	0.4084656854060972	2.8279948431085966	4.27923780824071	-0.3720233499965946	-1.90393585858738	-1.4872028889218067	-0.7228850898483002	-2.2204599881290403	0.8551443532977313	1.4769081952699528	-0.48506678786972546	1.1444134328007713	0.2914871734554925	-1.160967053839426	3.3723086513366227	3.294925366784102	-1.658209945978175	0.502337956673408	3.5737699311796494	-3.4610564014010117	-3.351658092863715	1.1484428465539882	-3.47429522937737	-0.10316902107811173	2.2737625626001505
0.19151905493022933	-0.6558404167405834	2.2024447464961363	0.9231149735643864	0.18323680795428043	1.093024129805988	1.9070046592819094	-2.6065190472649067	-2.891209023885608	1.150417405045641	1.4463973819634606	0.2859390995058691	-1.5686865137190986	1.772592858683457	-1.2859095422694178	0.9403710665059396	0.7236615851514465	0.008880108141968816	1.0173675092175587	-3.0950078160253622	-1.644331797242303	2.8375107199764065	1.040036356014047	-0.6005822843673819	-0.1706513121064372	3.7203579606918593	-4.762355411678677	-3.2146891785359397	-4.780389898162879	-3.774208902945024	-1.0452491661142045	1.8833855688108365	0.26550155200753306	3.1436936241253117	0.1490541279338408	-2.496174170269446	-0.6148943794685543	2.693730580274228	2.8363532036733337	3.4882891280561235	0.18715211211203084	-0.10503415951121245	-3.543545497288943	2.1689877481891506	-1.3950312365454072	-0.027541585874050267	-0.01536954693953854	-1.573291469399269	-4.8692393381869135	0.013202993593007572	1.9162761801086146	3.162876620387599	-0.4058670783659023	-0.6993834186374737	0.505966335944496	3.523360120969295	0.3736248535478971	-0.26591452460362497	-2.434850240855165	-1.4680574346580337	-4.272341257791012	2.368335488987929	-0.8909344844431277	-0.951116482125413	-2.3013435146615224	2.272891650300004	1.1564788112337971	-1.5650445001304985	-2.0522086742904335	-1.4379166823108207	1.8422269527168773	-2.1063284754675387	1.2878302743301553	-0.6910795528276957	4.338135577933984	2.115974671313821	1.2225794427826664	3.551953121234169	-2.734781130215572	0.041042336035658045	-0.6648158595401716	1.4322348107252914	-1.0685036929874765	-2.281033117954913	-1.6065535351154718	-1.4701724906799674	-2.1667658029693397	0.005937503177983412	-2.4163961685996616	-2.706131495665716	-2.624051411622435	-3.3359798311030486	0.7149243555225674	-2.1555044509903896
2.831435454197659	-2.8393871701285174	0.06984353525423168	-1.6482094369100648	-3.551651644753362	-2.125819804456739	0.2005382251135505	0.4664813462327434	1.0225704240924816	1.0824387198338725	3.268749751192679	-1.6593355520733346	-2.212374111212101	-0.741382982238039	1.0619026306202388	-3.6718559415905903	-0.21316056573003922	-0.798733692368341	-2.759010955613265	-1.1978500884370147	1.553655566406126	1.951411948294045	2.1812596994036837	-4.108453076603665	1.5809862700428472	1.5304343294129967	4.01875233922007	1.6760401935708007	-1.7107386896836416	0.7230681919674106	1.509664940018058	-0.2277040206834059	0.4172010410933354	-0.4033883421322765	-0.8719244382612349	-6.199377260364042	-1.1580525449637076	1.5340434513588201	1.5824720663818617	-0.8664385388816622	-0.39606154581957465	3.5355746293473436	1.77341910239986	0.0937379444243853	-0.15515383537319488	5.20865365045927	0.7914856904361105	3.458632932518852	-0.42460557870412213	2.8992065224348003	-1.2463814018124515	-3.412632471371948	1.8914470016584206	2.149020097503385	0.13218948278792592	-3.165817725392361	-0.32157042408063224	-0.08624111896566668	0.6719023216430126	0.4251443919359762	0.5893650298011928	1.946579652387622	-0.4628992310699201	-7.0552923139948875	0.3970026582003739	1.272512402663539	-3.435214814259983	-1.6974502794449218	1.0589910919790848	0.6368692601140952	-1.2738566551567023	0.398128336241652	1.8617941201926693	-0.4413182121337869	-2.3572566731842866	0.12168573645867202	-0.04226498854096229	-1.7231033618981193	0.5022382234557232	1.072267771575941	2.2360525548235977	1.0446093440970046	0.017888924345800555	1.3086921984735416	-2.1731538754214133	0.14620816045209525	-1.3239094056712117	4.311841177269621	-0.6761518627076849	-0.8688747397038777	-3.863150187815589	-3.4433352586807797	-0.13379492428703119	-2.7438865724223414
-4.017048118867742	0.07669544830484554	0.5579665954751573	2.0502126843129598	-0.7994871302727748	-1.2419338480467945	-0.5592262117483721	-4.140129827389251	-2.5063316683228325	-0.2533692956405955	-0.3428712630044376	-0.9493967012730732	1.9519322695007064	-1.4370441254072177	0.07833273176781706	0.7514915287300694	2.857316897551001	0.23854726314281863	-1.1103563454669445	-2.647799879971354	0.7451706224534813	-0.7846329268694969	-0.6517258553503379	0.637103788870518	4.20560392503251	2.3660880126931745	0.030940693708476373	0.20989619415043304	0.5035017544597886	-0.21968060331234285	0.06199837045649717	1.4305954322572945	-4.987467331837642	-4.407539882274918	3.800869054439082	2.507650686641794	-2.8361407322358683	3.0532505993364265	4.66318395623154	-0.33600387677619337	0.02939452850274295	-2.145099634105897	2.774249902263573	2.699417490202508	3.1204212838249212	-0.3409801745176222	1.7743966948380692	0.4594808819141903	-0.4067934491464787	-1.4513303555158803	0.19119795613172266	-1.2420147725926052	-0.5894363341700658	1.0478007719543898	-0.287886428810381	1.8042294265902874	-0.23614576783088925	-0.7624661020242262	1.13648992391506	1.8869662614033655	1.8785644771355239	1.1998776166577825	-2.0091302860475078	-2.3529761895875434	1.175126335916437	0.19326763987406217	-4.1037955973955	-3.00316135649924	2.2915095684950546	-3.389096079051646	2.494596588634413	-0.4164769026088025	1.128739614282585	1.7584919505146424	4.741030376095818	2.6106416990875885	-0.052738660542287694	-3.0373338698685473	1.3734584376238157	-2.124160831660609	-2.4312653505346775	-1.8960351286413326	2.455178161132121	-0.7492939056177242	0.763233702686527	1.0875255744642054	-4.751259979390823	0.25116126682127204	4.184868585868374	4.256132502702753	-0.5140569071975356	-3.1647334161433016	3.6653604580946944	-2.7539831973470057
1.8802650147188613	0.14833144472215043	-3.263153330459103	0.9956062415529405	-0.74146128719484	-1.4227584089837995	3.69350591532146	2.210154613155363	-4.622194201489134	1.6772849083379606	-4.713091156995284	-1.2663928022544684	-1.842539175853379	1.9205499480372854	1.5451093594822896	1.261425598720435	-1.0527719158255042	1.715924154192017	0.10752841356140153	1.8400719827115084	3.437653331776196	-1.2702271360841377	-2.628846961907091	0.5899448117130693	-0.019165718555216708	3.824185723313196	-1.0397862940523648	0.4769334732089052	-0.30489841066606443	-1.2307606007979754	-1.1634635375769093	0.24118443362485062	2.1803264901444677	0.7438862199251023	-2.219225377862687	1.45466506133235	0.10153365365190893	-1.4421571086107559	-0.0588642851453507	0.023273695646792995	-2.8122923880064525	6.577247825817787	-0.8169429999495349	-3.237022164673188	-4.556240841199759	2.62460459300906	-1.4795382894484295	-0.3207617301771741	1.5110439869298982	1.4973826440228013	0.40045826585194927	-2.7710226490864307	-5.277500489045791	2.971953101150019	-3.902022000633648	-1.7725491386354029	0.8346171848527626	1.346500839287064	-2.1936479847590515	5.145839573145737	-0.8288773010296486	3.2721189705046907	0.7608109847598195	4.760956453693536	-1.4887314321515221	0.5973709070599689	1.6508196225648983	-2.4340463725204144	-0.3676852957681508	-1.7168590146940066	-0.2971984295856868	3.195392290241733	-0.7138038650993156	-0.8604976309374907	2.593639675117626	-1.9366088540013942	1.7055768552430113	-0.566189553017811	1.6140871153999088	2.829833836524158	-0.222096941136781	0.4936452870749519	3.5111429465071335	-0.3771243686667042	-1.4975096459194077	-1.3067679130201986	-0.8322226641914446	1.8828583930190699	-1.9393582993875067	-0.9484880925071394	-0.65577760023922	-1.0694255570636269	6.643343186215031	-3.7612063934264395
-2.2250848852088874	-0.29721192688187276	0.8974320209754263	1.367480012520806	-2.5051996484403336	0.9988816622201302	-2.105662213430822	-2.4608167184166314	-0.9777334979800975	-1.901593502106492	-4.401059319975217	0.9554421798219086	-0.49267454833418556	1.4002419104734234	0.5786168107034493	-0.7630790346952362	5.03953189896394	1.149574490045278	-2.2246496276656247	-1.0154864428884476	2.173948776733277	0.7559341886415072	0.47522622446230744	-2.9098171963568564	-0.8108805567827171	0.369128999270515	2.3382749022734153	2.5463339326646786	4.514924534717191	-4.052021426774738	1.9993747096991563	1.2832869725015967	1.1582491266477155	-1.016531286219987	2.3832452493782954	0.7326097497835001	3.049008794399876	1.5406652571049746	-0.32458339462338226	1.181640458663759	-2.2744133318419038	-2.3147304677643903	-1.1135636300100975	2.624759292911078	1.330274721005553	0.9821061441939484	-1.3484245781512283	2.6599803549456245	-2.9545238844523	2.0832471317580477	-1.2674319026769323	-0.04136597117180451	0.8364838957812081	0.40557889575403877	3.935272894740125	0.369993707907261	0.7582440863653777	-1.8603726609109434	-1.8738472149142014	-1.0199272738618215	2.373769610826254	-1.9081162188177938	2.4933285985013507	2.5310597712516087	2.889797290563865	-0.9371679211742601	2.6216517306642055	-0.09758603894427693	2.1312266224048537	2.345388488301573	0.1892002577035854	-1.3517063486524519	2.4565319417302294	1.7347910718294495	1.3046838374719847	-7.443842009552722	2.0264084064881334	0.4983632304621118	-2.5309838660376816	3.287155941868324	-4.777896048289292	-1.911791219880297	3.2744552749975835	3.469322570322032	-1.6779780702525458	-0.8773799893621248	0.4935262433928035	0.7511061539122316	-4.33425045266914	-3.535353253707753	1.5897429579092133	1.9293106422289281	1.739106703906225	-3.216201669477334
0.39718495318054076	2.0099781139925303	2.239986118674014	0.3270660875192702	3.4002584189797123	-0.41839986166698184	2.0190050973011413	2.7685272164192605	0.9612350160760372	-2.526318676027391	-0.7815318052797123	-0.9634839063774406	-0.025294790426433553	-4.975835994833877	-2.4198816987651237	-2.287058735408204	-1.6775292748492532	1.2747581823004672	3.807171468887597	-0.7264329227570013	1.7389671944326741	2.724429718734238	-3.216339276355905	-0.7559479267209102	-0.9299299238349528	-1.5339955780263999	2.3473748474210607	1.3833361750908468	0.4665550884615521	0.7936632067218343	5.398929021559181	-2.92576137167779	1.1330408664685576	0.813853941259887	-2.9866138376901192	-1.5286657177244898	2.768540656252399	1.1280177797405664	-1.0763504335630607	1.4054674827324791	0.13034873955859141	2.007833316349336	0.6989514137851436	-2.009674068059794	3.0423435563964176	-0.8744966643977244	1.947912723117111	0.2354934147709562	-1.0165280333624247	3.5972937267114657	-1.5494443240629145	2.0222719031152927	-0.18145601063149536	2.264776544423866	-0.11268691092580592	5.002048845005995	4.006540579578869	-0.34427113620746647	0.8150257697352356	2.774434648561974	3.0474117180455553	0.15591080877936941	3.2136275937111827	-2.925388035473292	-2.552864323309067	-3.0310192047913156	-2.551610172075542	1.8958156760005782	2.4299333086619135	2.5559790446701993	0.9574365051383567	-0.7189940767604317	2.857346577438905	0.3816376328634518	-0.9676912395544185	2.4088055138366666	-0.15993014339472733	4.289345047668556	-1.80919867238198	0.8750958470259511	1.565440875124775	-3.5631945196908634	-0.06270725190184921	0.0696007869625235	2.1554747941636148	2.2045247807458264	-1.3641102050806608	1.1786371760541607	-1.7206187595316889	-0.6599912851804766	-2.900742037371847	-0.6145169739282866	2.1861006404663117	1.7451165248062077
-0.0035175645155509205	0.06645632124973112	3.245846436120234	-1.6720250744813956	2.6047632273293435	-0.7670912045994192	-0.13202002642806573	6.125240981962513	1.0974723613291522	-0.47151081424366476	-0.2820809250195988	-0.09139882692072682	1.5806385824278428	-0.5377223077017085	2.5332419291307295	0.7628692201149575	3.047911458094519	-4.236787084260554	2.774092363371769	4.939658871328978	0.5817876280414963	-0.6155708892893698	3.104830693651474	-0.04650273078716979	-0.18049448135148627	-0.461268622904849	-3.377931303408022	0.8020571949606672	0.3796716714743731	-2.026762800887242	-0.9045808335205684	2.368701702616894	0.6427897195094434	-0.1483557505714572	-0.37769142172435444	2.416972377162313	-1.8483484769417733	-1.722786214235864	-0.8120375517866945	0.7399784732445833	3.8109644818794126	-2.3248210453999985	2.4822737848961913	-0.8369427249174411	-0.9410269545812695	-1.4905796480648585	-1.1107247130078044	0.40345128363057187	-6.417774261640691	-0.9982637371195966	2.4002236836145476	-3.2007805608115714	0.49138479443859273	-1.95364670721765	-0.6661427795947007	4.941155830756154	1.977351270920154	-2.103928718916085	-2.530619582041186	3.1190343697264624	-2.8176004431861563	-0.804512807886331	1.2174378694463708	1.0923272369553103	3.055974593212624	3.647145941169768	-2.6455800920791614	0.03802321648959373	0.5274152502553824	4.354264493127545	0.8637470084097864	0.7501256626403866	0.6612857637291041	-3.1527414720877944	0.27136073112583037	-0.5212852339588224	-0.6371510393839876	-1.1046751219777622	2.0418783829833416	-0.13199245277731697	3.2494739336976313	0.3335568393792368	0.8631224964415601	0.5862362275097183	-2.6124583336532985	1.6162176608122196	0.3534901360565882	-1.7897936091679683	-1.256922572640884	3.5090415027129045	1.1062828457637137	-1.247485882068841	3.1827662068562455	-2.7640107115424652
0.24727754446869027	5.3124517365403845	4.349864552478441	-1.9914260863766542	-2.3562273424761395	3.5560948586412997	-1.9054614084038175	1.4568550772083981	0.3861457039289886	3.9714243621268674	1.2036723096821178	-1.3181100903260792	-0.5988968554051721	5.415408591845503	-3.2266304129507417	2.2110736153945547	1.4568131895245966	1.3154822514757372	-2.851055060661309	-2.212971738771305	0.1598821079591333	-5.043565304307761	-3.2824446880378955	-2.2815190274780317	0.11077270664344031	-1.4198053222367886	-0.6253775365064952	-1.2166162004537893	2.3406413133294715	2.0097233763155615	1.7564447163915884	-0.38266306391845084	1.17016255607105	1.7338970422860975	-3.4233693390272957	-0.9370708254848279	-2.9756357955890067	-2.935107123508455	-0.2544446708094722	4.348643621174277	-3.469602436777252	-0.4312865636025928	-0.11625668130951235	-1.2795731921835594	-0.22773838038267308	0.5371340941898944	3.391520406547566	0.4319526282264301	-0.32089426412124183	3.5095342973111276	-1.3361832064805694	1.3252458158120062	0.8397011917149625	0.8410758741195503	-1.8840877408338494	1.2035969157122643	-0.735074145341067	-2.6182486914796854	0.3767743495620373	-0.890369742913476	-3.8215663106082487	-1.9723552839647291	-3.60112713974875	-0.6664614969551694	2.3781002172008074	-1.0725329888365123	-2.318013322653138	-6.240711656905232	-1.2951057004879971	-1.1650232595776462	-1.1588767868747973	1.9477256288489841	-2.0926633203957294	3.340023311729444	3.0636675356794867	1.2317058156321246	1.3694908898451728	-1.5118445293787819	-0.1975381858662862	0.7452175897581936	4.8810071483397195	-0.8807685868015037	-0.18093012832939442	0.9305244008111732	-0.8079206328977536	0.43631201376436796	1.200487067903536	0.9627541950005246	-1.5598774701338913	1.0339284974546061	0.19939968453482798	1.3620993509712882	4.097187096133886	2.695513044625264
-3.4116076455401507	1.4552966742668096	0.19683074260240477	-1.4595951935986486	1.1922082992809349	-2.5459281765817323	2.3743352297020457	-2.0942170586536153	-0.30430499567764263	0.428543398507527	-0.5520249918596691	-3.8150103111075153	2.5806108884497743	-0.3273606163447186	-0.9233408013022228	-2.609517613026184	1.3618918853694624	-1.4066230543477174	2.106717433018561	-3.8517462581848787	2.018031002593571	-1.1667305974737723	-1.3949047137798554	-0.31049008180113896	-2.732877398773969	-0.7224945668898703	1.9380063562953107	1.8968250591532771	-0.7735238902803708	-0.7608308801373728	-0.9675340453338478	0.22434979098323476	-0.24870148968640296	0.16427271347698114	-0.4081024265589588	0.3745600531681625	3.9189059226369944	-2.6438399210128614	-0.7146071846674609	-4.231828541016307	1.3094170636166147	-1.5591605714975876	-5.141162870708373	3.700519428376575	-5.088911971205391	-0.29229328916321456	1.7345804088270405	3.2788175946552656	-0.10838114922807746	-0.47783365256429816	-0.4876038604363773	1.0203061468802133	-1.3874407137290443	0.9346550870766898	-1.7565348794362712	-4.324840475525289	0.49667252251949	-0.9769826414586154	2.3971750024885092	0.6129678120191737	-3.0675557496947867	0.644907519091341	3.488695872473375	3.4855073559305225	0.34757149462264186	-2.9402584411181936	-7.103037165032899	-1.732184995372209	-3.3141715050986957	1.859374719741905	-2.8733288978689866	0.9678317921144797	2.417050755325637	-1.8852643006975385	3.4263798123882805	0.20002619587532516	0.1287330544691446	-0.875975610088416	-2.1654667349701624	-3.285320788406421	1.0870709321834018	-1.290309120394515	-1.6325750471504115	-2.203036935059376	2.8155612275849555	5.154412914844734	0.5265429948875446	1.0079600919484737	1.2718892799431065	-1.0120186164975709	1.9184379047936828	0.03222656517173895	0.4315451656446664	-0.2356622615801508
3.00864354380944	1.3511413116963908	5.093418486734746	0.33911781091696463	1.521449436176694	0.48196987539859165	-1.8457976275932684	-1.6339069466615415	-2.9238995299134687	-1.3926484036545004	1.685558051685471	2.7496052625086773	3.4508575098231113	0.10772466956883801	-1.214939161636965	1.773669283146869	-1.472357212925249	-0.17877610440665734	0.38666323429821525	1.2248248982239265	-1.8138195697211812	0.013559952305004409	2.6299032831910756	-2.5301097227145806	-3.186771909183288	-3.112142851374264	-2.4567544910087062	-5.667190068798607	0.36372692427171144	-2.7420520704511904	0.859074171878333	0.6222380186896667	1.3460035920239768	0.1033380847266521	-0.6272691714810892	0.05500105222616547	-0.3977893388724777	2.2561500524715026	1.1226102620358271	-3.2190883656085982	-4.694888851353361	-0.0846189739367753	4.244111490778825	-0.8542833080851465	1.2648375306108652	2.22445818571673	-6.043126566252223	1.0384344526140614	0.7879028278572682	-0.5775935848687502	-2.2497902673940784	-1.2686902404338274	-1.7719884449293293	-0.3614153077590605	-1.9460384763982568	-0.47651630071968565	3.17310855601018	-0.27600084264573904	1.7259024138527417	-1.5174128952404622	4.30715640883069	0.8468828965058094	-1.2514958765674011	0.10201664424729698	3.750803204828569	-2.713735244606873	-1.858055798025177	1.7652956542971443	-2.083744737453697	0.44284542184035447	-0.381712830250933	4.654601532659641	4.201309068538882	-2.28256653735361	2.4235401408581034	-0.7064906462571655	3.188411610889137	0.8076757564552425	2.486386317443811	1.4148359373104868	3.0680489462798795	-0.21870512595382197	-0.4577481819555604	0.8182093605292879	-4.572025800473067	-0.7401600366828776	1.336858625885745	2.7373662892602804	4.396374313094065	-0.5639499296535219	1.1177898890203135	0.6695033767024189	-1.7203196156185723	1.6374489564672408
0.6227361832026354	-3.6168190576952184	2.496188986300207	0.3411049258796914	-1.0563682557239438	2.32101175338906	3.2284789873617847	-2.079046159423146	-0.6990878722351577	1.874830005744364	-0.1466177511289867	-2.594478323050155	1.3420805377250105	-0.8934887719513641	-2.9774742664734015	-1.0238863539830194	2.5204424608351026	-1.156850183240544	-0.5714428237770475	-0.7857678113319012	-4.821866580501783	-3.033727344924073	2.039923379965651	-0.7716942068322342	2.7162281771722614	1.947920707106677	-1.4452350066153667	1.8713752025093549	-0.9221612950136006	-0.014255102718483445	-2.0276912391493687	-0.8667706598099352	0.7531443521081892	-0.13767504563284183	-2.339996397222746	-0.8372243498796889	0.6857983788926858	-4.347820753313074	1.501809289131389	-3.3389757244857114	-1.9257442304239554	1.8164006878265146	1.9180064427823311	-0.2951002527482078	-0.6955697369632047	4.08297703860906	3.4940616264053634	-2.83159228572067	3.0103730998577087	0.7619496853202612	3.5429829243108815	4.548520656408802	-0.5966097149459948	-4.4965851273433035	1.2091017060048397	-1.136759587708281	0.41400980029433354	1.8849833198731374	3.584888304541151	2.4971987198802976	1.5884458224784324	-0.3814568233965871	3.040760204074349	-1.6720741842145792	3.62740438651676	-0.14394540464233196	-0.6999550274900838	0.8936205166501134	1.1922880179320015	0.4715217588042399	-0.37837858123981455	-0.6722953727572075	1.3335740459887444	3.8353892229251807	0.49525017077436156	-4.820144097882307	-3.3843171642058185	1.0935220796967913	-0.31799439829465403	2.7119374497488216	3.6419675478539313	-1.074869747899122	1.519965298181603	1.3547756141051601	-4.139350742986327	-0.23699807969722309	2.805984539436761	-4.675696720658057	-1.1347647269871222	2.278184715542838	4.497214832372246	-2.3201664298344875	-0.2784561640448827	-0.3903323468816117
-4.5439267598863875	0.18222562737560072	-4.327735937515021	-0.5434197747427155	3.1113680579669656	1.808666406554446	-0.7123975226990332	-0.3358582595951868	1.1298512042034579	0.3635419905796269	-3.0442725366816283	4.078791360067835	1.714874988373808	-3.493356769698061	-1.142698694257644	-1.4009389346974095	1.4723762751648142	1.4504051282301214	-4.845921504222952	0.5819807955864094	-3.047753939895462	-0.5442934921816523	3.823420795865817	1.0451911356543626	-0.1793678073127241	-1.0686292772458261	-3.113916440728487	-1.5018537172347466	-0.07984867473165516	-2.582995216539521	6.07073256222194	2.1860182948366584	0.760064386333863	-0.672462312177654	-1.4064280894598877	-0.08327752198612327	-0.3493810533467636	-1.4876511169666409	0.832349202283248	3.112747703936265	0.18367662823348965	0.5263032168518204	-1.2746097433898058	0.627633696151304	-3.900799867222946	3.767251215105247	2.215531052470661	-2.995903495524042	-1.0735760278847255	-0.00425105289860685	2.5652195952682484	-1.8581135684917678	1.3225359073025456	3.4580842362115125	-1.0661510901483722	-5.2885039543102605	0.4643658496397078	-4.667314324051337	-1.9951888975422427	-2.1860906274688188	-1.1140761419118235	0.2740772193664471	0.2942880232782684	0.39963079865801726	1.4205941205481258	-1.3095018868315684	0.04818378201270987	0.46915736030865024	4.069091971347397	0.24673486100397188	-0.2699676675026945	0.4316984411018281	-5.026109351768207	-1.797783783915075	-4.443448002680101	4.353925112196483	2.6207027282558855	-1.851201277141789	-0.9584752275962105	1.4305426704631703	0.20509916769873682	-2.013213494427393	-2.811643243024811	-0.6563175317724799	-1.6835887736479542	-2.1898651394661868	0.6564779537771143	1.5834713128306175	-1.6614993174701924	2.6192754954088353	0.18456311483424054	0.0664345385571608	0.5299398239411889	1.5757244494447342
-3.127580007713322	-4.904850225646364	1.823550338097322	-2.803336902365854	-2.364253276231538	-2.7844015454850815	-1.5505463515050741	1.2004406563007017	3.21584398515694	4.812416076048968	-0.6288931192817876	3.7785134711416535	0.4095166566919314	3.775913886806925	-2.8640715963798797	2.17468557851797	1.9603323518307187	-2.2839474152033157	2.124295798816531	-0.9081039534358657	0.5865852729784687	0.2466365763932253	-0.9705039545123441	4.955450677423465	0.39783442528860397	-0.975770973959264	0.3558342997527365	2.253974985612891	-1.0973769410260636	0.8855442374230568	3.675845171219102	-2.433673315547274	-0.9331225689338503	2.603114965349907	0.983030089580439	1.4352210979873476	-1.8728221675733923	-0.5702802695177464	-2.707180054019173	-1.6544344033668414	5.02408626131832	-2.4980209829783844	3.6428432144884937	0.31544671831374	3.4132659706132444	0.2916328145695997	2.0358292056794944	-1.7177607405862159	1.7821733743334844	3.7609688903598464	1.7905983304674595	0.13351074687813255	0.00952291625331607	2.0207885522360822	-0.7922295207054724	0.224826667415767	2.2272765403057795	-3.0849930775846124	-1.4546204885009073	-0.18639332675206008	4.299730170871122	0.7950391371042678	1.4886215059053893	1.581508632860541	-0.900266013292982	4.499526096016027	0.45963637722900974	-0.18009503444109531	1.9612543882458002	-1.8255656265950995	-3.6693821866967142	4.030257726253673	0.7910957939580333	0.21943208095615757	0.1834882309935985	-0.7735233530903098	1.4651738781878874	-1.0125495516504972	-1.7739882501999993	-0.37956934243643586	0.2818783068454494	2.8455675183213165	-0.004846816045820607	1.4135696453365576	0.23668353014900695	0.6539724159403251	1.3703085780786153	6.39518553835472	1.6521833081465722	-0.6228706449837008	0.31343987936486883	0.5536317865710373	1.1634315629070935	-2.5702400309629256
1.824649526605323	-0.4864305668586098	-1.4402145581981174	0.10876215251045841	4.562721685752108	0.3982396144411985	3.8308466972714927	-0.7133184765163192	0.13052207029225846	-1.0726650517256666	1.2145655954356132	-0.19568294361233324	2.078263444123839	-0.1667754480550215	-2.2300419951646595	-1.187446151647954	2.009938085760982	2.8387719659996407	-0.2640475022235863	-1.3015456064944022	-3.7347146931832897	0.8672344413686218	-2.6703235879771396	3.050486439827524	0.5884888683735944	-1.8868836004635134	-0.7098033396036421	3.490512625466955	-0.3528731431676267	0.5821345595254637	-1.7436187606942328	-0.3180179710181763	3.7716694507713653	-5.056169738455477	-3.4483795609464334	0.48011801234082524	-5.232994997119386	-4.472368311330214	2.3585358757283275	-1.664309194795086	-5.598310412503059	-2.781908213011724	0.4999556101178717	-0.5065669980033968	-1.7112538598904738	-3.254726538600863	2.1642137080861237	6.596923168160254	-0.7850271562666464	4.342315651407488	2.4175430826223914	-6.282558609179318	2.508715950691467	-1.093421834528144	3.172084913354985	2.5163443605810776	0.2643914625201007	-0.24401097776986952	-3.2459585538634057	-2.089542581746784	1.6509163931459698	2.3248907853555902	-0.32572531187028037	1.3135321150549844	0.8705548826847447	-2.1921097745371854	-0.8405294611733272	1.773960926227107	-3.2229904194838443	-0.4880760692457374	1.251361273742041	2.1085618951324254	-0.8546055225017845	-1.0570534458060141	-0.42676133115129866	-0.8995065664565705	0.16136803430995617	0.5941131405062847	-4.319219124721149	2.9315640923213513	-1.0708542941915296	0.20771881615412388	-0.41803421323233975	-2.4221555602533065	1.0006672164296802	-1.2332852098303297	-3.350384750654893	1.8500389781121913	-0.14278961046195354	0.15267185179489962	-0.652849847532763	3.549634832379126	-0.7033353494047798	-1.9336099978393746
1.1160003671545828	2.56916266115742	-1.2402774509721224	-2.7662361861618967	-2.5889095315752644	1.1095226861345833	-0.09438688725841128	-1.0333397145615986	0.032381861559219086	-1.4170682437739444	2.818416067722666	-1.0487660353840966	-4.227292958229367	0.3137087847716264	-0.0347278285998697	-1.6413403356332696	1.0564104734071087	-0.3441766013481863	0.3409484234525113	0.8673798489018211	1.864554366427424	5.8144820827386665	-2.3482907355773017	1.436115349645505	2.853416800736495	-2.044684650737486	-3.6315999980026117	-1.9836272134593271	-1.2927296288152208	1.168739041404892	-2.4194054371614877	2.1100400679270037	-2.0378143019269364	-4.626263394943962	-1.3074635522033617	5.43257294902039	1.1821043412130527	1.5013748568241034	-1.090963451612412	-4.335510768258319	1.6060451952233725	0.16928250934426536	1.9297656687329772	-1.722580098289106	0.15076180892591903	2.900418829547893	1.2352514925894769	-3.310306857920613	1.8189462569765753	1.6548054303053852	-2.231040620460896	2.867117708554589	0.545786581674508	1.0651818495246035	1.5430728507512737	-3.097369830087465	4.31596501406242	-2.7956139537778815	0.601064413361138	-1.796795488886283	1.1141343867606848	-0.8673860733924134	-2.4952633080769004	2.5277318343141197	-0.6806456697419926	0.0926120594872124	-2.3615487307331917	-0.08417078497956548	-2.840957750600251	0.968867178907686	1.426206850321516	-1.84947792255129	-1.1572593616597429	-0.7265059306180996	-3.1436362699658496	-0.5015798743051204	0.9928007105144243	-2.686413172829185	-2.434420172692716	-1.1845561817130048	-1.03392041800804	-1.5637271854836863	2.1793396841620782	-1.9563672176598772	-2.7676934187090163	-1.985118894596359	-2.428209978135597	2.5597590622220423	-3.521006264289088	1.9404782107016745	1.10028138352792	-2.3907372256297865	0.02083947483518967	0.07783017656545947
-1.2224324980905759	1.2077700053459912	-4.722528889208661	-1.522749997780777	1.9005844494717312	0.5235258844287686	-1.4721359315334788	-1.60601458957182	2.5664203402976824	1.5151972433184044	0.6993298116367026	-0.9641014783201732	-0.6009253960613792	-0.9792007214170246	-0.051893533156465055	-3.072060267369461	0.51208828639081	0.45861431749900844	0.3779481142816331	-4.63346154227517	0.9409163925264065	-1.4374607312182912	0.06861687007682638	1.0846025407334663	0.49652864155045884	-1.0415186951978317	-2.2259896985612446	1.6141557213402558	-2.0645196142312647	0.7744031435521285	2.259873436246854	-5.152168484232797	-1.5111712809501447	-1.6929505708495693	0.8541292309165848	3.9138754157443887	1.8076826754775814	-3.8000196483692408	2.037496592796892	5.296075499622896	-0.04529804164567692	-0.8280472395414454	1.1211103725122324	-2.694511502342905	4.822761332851564	-0.5948511680401667	-0.9109650252181479	-3.1970863081726923	-2.3448348306758895	-0.22219432711961665	0.5901479368189391	1.473764808812733	-4.598026303198803	2.66579202199954	-1.6433374140025938	-0.9431959810683741	1.5731900564458208	2.7464078250837507	1.0366372821376229	-2.565292068884164	-0.8852429629081138	3.381890310871601	-1.7491744392538389	4.809144757581372	3.399354969244838	-1.6578332776790399	2.5259830676389754	2.2326387271574477	-3.400806844655171	0.889503399608746	-0.031116943613237417	3.9871359990770374	3.4530263832099752	-2.3147484261188693	0.47502723075791276	-1.8512689973617826	-4.243449986577437	-0.5478849517770931	1.232135704415979	-0.715676714125083	0.0883358748547309	-0.7825801027667946	0.4077826133686992	0.3698274367449	-3.5202541622661587	-0.12561416778526907	1.5082491516270466	1.0581053708067398	0.09428697721583663	-2.537066508908256	-0.4563231235684812	-4.373227970009454	-1.7254294568656412	-3.195379554412747
-6.973417766724986	-0.885614028892181	1.3602002901641905	0.6137485777868705	-1.5308544701232085	1.3664806897395998	1.2173817513137735	0.025127541484131384	-2.755291571328827	3.419711645509185	-2.0620378335160496	-1.72776894202383	-2.9520634307750018	-1.6503824079831084	-0.7522686075359136	-1.899549796812982	-2.8749689544303774	-2.2689708998366767	4.9975188999917295	-0.7325939257314169	2.646112273971347	-2.5199914347677113	0.05175755112488118	-3.1198593613851555	0.9682613526384206	-3.539529300090173	-1.321606437365898	0.5896750278413289	2.268567456410736	1.7457680528159465	-3.9279755949860387	3.3607479614485953	0.2595369943668888	0.06360691307407407	0.5507893901273776	-4.111492519601366	2.4469953589917637	-1.4036942100517111	-5.307422702430828	0.9314510991198028	1.0932554861490666	0.11455864306151663	1.9190170613437467	1.993325554618534	3.3264070799987024	2.7600385566737	-0.5032276410442518	3.027480589446997	-2.1950257671811504	2.587533130613226	5.0831914718726745	-0.9995807546360841	1.5553652221468885	1.6239945745770352	-0.7690019062763978	-1.4695471632362147	-1.6860048132019847	0.4220689715262131	-2.6455944760871013	-1.9636025860224353	-0.26320171260654424	-0.8481291298546793	1.3006332092681299	-1.7466761457614346	-0.16625051791770232	-0.3196161293475875	0.007744740170086632	0.8422412269586863	-2.9876955901670774	-0.9249144158932053	-1.9695348304694604	0.8598654498341258	0.5806701782309645	-4.596532960180101	-1.462223552301643	-0.3856729322611924	-1.1651728138166457	-0.5236272227282769	0.7087230732352068	3.2326909780068736	-1.3887878252007115	-1.799914425235663	-0.5898771154228288	-0.9320781817761864	0.10797248646814814	-3.0581213191125562	-2.6469318591623816	-1.6922215566624756	0.18532718222620642	2.362283353233887	0.4660513236437361	0.1749672871377555	2.9392760844150416	4.447953927560559
1.7269842434898124	-0.2620936186296078	0.32011310227557377	1.7399858015712792	-2.860207554312762	1.5031111575971374	1.5557088528796492	1.582077809182741	4.854380580948795	0.9441371893829759	0.5503942649582803	-4.758758589147049	1.5210563401864243	-3.090990831940016	-1.4757548925573674	-2.2499050492091888	-1.4495639863378624	0.8793456520843096	-1.3660766811773493	4.228402808789899	1.1248431107668917	-0.736879661213313	1.3982720250520186	-0.08060827038551614	-2.5599772007343935	-4.649167124067361	-3.9388579032603617	2.1645455469471275	0.8741142103109403	1.404401338805874	1.911820807970508	1.3038237416084189	0.27118102940332894	-1.9771094322686735	0.27625114349046914	0.22086635336530364	2.347677717148899	0.535892218437082	3.1216720333389856	-2.520216167921783	1.0640627109434708	2.845396965460083	-0.2611122893266167	-0.6292684647675322	-0.7889804471588591	-3.219604297112386	-4.2404676505469645	0.2608717972931607	-0.6997498373017087	2.967915651493411	-2.181375401781738	3.1821978197062184	-0.7995424108632515	-1.081120195216068	-2.7961519073550667	1.2352895591258466	-3.523331564201318	2.17713074922252	-2.68217565159609	-2.59703283769614	-0.39761241592175617	-3.019001825223692	-0.1720116256373101	0.44587605149571763	2.9935678991542174	1.3937003414366218	-1.139601829297203	-2.2117682837864914	2.4702478269228862	-4.729960276666631	-1.8992140796924208	-1.8413864710292143	2.5945350777049296	-1.9837045701364564	-1.9691784683846938	4.863287227124258	-0.2265382507034329	-3.377714431589433	-1.307558276183248	-2.2113370489704725	-0.4899768586910524	0.10086182877744204	4.596577624606752	-1.5332348068524049	-1.929686597166438	-0.48896094389175404	0.11754225043047263	-2.1683697899995846	2.3794650027671085	-2.4790039541477604	0.07700176042047571	-0.17589373422521365	3.4837393343078196	-1.1938450240094438
2.5668321928815634	-3.0584940132791996	-0.6107583256177104	0.6420903525105344	-1.6502559797948386	0.630155311487605	0.2752049146754684	1.8093648189137632	1.6713141732344383	0.7922144770048141	-1.0208369722806898	1.0078982814704658	2.0681131986744234	1.3192844849132983	-4.321843039978715	-2.177335331998107	0.5836874371757937	4.208109318625516	-1.2842975418557148	-0.07226497128083086	2.0309874641493963	2.1633357793840466	0.23437769801088157	0.912357819107114	1.4491004380153674	1.3125011904751058	-0.9857992865439965	1.1910352343615962	-0.4836528325464524	-0.740346400425026	0.49279877341929046	-1.544550179904804	-1.8716874295733643	6.416204698869412	-0.7511976866822333	2.5577378267349697	-0.3779676839370286	-2.707616516380801	-3.3854118829494366	-0.2752334741613653	-0.34700208262866217	3.188778510674186	2.4670585253032677	0.6087340119509251	0.5117316984910999	0.6774201609301926	-5.272017328388324	0.18294616235589234	-0.2712230242070225	-2.9713994932437515	3.9233775582282773	-0.1248610466795149	3.3895680458438804	-2.1158428142737624	-1.548497069777312	-0.49024874509687005	3.34946300290869	-0.5836979516758013	-3.335792902016978	-1.4027434281530857	-1.5088818929012129	-2.6144392048091025	-0.09515289563005232	-2.302840668855557	2.011203527280354	-0.1705694391360723	-3.59381706523234	-1.5998487595267954	-6.57869134049771	1.779641483948859	6.436572526676303	1.4813422674526473	1.458380844883799	1.7530308821526481	0.2688282625032871	0.9603712384248146	-1.596813849828337	-3.064041718906453	0.1525959942081822	-1.9284994797102657	-2.2895186175488558	-1.1035444604868316	-1.3622631106260172	0.39557552253951334	1.3154280734246406	1.5794366516242122	-4.0175501014992046	0.4783147727627455	-1.9101171289351195	-2.9426145377374486	3.174694828564039	1.0124293195321856	0.3031626998656544	2.702990281757857
0.5544942303698001	-2.3580600408091272	0.6869771406493651	-0.634098646237581	-0.5341432060587878	1.727590896033119	-0.5610112435133751	0.6016004850435887	2.2491627981220295	0.8694112887311297	1.1322770818862857	2.6608171524574122	-0.21121744839448373	-0.12236100228731712	-4.669529623690882	2.379933222123678	0.3542880980174683	1.249015570913813	-4.684441581435188	1.6523975697078812	-1.5108571240510136	2.423630005244989	1.90939091315787	-0.7248584475359768	-0.5141047521701302	0.3628883993372323	1.5956288406570196	-2.1005517596631202	1.3193212322524481	-2.09368760953148	-5.015450012941228	1.837284111414396	-3.8263089353784103	-0.5645367152711505	-0.9360046496920696	-3.729631839869412	-2.158999870697195	-4.039292661056396	-0.959961567839075	-0.2781035247137757	-0.7949665097665753	0.10246703199371829	-3.8099087688462348	-0.49005218832311037	2.3053823081386127	-3.1908071343744004	-0.02228209327182507	-5.546455082067858	-1.3865628447553304	3.6294242779056143	-1.653234025832562	0.291190817080525	2.805456445420999	-0.967025788735586	-1.031712137932648	-4.767824758652289	1.021429820280118	-1.6315565530817018	-4.335917031249795	4.4743610434338	-1.0146608427892325	-1.4056889334182545	0.49029614243449476	2.375145010706278	0.5182335484788023	-0.24476602846523937	1.1706862620119216	-0.4502446293582475	-1.0329491268855382	0.09471677516367483	-1.7047662186810475	-2.9488602969813864	5.702000769037237	-1.8595111747413586	2.3797220110778685	-0.854071561902776	-1.066970368825493	0.7175622505726822	0.5662181662288713	-1.1180016445111574	0.2737680852677916	-1.3785407613118899	-1.0504530345585412	-0.022291989326275758	1.7477392207512883	0.06915451495824089	-3.9023838792001477	1.9052036214027952	0.14644200085931441	0.16210998084988223	0.8982321700781886	0.5164913282098409	-1.9890117374881666	-0.4251409733364948
-0.5773191638858585	1.1343756919288708	-0.2828569875210361	-1.7855296222855421	-0.4298510913937255	-3.579832590378171	1.2069284931595343	-1.2812973826217473	-0.0775953890307885	-3.332036018025313	5.715904276734514	3.475863733170818	3.2852993475980776	-0.3775877233651098	-1.1574329068173947	-2.379640790194417	2.4596045400370423	-0.02423073129189894	-0.29106340697809463	4.139758464113708	-0.14612615337705542	1.1974817355684504	4.003617268934698	-0.5337080144134422	4.750201823879449	-1.2305497404112498	-0.48291888000612077	-0.9584975496983549	1.4443707057581068	3.868559227720371	0.8774079672362727	-2.107358132263346	-0.6606251740926267	-2.016873443421041	2.1934806361633132	-1.5541846843034086	6.099869950679556	0.412831093113896	-2.9608860882917747	2.6019317540029707	-3.713126777309679	-0.7358951592938872	-0.7396785581716813	0.5538276321590418	-0.775119626085328	-3.0052112649998444	-1.0066849812143623	1.0693174331581048	0.22763186629203377	0.9177596334003697	4.681709399174549	-0.018180049187808616	-0.09178600243799293	2.5979772126492207	2.319108112168331	-1.187254437140621	-0.5830008109696908	0.24133871230867932	0.748431388263248	5.312499634879997	-1.7092325881435162	-2.1676216923437477	0.8731067970142707	-0.858527783513476	-0.6387211128884073	-3.1331788503744074	0.5214071522427106	-1.5656484617050135	-1.232481608352147	-2.015131334011847	0.4894096233733092	2.929849720564553	1.2052944329064212	1.1709024110885324	-0.20676359477567396	4.668725456618416	2.648156601169613	3.6172734944437965	1.163613756620231	-1.1726963649214015	1.4508711594257289	3.074180723022328	-2.859417019418816	2.3225197825139468	-2.0485570707821763	1.5123643978538859	0.19314522613488588	-1.8138271154824277	-0.43587821989988784	-2.504482207141954	2.655392296646397	-0.7925678849154872	3.457200127092111	-5.342441373256015
-0.4265294589668916	-4.038112107180745	-1.276114414861349	-1.2461434372987639	-1.300434596923293	1.7804968413070117	1.2561794939323125	-3.973571465414887	0.9135006389923545	-2.029401937407484	-1.2906439098150257	-0.8060745687299704	0.5709702718763501	3.147406007017662	3.0769987179325	2.909483116277166	-2.748445877827807	-3.3811206042424096	2.049148587762322	0.9880797353613933	-1.3096134937486994	1.112864115898232	2.361377628625403	0.2316336609839417	3.324400097878738	1.4972643863649486	-0.3192615684299044	1.273270116696555	3.33095801364259	2.1671875799510008	4.148589098853874	1.6128102053642552	1.5239588811358087	-2.450431464080428	3.033566249610261	1.8201792331968307	-2.772440073087572	-1.2906675572389157	-3.2768461298770415	0.3080170694062079	0.15754746463349575	-0.6304697373957087	-4.5456601927882705	1.0636508382625	-0.6403321052316302	0.3648983256689344	-0.16624627567896091	0.7376885992584318	1.111378067142808	-0.864709519704172	-4.593424207404364	-0.00612555612321193	1.331644525556657	-1.3372721454297893	-2.491413847456283	2.608226807643387	-0.8951451256264262	-0.05342025325839266	-0.7322823060367167	-0.5365338961896798	0.5074956565042197	2.447975947473021	-1.8298829398803071	-1.1907916947761241	-4.652069817520967	-2.517131541395088	-0.34752199401460454	-2.9357446525997464	-1.9885048080497254	1.7564360892459927	4.2939017074835055	3.401021208430877	2.7473830934926475	-2.1073300685435736	-1.7368558663204665	-0.3755889892775281	1.7048487935820398	-1.942702689633283	-3.3303638966913325	2.7281377926732384	1.4761283480055858	-1.0800875613879946	-2.2736595256347107	-1.225590010277474	-4.641577178577423	5.0836621713415	1.7785351206932274	0.22317542237890814	-3.7597696292065113	-0.30224767573529143	0.7508653004080938	-2.5302527774882186	-0.7198645977356137	3.3635875972789715
0.7059011750632724	0.9050876825588651	-1.0746942206216747	-2.9546822866955176	-2.480237462951584	1.3796402601525168	-1.9619183663537954	2.6761665777755588	-1.9506706069880724	-2.5865868747169687	0.03358401465587647	-0.9937095829904821	2.99271022152347	0.6942817129771287	0.4788976396456335	1.1141836093727604	-1.558672566615057	-4.5516990243872595	-0.26996332805885187	1.89824711194217	1.2339166622381357	0.33707895903401763	3.6589201383739267	1.1843353548812778	-4.682327807666245	1.8204756738293175	-1.0271716220945268	-3.3618907964932907	-2.29106893499866	-0.2675192273788804	0.10802215131992965	-3.502482674415243	-3.347178893715239	1.4124192426284765	0.23289741090662108	-0.33557291277758805	-4.122334831803812	-4.175207909650646	1.87877880748856	0.7281940732165302	-0.007338420551851802	3.76336644087321	1.549981874820455	3.2624210528477042	-1.8484739945938626	-2.636924923276861	4.74836374448512	0.6799481406835418	0.3794963590998154	2.3941413697798333	3.0835504172382278	0.7221658933258248	0.5137325562526673	-0.3260487468387356	2.631436353370958	-3.0820883191023647	0.4771930388769419	1.006175050193229	1.6427045826312363	-4.268584698324512	0.9702170724511892	-0.5404392828040759	2.527962592860267	0.1234150422879764	-1.234589058283561	-4.081258328735194	-3.471082192755073	2.894005598696228	2.1211269996893365	0.9914385960453602	-0.23295137133302213	-1.9495725132388475	-0.27845363582616506	-2.0564560370845495	1.6161808116817673	-1.9812790340259185	-1.3267225329830419	-2.26596213353826	3.4500271431748555	-1.0532764845652334	-2.6373423707384243	0.24175398355791577	-2.6250392573183614	1.283889967975676	-4.301525345811803	2.379194325165289	0.07953295770262261	-0.9525469069685075	-0.6713511362464851	-2.625937449995239	-4.756122916269388	1.1003036880428259	2.7080559552489087	0.3273752083850381
0.7399044062479366	-0.6327197080207144	-5.973644469723763	0.2961391108671876	-0.020438775843155062	-1.860924003748991	-0.12480307950849384	-1.5091798993074348	0.3427650704724947	-3.8301319077323925	-3.600826540127634	-2.5098006059275777	1.0724290025485155	1.04526340541955	-1.3338517307912845	-0.2540990877780749	-1.802655102243124	0.877927362792252	2.9415008531137845	-0.7572754447712147	-0.11261916643917673	-0.2558001441727818	-1.5449798733160962	2.1190504671425394	-1.525421976585626	-0.3808032030039777	0.4178370267290376	-0.44608961151128784	1.7967280485067079	-0.10042034167824226	1.5399234588174777	-0.9274373630885858	2.0989585715934025	-3.520497600978537	-2.482363685656278	-1.1038566901539109	-1.5097348254213407	2.582416893747575	-0.8533048318117809	0.34710732677382505	-5.073674878102442	1.3577282848989642	1.8140363161651982	-0.8331871731210652	3.3744366350805475	2.124590275845569	1.1735784287915247	-3.801989088509549	-1.8276688163349857	-3.111362074915059	3.700757221115966	5.679123394597982	-0.7584927763999387	-0.2819267962917902	1.190996067442866	-1.0962546217117344	-2.2137234153106076	1.1750916473162405	-1.096906224667954	1.4729585109885566	0.2861067248599681	-2.294491347339888	2.6378926350640914	-4.009488234091548	-1.6788536190529766	4.408344890587175	-2.173370821757549	0.24702106078393624	-0.8323544266760348	-0.7998112130622609	0.7177592920407359	1.9510062221903741	0.04087602100047607	-4.413740134897001	5.748379412988857	0.308778744343014	-0.4524207140547176	-2.8587112026117523	3.3413262312697856	-0.009444805187282797	2.1013477036788184	-0.0742788846762889	0.07474267727537054	1.4290640970064403	1.2482486350810678	1.66227626724629	-0.560909910965365	1.7918686340466488	-2.130438597892846	3.3863615462496273	-1.318563088880936	3.08420123562911	-0.2893371720498643	-0.9329181564389166
3.7317187290212495	1.1186687063560927	-2.5517281654514528	-0.5781646053391093	-1.3428523608384135	2.462733421821506	3.1009342007983207	-0.1299079986047935	0.6897332797085982	3.780445658674779	1.5478211084320594	2.082389648290443	0.2414058573871946	0.8090134110986507	-0.03150594301263292	-0.23085182534484888	1.1839232074514485	-0.26090617131874233	0.041712452972896684	2.5597072424993508	0.7051070159360894	-1.0344794135180344	-0.08679010303648758	-3.01959392760279	-5.568867021961428	1.3149330901362215	-2.695886338472143	-2.399403826379747	1.9157383262658052	3.552217155028766	0.9621137437174031	4.319743808153921	2.8586372892080094	0.5647303301349367	5.117230163460647	-0.8088565471362176	3.3760015135844297	2.4665443107672456	-0.9080565487813077	5.074489090776684	-1.853092090175356	0.38046204238010084	1.639784987241713	-1.2546464372712471	-0.2147287784047402	-3.0226966399166506	4.857068190283558	2.8489384844251857	-0.6808120229877253	-0.8722922218481981	-0.3670852241104679	-1.21127945503119	0.13224649088098842	-1.5069079565767693	-2.7537967570442885	1.1339102169450086	-0.7918321113706742	0.6621533476624676	1.042720836464323	0.8957345900914492	3.1965794335418822	2.4013575212664464	1.6184181733290097	1.9878354244012777	1.9138910630939847	2.6515273135909667	-1.1806783743333713	1.3314974038954186	-0.013323466049152381	6.114468002221807	1.0534341421434625	-0.10992795840601108	1.3543286306939855	1.2885939476378978	2.15296876917848	-0.4104134503136178	-2.2433224000233163	-0.9633469197414737	2.5588755863688664	-3.0559501771921016	-3.466104919140103	-0.7408957234296478	0.4013099924497009	-0.05076524298049968	2.7713126814436224	-3.1174572324809686	-0.3157771834169063	5.120036011488177	-0.13177175119184997	1.4001789129918063	0.4240141227478219	-2.434611635465435	-0.12184274250313358	2.123910183410487
