0.051813151655054734	0.0013918741715804339	0.08426206609657295	0.06861770153434414	0.06234214923087573	-0.00899092561698532	-0.0009229697735737189	-0.0010503718111850976	-0.0010348162812289122	0.054685744525920704	0.0013404124879640299	-0.004724859800697892	0.0548704754988745	0.03347807383769999	0.03543603238454039	0.00043049436859720827	-0.05643597642492083	0.005899630338410589	-0.04308052010433471	-0.030757741228000596	-0.0019447472498131013	0.0021972907411659274	-0.0015482125279158879	0.004857469706882047	-0.03119292831611893	0.007120559001557543	-0.000961095775234743	0.05302174574631458	0.044589996334966235	-0.00055810873633007	0.0011353347338630693	-0.05184665538167755	0.0054312508776811295	-0.0305703659431792	-0.0045315693163013645	-0.004475906268243096	0.0012387542889051386	-0.07958499933600234	-0.0031076415379006563	-0.09547676439584725	0.036556820070339786	-0.023503159572685367	-0.0006169424785594409	-0.05282276851691054	0.0002568789508924019	0.0030501368783556527	-8.451040882880008E-05	-0.020874798988230015	0.010487195460312843	-0.001661484446408969	0.029168476662527972	-0.003887742167740235	0.014056804112505204	-0.00018329742928922566	-0.0008323565519903541	0.0261429569204852	0.04594543781707914	0.06674696625174474	-0.003329992466966188	0.003975447992100292	0.054019390333472674	0.07355591004111957	0.001570520330149534	0.0629476321994483	-0.018547002810493266	0.0010205759503692888	0.06211318665150235	0.1173449338967357	-0.01806451325224568	-0.03189462210683529	-0.020318532233791174	-0.013073909704282956	0.07025497297768925	-0.02247753983281122	0.020515796299135358	0.0004690814164419883	-0.0604267109080356	-0.0014694468330281366	-2.1619869646972684E-05	0.07146798329273524	0.0001061911366359285	-0.00169190720636961	-0.032561006514590395	-0.05017797033385304	0.0001918556322855502	-0.0004731226381306336	-0.03603404204802921	-0.03851481129286673	0.03162181721303633	-0.004804337090622296	0.026555489282458586	-0.00396095094137616	-0.002088543235152158	0.001374163487444739	0.0017731078272007013	-0.04745725316217689	0.09150457473668928	-0.03444972126137847	-0.048444285511563	0.05080601607188744	-0.0007464236929933307	-0.022406659817883583	0.04617610529053796	-0.00445153857245996	-0.018623115011402756	-0.03718791426320893	0.0548271575107579	0.014909927093702983	-0.0027318071124662504	-0.02850179350490612	0.0007465377021199387	0.07408940452373262	-0.0029454774610909	0.011572873858575711	0.0005454757650897098	-0.0018293822515137335	-0.032177987395127755