5.8768964305259935E-06	-4.894079625666748E-06	2.592520624397478E-06	1.87650926983552E-06	5.913315465896189E-06	1.8008284942015517E-06	-5.767784213697409E-06	-5.194296897678367E-06	-3.042403818654881E-06	-2.4784610027871903E-06	2.141852969244255E-06	2.2230079112082762E-06	-6.94792781870129E-07	-2.8515076294455984E-06	-3.509922016973268E-06	3.6308780347077964E-06	-4.1051029058782424E-06	-4.248293067444195E-06	4.872941998831133E-06	1.144022108140874E-07	5.234412980797689E-06	3.7436911802507036E-06	7.926426103821144E-07	1.6576873808283753E-06	-5.537997584231519E-06	2.9447756540472646E-06	-4.2246597664665715E-06	3.7955523882217433E-06	-4.8990073430370146E-06	4.624244557056513E-06	-5.686192587952148E-06	-5.203965782319424E-06	-3.1127695785741033E-06	-6.258819295613387E-06	1.1307536564638097E-06	5.671649410698304E-07	-4.202770617966917E-06	-2.7610199126759235E-06	-4.920215255810116E-06	5.055423893114761E-06	-3.748284350579534E-06	-1.9934935787811633E-06	-6.2109433146840565E-06	3.597083241384877E-06	4.0660830573553496E-06	-2.047850564829926E-06	-3.89411671204273E-06	-1.4197740383853938E-06	3.6886561698020805E-07	3.539793488336903E-06	-7.747166537176887E-08	5.225510940567703E-06	-2.285322384581185E-06	2.9868278581326115E-06	-8.031391050189461E-07	3.1347420564656575E-06	-1.6476691941055005E-06	3.5314860657953713E-06	-1.1128174069283706E-06	-4.689059336822153E-06	-1.9467561024624765E-06	2.8983833570938556E-06	-3.3790077596889927E-06	3.85723732901234E-06	-3.734683899275521E-06	-2.8303792710574897E-06	-3.853219523921954E-06	5.201381601518841E-06	-1.1115391693107499E-06	-3.5840063034687662E-06	-9.148825845143013E-07	-8.866717485474369E-07	-5.93439173562557E-06	-5.555559102475632E-06	-2.5291411458229612E-06	3.2697872110089103E-06	4.117978749820703E-06	-2.2003732001600523E-06	-2.823655130300654E-06	2.4174808443093836E-06	7.979028981042327E-07	-1.4191273522130286E-06	1.972680339517454E-06	-2.421943607077166E-06	4.462454114353982E-06	2.1327934106784613E-06	-2.4359675530285755E-06	-3.476623931334618E-06	3.969448116911036E-06	-3.85325015360096E-06	1.037403983214614E-06	-5.533211463746006E-06	4.789389914901978E-06	-3.3818854943747065E-06	-4.720379148799154E-06	-5.27174165060063E-06	-2.399682266293598E-06	-3.1095414613029337E-06	8.024557690341011E-07	-1.3923501514803318E-06	-5.276911191731222E-06	2.1968356686908253E-06	3.423579370049998E-06	-3.0871162257946553E-06	-4.364489865162686E-06	3.486963262766404E-06	5.399912907183601E-06	-2.6632066408435573E-06	1.403230395208496E-06	-5.46496412590249E-06	-4.416072305240032E-06	-5.252606641236609E-06	9.699894660951808E-07	-4.977170502305911E-06	-2.054146769872664E-06	4.491538600793905E-06	1.6444705480904237E-06
1.60826022709115E-07	1.7559867928671209E-07	-7.214416501842114E-07	-2.0077956574139686E-07	-1.1049079905146231E-07	-2.0082195938867307E-07	2.3832120276243196E-07	1.4734613417575625E-07	6.37281492946361E-07	1.2635390348091464E-07	-2.2798656074759833E-07	-7.089806357144835E-07	6.741637044625735E-08	-7.046689637301884E-07	-4.767959624363074E-07	5.64867303879013E-07	-6.867157467399088E-07	-6.14993447565833E-07	1.0042144755231878E-07	-5.968058790114567E-08	-6.624665522156337E-08	4.320091250765941E-07	-2.604723554492521E-07	2.211468018922932E-08	3.1384185280248693E-08	1.9964742314626564E-07	2.3790369419866386E-07	5.968778778278196E-07	-4.3940413552886995E-07	3.698743243221002E-07	-6.488261229298382E-08	5.8017749021923416E-08	2.546779137634256E-07	-6.887634921093572E-07	-5.440908683485447E-07	4.4526352472524843E-07	-4.171851416936464E-07	-2.470921586569351E-07	-9.369614755020583E-08	-1.784931485265038E-08	-2.0041217199541535E-07	-1.0280675645393716E-07	-3.2158457211980483E-07	-6.461483943676945E-07	-9.557875357661241E-08	4.1063561779538714E-08	-2.54895275436717E-07	2.6384674561041585E-07	2.6437004220215657E-08	-9.86537814806829E-08	-7.272460433272794E-07	7.853729375082958E-08	-1.3699870040151558E-07	7.583621768327644E-09	9.016622298170866E-07	-3.17266631045955E-07	6.589959986500113E-07	-2.5286929068760227E-07	-5.652596180751825E-08	7.326926461458158E-07	-3.5394765118278713E-07	-8.517964202950709E-08	-2.0187744545071534E-07	6.287501666743823E-07	1.81454990409198E-07	9.797531140530638E-09	-1.7758340952066465E-07	3.1536549100778746E-07	5.093419600327681E-07	3.2496281898624945E-10	6.175231452902689E-07	2.610283670767033E-07	1.1915083394672512E-07	1.9386967145113276E-07	6.959312951376466E-07	5.269915599265231E-08	7.299919732923715E-07	-2.5764804175035056E-07	-8.880441306755701E-08	-9.363260590188461E-07	-1.1244825440660399E-07	-5.203684205228305E-07	2.1642232224492784E-07	-5.960370437215848E-07	3.812573384973606E-07	-5.839026570308498E-07	6.349890702491681E-08	2.0059311720805075E-07	-4.5641004782345735E-08	-1.1062878841488184E-06	-6.731996995357179E-07	-1.4468627362498086E-07	-6.09348110887017E-07	6.181853764021431E-07	6.670707177946149E-07	-8.553990532090677E-08	-6.598893917996648E-07	-5.077712108724487E-07	-8.761716752856916E-07	-4.8869090153638186E-08	3.5297572503677005E-07	-9.336465235210772E-08	-6.74119173097761E-07	5.397795211102574E-07	-5.622224926272596E-07	-5.066797051234683E-07	3.375131850566775E-08	-1.9101006534207691E-07	5.686238475960855E-07	-6.393310652998479E-07	2.7782195372049435E-07	3.547047913628481E-07	-1.1523087757102444E-07	2.3341111767875932E-07	2.6803438416969227E-07	1.9235619300777477E-07	-3.8664829171079366E-07
1.3100071151300054E-06	-4.073995101039185E-07	7.348087547985252E-08	8.345693250024259E-08	-3.904045756781656E-07	-3.117079351210071E-08	1.492609290801792E-06	9.508316769845943E-08	-7.545881174932528E-07	-4.381052037044537E-07	-1.4057353684675202E-06	-1.171704914187855E-06	-2.4317656414785443E-07	-1.0892444641832647E-07	2.697622421022722E-06	5.64319174327156E-07	4.031589157203828E-07	-1.1518930379586122E-06	5.703157453931373E-08	1.0346230686842792E-06	-1.416110156496758E-06	4.591137210509034E-08	4.5670764294389237E-07	2.5745234614966386E-08	-4.152291955448482E-07	8.125751769058185E-07	-1.855218337854401E-06	8.185775389245874E-07	-3.153458481355756E-07	-1.2177189419456555E-06	5.463570081021075E-07	-4.2453093838001976E-07	4.04205731697414E-07	-5.74620560142962E-08	1.0777500082174672E-06	-1.9738102107381884E-06	5.002462598420914E-07	-1.0887834722108267E-06	-3.550239754855822E-06	1.6322697023166444E-07	3.0382399182722005E-07	-1.2791514703712066E-06	-5.260868559406487E-07	-7.624479293066966E-07	3.4640046995931446E-08	6.126778203342401E-07	-3.846039251178647E-07	1.996068661614575E-06	-4.3939980698436204E-07	8.796507947973213E-07	7.030436967764622E-07	-3.3359696189738933E-07	2.9817491337085905E-06	1.7590590670052347E-07	-1.2315582283297494E-07	6.374177335965386E-07	-5.371685061626475E-07	5.125106078158128E-07	6.148200044659817E-07	-6.828624276140328E-07	-4.824011376747239E-07	-2.393808806164036E-06	4.6130817499786457E-07	4.5723490914339764E-07	1.254352302428077E-06	-7.226711496240057E-07	1.1027765504147393E-07	8.323837518028282E-07	2.0338061251957738E-07	7.814624204601628E-07	8.255406927386048E-07	-1.7701246764931408E-06	6.534554712572705E-07	8.940021975169104E-07	-4.6750500649289856E-08	-3.5203484569491762E-06	6.428617278772347E-07	1.189537477393792E-06	6.074548268549559E-07	-3.794730215000571E-07	-1.35804552248077E-06	-1.4594829496455112E-06	-1.0641938077744333E-06	5.855893315813308E-07	-2.1988602282695902E-07	1.733150430592684E-07	1.8013720396217997E-07	1.5241823486552843E-06	5.405878249947533E-07	-4.843242816834448E-07	-2.088844894993401E-08	1.539762778904762E-06	-2.287377383675201E-06	3.1674069988968966E-06	-3.0853253493361735E-07	1.1152952465720243E-06	7.746691755414398E-07	2.539361399824346E-07	-5.569774916205019E-07	7.414271232548134E-07	-2.3819903610609486E-06	2.612444303903039E-07	1.656692184157521E-07	1.5902786835077193E-06	4.7449307834862775E-07	7.38676197257704E-07	-3.489311703330573E-07	-2.736053050997834E-06	4.219267593778215E-07	-1.0756821655447116E-06	1.3135113437237075E-06	4.3959707619898146E-07	-1.2526027808896379E-06	-4.341851986665459E-07	2.148832973480641E-06	2.1689465680630504E-07	8.403940538508823E-07
2.0402208091646615E-06	-5.145549346210629E-07	1.2930378044097506E-06	3.4827685826113383E-07	1.8754466763775687E-06	-1.2254665398560952E-06	-1.4000490650430832E-06	-2.075109122663173E-06	-4.0670187145117784E-07	6.300612022166518E-07	-1.764311457483125E-07	1.3149996632963267E-06	-2.5577779425115625E-07	1.992028716747921E-07	-9.118866974218936E-07	2.6398963433669837E-07	-7.432375158538668E-07	-2.3867705682230375E-06	2.680484378916687E-06	7.98835533405303E-07	8.192134677775771E-07	-3.764778224042053E-08	-1.3670020902411926E-06	1.7826607389232064E-07	-2.4896535071764756E-06	2.2979635726383904E-06	5.560759409962085E-07	-1.328257498872313E-06	-1.6623660087087534E-06	-6.829757275152218E-08	-1.3797951110885584E-06	-2.022851317593299E-06	1.0154399002065517E-06	-1.0317829111456943E-06	-7.400588802412293E-07	-1.2889000610046705E-06	1.1635476619777695E-06	-6.887514949359869E-07	1.288669281906319E-07	6.305279954697615E-08	-1.502912673557212E-06	-3.1192515868544196E-07	-1.6060992351076766E-06	-7.524108272409183E-07	1.2450832776974037E-06	-1.7130519028054564E-07	-2.017595895947234E-07	2.569499410687577E-06	6.955616167583085E-07	6.53180498372064E-07	2.2892413291981997E-06	3.654475118510721E-07	-9.828529050848906E-07	-5.987369412088705E-07	-9.902887734350109E-08	2.661108844511637E-06	-1.883928437026889E-07	1.7509833111935042E-06	7.209683097976328E-07	-1.9027210144443586E-06	8.99836897255002E-07	6.169100297370561E-07	6.885036342221337E-07	-6.329866340484221E-07	-1.4755669769009394E-06	-8.920286059499017E-07	-1.0165362299260064E-06	2.4124710993551614E-06	-1.2140479451009603E-06	-2.3873934406775973E-06	-1.4914249496109517E-06	-1.2525137497206477E-06	-1.1371934845262977E-06	-1.06962438970935E-06	-1.340644995263215E-06	1.461567874449082E-07	2.0393966859460588E-08	8.342887452238955E-07	-1.0648667968269212E-07	5.512772760705371E-07	4.3000984241809327E-07	4.172537912846647E-07	4.546256741139053E-07	4.600188364247731E-08	2.866947141135121E-07	-1.2472592889195466E-06	4.7609324575583443E-07	2.2728883836703704E-07	1.5286155954446648E-06	5.923936625165531E-08	1.7506539487096504E-06	-1.5206702452799347E-06	1.259159575462979E-06	-1.1574134830410957E-06	-1.9003806149573522E-06	-7.642523320408801E-07	1.7075355774692096E-07	-1.5801885762204848E-06	-5.629308521061661E-07	6.560457746875162E-07	-5.849355576772137E-07	-5.402439941328894E-07	4.606300763454548E-07	-7.167502769982373E-07	-2.3339234634485873E-06	1.9266242866771106E-06	2.0570034376265E-06	-4.955511275843423E-07	-7.215471486131334E-07	-2.0892598049494836E-06	-1.761418764527673E-06	-1.8274069754983883E-06	6.999247790189005E-07	-3.087476862441911E-07	-1.343399107292546E-06	2.3746496060579314E-06	-1.2118719310586082E-06
3.4055368114353547E-06	-2.7549179059425432E-06	1.1852824444138295E-06	-4.939829270641326E-07	1.2455683075913684E-06	2.2127375625993653E-06	-1.937083632856376E-06	-3.633978345333105E-06	-8.701733378983388E-07	-2.7286675475391813E-06	-3.8837754019292405E-07	2.856492829949381E-06	-1.2340372678654893E-06	-2.6354641502652265E-06	3.472706016516057E-07	-1.3775438914183271E-07	-3.525011294266524E-06	-3.0504640690630513E-06	3.185153361483227E-06	-2.224673348620503E-06	3.046056423773373E-06	-5.696780234034973E-07	2.1050676797267163E-06	2.8158175864130313E-06	-3.0575340663841765E-06	4.27937454397908E-06	8.879404987211483E-07	-1.1308319120397775E-07	-3.5772637328080036E-06	2.0388719432137903E-06	-6.077135686885569E-07	-2.666594067330147E-06	1.5608050592026444E-07	-3.759619917525676E-06	-1.3581126382293546E-06	-2.2256778566192382E-07	9.183169722043674E-08	-2.9628951538253994E-06	-2.5477247349801013E-06	2.851975070754014E-07	-4.318597037752523E-08	-1.7859039085037592E-06	-3.644399543959229E-06	-1.717665797250259E-07	1.1418977578384305E-06	1.5327813892552073E-06	-6.761669552747653E-08	1.0881798225570276E-07	-1.6391888874229965E-06	-6.554411137532514E-08	1.4986873039464987E-06	3.576465697102791E-06	-1.751416485697237E-06	-4.831335446902997E-07	-2.809021233588271E-06	2.990589622418029E-06	1.5605578204958567E-06	3.6707725617566583E-06	1.68244199788464E-06	-1.1113598178261632E-06	4.1206489670217525E-07	6.162102699399294E-07	1.1569476171175423E-07	-4.512411606506396E-07	-1.123778997182549E-06	-8.136451663880061E-07	-3.9042233924362683E-07	3.4645149797121225E-06	1.7130654765880216E-06	-2.017598185348932E-06	-2.624367021731156E-06	-1.7954323610876384E-06	-7.711281867557398E-08	-1.8174824595064444E-06	-3.0497839285234364E-06	4.0784095604528673E-07	-9.223437775878291E-07	6.525145978223484E-07	-3.2685574954100016E-06	1.4800647392962162E-06	-1.422028028821072E-06	-1.779019219152711E-06	3.415440555269743E-06	-1.3494709262911383E-06	1.153996989577346E-06	-5.278165270855919E-08	-2.07320684733944E-06	-3.932635281601277E-08	8.592709675393176E-07	-2.3945832879388436E-06	1.7963780049760114E-06	-2.1757572850378814E-06	4.943001923282423E-07	5.389839869398578E-08	-7.111752021350867E-07	-6.956695731633717E-07	-3.1241906258293586E-06	-6.665731507344747E-07	-7.231026587781179E-07	-1.9885150522822475E-06	-3.7880107237289655E-06	-7.222728516150165E-07	-1.7817613134897182E-07	6.322169027805558E-07	-3.151790529646607E-06	3.174071887700028E-06	3.854035622592261E-06	-2.83544351730826E-06	2.1406651968234173E-06	-2.7681838940700008E-06	-3.578825425903147E-07	-2.9080692379357836E-06	-4.794587746871307E-08	-3.5968965681841704E-06	-1.9663713182680472E-06	2.31700517509E-07	-3.5501828301483115E-07
-1.5867637237112777E-06	2.76157870689105E-06	-1.4782807212685168E-06	1.452683547140367E-07	1.5315196090412555E-06	-1.0791451261170659E-06	-4.877261897653884E-07	1.8444185537718756E-06	-1.2302191068450786E-06	2.8374453542598427E-06	2.021382899319834E-06	-7.915215753858621E-07	-7.604431193578513E-07	2.132243318324329E-06	-2.5637682780049863E-06	1.3768787516190312E-06	4.55338353087767E-07	2.0416512622529756E-06	1.3488863293457188E-06	8.473143715901673E-07	1.318130088761098E-06	2.8349081779418033E-06	-1.940404434894888E-06	-9.614552237477943E-07	3.341401779660738E-06	-1.2144042088139806E-06	-5.252941785702169E-07	-2.338501907571382E-07	2.273652778354602E-06	3.946756498048178E-07	-2.090348568935397E-06	-6.956461666599231E-07	-1.4213432137226606E-06	-8.087242010574729E-07	1.1929009457532528E-06	2.336845978713582E-06	-2.244947257396788E-06	1.9524850597335254E-07	4.190951341054604E-06	1.7804223225299682E-06	-1.9224474056602977E-06	2.6861421676183787E-06	-4.6371522846635175E-07	1.0901259978952646E-06	-1.8545092725510643E-06	-2.4142778972229726E-06	2.375818761361434E-07	-2.4194694325299415E-06	7.548379571631915E-07	-1.2063394712027923E-06	-1.2492875183126262E-06	-1.4728848431569307E-06	-8.417602937302253E-07	1.1180285759213513E-06	-3.166871211492503E-07	-9.727970046435942E-07	-5.986336268611361E-07	-1.152249679148831E-06	-1.7740568710476338E-06	-9.91306344709072E-07	-1.4946623928968645E-06	1.4693525009115094E-06	-2.8465449176185017E-06	2.61438817798428E-06	-4.100354431080449E-06	-8.053921112552187E-08	-4.558759762271409E-07	-6.441470181963463E-07	-1.6778896130411833E-06	-1.0806069916778194E-06	2.7860458192409635E-06	3.033953790636009E-06	-7.775838784635527E-07	-7.882087985774156E-07	2.7029997920612615E-06	1.8678193808137184E-06	-7.943154462723177E-07	-2.1421267819019011E-07	2.3712748429567594E-06	1.0140196278877315E-06	3.9225758448502453E-07	-4.6464734847392355E-07	-1.408455686056275E-07	-5.733195684970445E-07	2.8543435134776755E-06	-3.303315005362265E-07	1.2230524551696253E-06	-1.3709781726767574E-06	-6.053287127020076E-07	1.5655357586037015E-06	-5.232275022965328E-07	-5.258809561615533E-07	2.569308554496532E-06	-1.6093499680450507E-06	-4.3814395288863017E-07	-3.279213805229845E-08	-1.2326393959678786E-06	-3.99025599346644E-07	3.9525942160840484E-07	-1.572159509423765E-06	4.160673855021686E-06	3.456288882776289E-07	4.114608858313445E-08	-1.3617824422998432E-06	-6.055104289098415E-07	-3.6529566046075557E-06	5.636186106031662E-08	1.864376908671397E-06	-3.689312788011093E-08	1.6594450454558384E-06	1.3424325846340034E-06	1.2836622629724936E-06	2.4507678852510366E-06	1.875632544527143E-06	-1.4608386940543857E-07	1.6504413767142572E-06	4.7103587284761403E-07
-1.7423511568349563E-07	1.3600192463940218E-06	-6.997936276192316E-07	8.686878725491161E-07	-9.670439187074386E-07	5.074402417112711E-07	7.367996129732832E-08	5.87429606462656E-07	2.471630269146951E-07	-7.137360477912218E-07	5.86541373932563E-07	2.714704496427329E-07	1.3708790907719986E-08	-8.09564840934319E-07	-6.549533884354751E-07	-4.091046344863364E-07	1.3916815924669902E-07	4.619981418846617E-07	-3.6122883981542346E-07	-4.877372981487178E-07	4.825330559972576E-07	-1.1698508273725023E-07	-4.802490726458432E-07	-2.53670094329462E-07	1.1050031127575611E-06	-1.4147735741956436E-07	-2.1387804603628518E-07	8.648652109118218E-07	8.550701729692169E-07	3.319975571352631E-07	-5.194654618383865E-07	-2.9212867302379693E-07	-9.85594278432997E-07	-8.69609901716156E-07	-5.181340368605839E-07	6.580500433085791E-07	-4.0431450567937853E-07	4.0451296108450626E-07	2.1279584585627817E-07	9.479960285031035E-07	5.553808807844323E-07	1.0951529403525625E-06	-6.447219298683299E-07	-2.7560642070596326E-07	-1.0240711636898537E-06	-5.386733104486579E-07	2.507982823167449E-08	-8.408480551719439E-07	-6.355562961999287E-08	2.3882771501946683E-07	-9.99605373635343E-07	7.094626236078512E-07	-2.1452284425419314E-07	1.0251918746785535E-06	-1.038642752933597E-06	1.0379546094411342E-07	4.902579701081726E-07	-3.5166740737646897E-07	-5.578742720433437E-08	4.3049169248354425E-07	-7.607987038435338E-08	1.168023576447153E-06	-1.123108830446728E-06	9.481877688283174E-07	-5.234293369439676E-07	6.945407344823295E-07	-7.131200048070287E-07	-6.359130071122503E-07	8.338605334439482E-07	-4.6401644896612274E-07	7.619187525439179E-07	3.252525489251708E-07	1.5300473433048698E-07	5.796144780441443E-07	3.800189420620883E-07	1.7140464523345872E-07	4.208181206035081E-07	-7.625348276964162E-07	-3.7625181884056826E-07	1.1415642604183016E-07	-1.6806822601818857E-08	1.7358751471412336E-07	4.1087909830023474E-07	-5.114784281460232E-07	6.631288146761561E-08	2.5155994578406422E-08	-6.698380964647394E-08	-1.2027737057750484E-06	2.2385000676478248E-07	-3.6612497296964735E-07	-5.375792269326462E-07	-1.1778848657572494E-07	1.5773845608051272E-07	1.3522268348027428E-07	-5.119014057839241E-07	-4.378951985740771E-08	-8.6425701705604E-07	-4.680591966660688E-07	1.2499779484994495E-07	-4.918283103770586E-07	9.679174254977137E-07	1.6488472353746232E-07	7.686451897955628E-07	7.659289539582996E-07	-2.9944647507312665E-07	-7.69302746841941E-07	3.670311987683071E-07	-9.128232942268016E-08	4.691763945945404E-07	-5.2293359525508196E-08	9.371901915533075E-07	6.3304216262114E-07	6.352623233785652E-07	3.240301588751496E-07	-2.8091085412951623E-07	-4.811219091629751E-07	3.2304941460269837E-07
-7.875745445031151E-08	6.319055277142308E-07	-1.449823657345103E-09	-1.3902174798161986E-07	6.692647263185021E-07	-1.4753809523555722E-06	-2.962183720188651E-07	6.080280339729553E-07	2.1435883424109371E-07	3.159651470111502E-07	-5.774774229228568E-07	-1.3988493045591573E-06	8.641679224723261E-07	1.6527097294718788E-06	-3.1246799075202794E-07	-5.895905600492798E-07	-1.7462828432777633E-07	7.28694370202406E-07	6.277155169603951E-07	1.7501507456168712E-06	1.0875371327390326E-06	-6.989562714310897E-07	-1.4496358285561873E-06	-9.876868935360135E-07	1.6812152392628854E-06	-2.612942734879528E-07	-4.4325970438952493E-07	-4.632062403342455E-08	3.8570217097076705E-07	-3.4189276094213114E-07	-1.046765960075719E-06	-9.800251120140755E-07	-1.5203502549222186E-06	3.529191549494059E-07	1.0807714191198146E-06	-4.270950515451998E-08	-2.408974358084235E-07	1.7495899905532204E-06	9.153369047236003E-07	1.52874474277151E-06	6.432285392799989E-07	3.439617102663414E-07	8.858113800172979E-07	5.35684867265933E-07	-1.7063825235147363E-07	-1.929480336542855E-06	-9.110543254458119E-07	-1.3276208773234144E-06	8.279207950784466E-07	7.04829730776E-07	1.9226859433888893E-07	-8.813483407888618E-08	-3.7296475898708214E-07	7.368003837444226E-07	1.7547235316935038E-07	-9.512077980012644E-07	-4.380591694234056E-07	-1.6571654306354364E-06	-6.513461778211158E-07	-8.999076175722182E-07	2.7410608226489345E-08	1.267625296511735E-07	-1.05823036140962E-06	3.598443950205007E-07	-4.059578719608898E-07	-1.2219162251673895E-07	-2.4469400777875005E-07	-6.455169290759341E-07	-1.0639786994414298E-06	-4.320102220601759E-07	3.3755912469435686E-07	1.0815155881150823E-07	-8.705285615550995E-07	3.031689656086088E-07	-2.5025085960197133E-07	9.24097623538138E-07	-1.0670116939707552E-07	-1.7457479796369232E-06	8.43983962342038E-07	1.6993407769977596E-06	1.09480833060644E-06	-7.323786643087607E-07	-5.519280705808135E-07	-2.1233206074710276E-07	1.245129206281502E-06	-2.0597499839390283E-07	-8.577730840610314E-08	-8.699288898461916E-07	-4.380589182255495E-07	2.8087386813327074E-07	3.1194670320186943E-07	1.4594697584143387E-07	1.2882230938270853E-06	-1.6132500323127484E-07	-1.2665709635337162E-06	-8.668769583617462E-07	1.305917067538088E-06	-2.3753051455471044E-08	-7.254928038645702E-08	1.259508594091056E-06	9.587078045594364E-08	-8.385666178372827E-08	1.141463829945536E-06	-1.1845693586861438E-06	1.2677984529816755E-06	-1.82174439809149E-07	-5.501898639896451E-07	1.0005433026790588E-06	9.533897821605194E-07	9.1152440756903E-07	7.133690875588953E-07	3.624485319596399E-07	-8.417393999796485E-07	-8.148168558992867E-07	-4.753741907758185E-08	1.0067005197593834E-06	9.85531420148548E-07
-8.014039576855706E-07	-4.0459261273224886E-07	-1.4380407754478414E-06	-8.698659614447992E-07	1.8134441290306346E-07	1.6818843224301234E-06	-5.757602537382656E-07	1.9486343183317275E-07	6.130954054293592E-07	-1.649237474494071E-06	1.8781783524434174E-06	2.4659604440215535E-06	-1.598808406204944E-06	-1.0622091752626583E-06	-1.91374801388171E-06	-2.800368608453429E-06	-4.20292232381986E-07	-7.209158688191975E-07	3.3448303859867995E-07	-2.0177110590701633E-06	2.0837303533048217E-06	-1.1992538138662235E-06	7.552471599302574E-07	-6.841324418311476E-07	1.3608502301963957E-06	2.2421263448249533E-06	2.10049179776357E-06	-1.0844001390317565E-06	-3.581167426341614E-07	2.3802951927278967E-06	1.058956016704766E-06	1.506548510294612E-06	1.5205140250311912E-06	1.3963098469876015E-06	-1.0525522294187844E-06	1.0948868027737723E-06	1.5878936778630022E-06	-1.0353879569002931E-06	1.6727529148176206E-06	-9.841225252761568E-07	9.4492457276673E-07	-2.3041434115515593E-07	4.548675676020941E-07	-2.300646927007315E-06	7.713404576929034E-07	1.0127754821311822E-06	2.0620844006900094E-07	-1.4684000305414545E-06	-2.0486916416453214E-06	-2.134028074016795E-06	1.0606135947084158E-06	7.158593001376661E-07	-1.9209767751705357E-06	-1.4673293577997787E-06	-1.1297873005136211E-06	-2.023320019426767E-06	2.396737382116155E-06	2.0591939412125338E-06	6.202213301900603E-07	1.5289586734315692E-06	4.5949735581623355E-07	-1.0543741304155298E-06	7.838172925416991E-07	-8.682679087866239E-07	-1.4592992802786396E-06	-7.247391430467749E-07	8.28464163922758E-07	-6.541880423293008E-07	1.1559294599443156E-06	-1.3502468054404153E-06	-1.3958925919259935E-06	1.7646901366643597E-06	4.7599368811178977E-07	1.3220255983380279E-06	-1.0520637675041142E-06	1.8919315495842164E-06	-1.6384946917352015E-06	2.1836184860333385E-06	-1.6916167964242275E-06	5.109864583409262E-07	-8.976584284281136E-07	1.965192141624889E-06	1.78170240411942E-06	4.4367664074661703E-07	-1.0729261834090324E-06	-1.38734294267932E-06	-3.4215463891082E-07	-1.4682420149253002E-06	-1.1638525354039312E-06	-5.477765442465962E-07	6.233274068581017E-07	-1.4429013129141723E-06	-1.0977632011672965E-06	-2.4641810024671314E-06	8.79731875491841E-07	8.549342491257218E-07	-1.7980051755101063E-06	-1.222136964222006E-07	1.8641538649928922E-06	-2.1107075342560246E-06	1.2880400619865377E-06	-1.8504542227866379E-06	-3.951838443330619E-07	1.5940674169539504E-06	-1.8008202745425257E-06	1.4297431582269533E-06	4.808843498680677E-07	2.0218493605063328E-06	1.2594192222784835E-06	-9.022716048085138E-07	1.1412897181171935E-06	-1.5634148979578438E-06	-1.1364773947085096E-06	6.984972259241188E-07	-1.3754816371692658E-06	-1.5286412746328637E-06	-1.0506411374646706E-06
-6.430097184080027E-07	1.231707589676308E-06	-2.694541917302618E-07	8.201230666573608E-07	-7.25595459119804E-07	-2.073341768119713E-07	2.5549773373327086E-06	3.2967681937906665E-07	-5.425547926961448E-07	-5.643976196683231E-07	-1.5986124169297143E-06	-1.5208380058798373E-06	-1.7315939071004917E-10	3.766152461142197E-08	1.5006462585491873E-06	1.411354856200403E-06	2.1944233294434536E-07	-1.5712979134429142E-06	-2.98799530419303E-07	-4.7003430333776463E-07	-1.0641484047050346E-06	3.5079348154608093E-07	1.7965316520344897E-07	9.033095871199413E-07	-4.911963938760847E-07	1.009083829365035E-07	-1.5911035710567522E-07	1.5598875930940049E-06	-4.626642580078611E-07	-1.083859228084771E-06	1.1710116851389295E-06	1.8280618096661285E-06	7.833673596100875E-07	-1.0233918008873604E-07	1.7726879219681902E-07	-1.1768468785239804E-06	-2.1857989155224652E-07	-1.2228986051503694E-06	-1.903901828455228E-06	-1.197425037282371E-06	-6.739983782770689E-07	-5.968763787717526E-07	1.1556915032200271E-07	4.2065967330368216E-07	5.554477776382607E-07	1.6932330137794706E-06	-2.2329102504434907E-06	1.554572777719415E-06	-1.1908917832017002E-06	1.1538681967279053E-06	-3.7753318453411894E-07	-9.999351594738502E-07	2.1802430800871863E-06	-2.476731167446952E-09	2.0768831371159555E-07	1.7785796539884017E-06	4.6728350719613916E-07	8.776665332564591E-08	1.25630101763924E-06	-5.476348526285649E-07	-2.203724011562223E-06	8.502555703441649E-08	6.579424320973297E-07	1.9215039746014908E-07	1.3485495256397103E-06	-1.2175377292270706E-06	-1.1110915140582146E-06	4.84751494611138E-07	5.169396768185717E-07	4.5906447803617506E-07	3.2940554663366536E-09	6.684340159856234E-07	1.9445393385075196E-06	1.0429659001723384E-06	3.601199074475226E-07	-6.388489219039548E-08	1.2015545029283566E-06	-3.325437681389667E-07	-1.3113597672080845E-07	2.3496475839010146E-07	-1.7487932443004794E-06	-1.1885777904322264E-06	-7.465407157175629E-07	-2.601904698052197E-07	3.557092272712896E-07	9.084886875286229E-07	-2.5539627169366296E-07	1.6109098691634452E-06	2.314362550143573E-06	-9.82622522201265E-07	-6.260431474870517E-07	1.1800961497735486E-06	-1.3716536493114854E-06	2.1237200321181106E-06	1.6694540200652937E-07	1.2724394961302173E-06	1.3396924268696988E-07	2.688349304882791E-07	8.1772852781524E-07	1.1620398952914683E-06	-9.20604545091607E-07	2.1735682071134285E-06	-6.945826924512692E-07	-1.6932175504770034E-07	1.6952815676264185E-07	1.0861457257763235E-06	-1.796406747792741E-06	-2.604091509487529E-06	5.530729378103293E-07	9.387598094489095E-08	-7.116224689781137E-07	5.369897032398017E-07	6.729770058938922E-07	1.6704948123464073E-07	1.7582335329584703E-06	1.2945305649995336E-06	3.1236494812310404E-07
4.263358123562818E-07	-1.4653549169089207E-06	9.173762129526249E-07	-4.244455812892474E-07	1.5087065253824185E-07	1.818271754329449E-07	-6.184462273225848E-07	-8.695124860910165E-07	3.7736022416134104E-07	-1.724376007351878E-07	-7.495498197499967E-07	-7.989100673172969E-08	-1.0334833232514945E-07	-8.352485444340167E-07	-3.5716884372738785E-08	-5.974671475419676E-07	-9.156384309227565E-07	-2.1846063965550477E-07	-5.729068495424267E-07	-9.357106339499202E-07	1.3399357758547966E-07	5.8843692178707926E-08	7.583368219301382E-07	4.774301851269199E-07	-8.132360051406204E-07	7.232677160465844E-07	6.066524712385676E-07	-3.19974467719592E-07	-4.711636730692463E-07	1.0018088656287966E-06	1.2421277191386524E-07	2.458861416805541E-07	6.621822548473014E-07	3.5944007741107897E-09	-1.3095428384832972E-08	-4.321767000806131E-07	6.05861034070495E-07	-4.772121892587567E-07	-1.3862027709383004E-06	-4.67139546907813E-07	-6.125761857702311E-08	-5.875673284745575E-07	-7.757132998012115E-07	-3.2078043157710135E-07	5.112634507828036E-07	4.434359304072301E-08	4.325000669428768E-07	5.314479282547114E-07	-3.2398338758609E-07	1.0472502175922496E-07	4.1223430409356366E-07	1.0789747304837428E-06	1.2910973429508077E-07	-5.552170964546114E-07	1.2364156517779526E-07	-1.599367205243468E-07	4.064094620040441E-07	4.916261681770961E-07	-6.037887926816134E-07	3.7482889708560697E-07	6.160463678239812E-07	-2.9207621769319826E-08	2.1032191023193418E-07	-5.070668990636865E-07	9.119434841050739E-07	3.4719826307502783E-07	3.5919203086336454E-08	5.311216729517631E-07	-7.081377075207155E-08	5.460006947061715E-07	-5.552544604457183E-07	-4.628407530946899E-07	-4.6243115330917184E-07	-3.0031804591782365E-07	-8.700553535827745E-07	2.77561903212174E-07	9.649396403363346E-08	5.512244881360124E-07	-5.212736847617263E-07	-9.302604559295618E-07	2.3732944452996693E-07	-4.823186724651782E-07	2.9571386687400575E-07	2.7708452367535847E-07	-3.4992957199912125E-07	2.139718706185393E-07	4.947335852036295E-07	1.650164608111125E-08	-1.2259110639754976E-07	-3.4828929127794E-07	-4.548863988658293E-08	-7.865327990612344E-07	-2.1959326492793233E-07	-6.584346060902848E-07	6.00405945853267E-07	-4.902965183215419E-07	-6.539401878603794E-08	-4.620579437972083E-07	-3.481139136922256E-07	1.8969320562808677E-07	-7.403022974536125E-07	-2.1288719377520135E-07	5.312349507477137E-08	-3.7862370934782147E-07	3.16218421903935E-07	5.627455768657661E-07	1.1863988033656743E-07	7.099467096562526E-08	-3.575281201357154E-07	-2.977857725819982E-07	-3.6985562335892546E-07	-1.0260190166264371E-07	-6.688719113652395E-07	-4.698319317760909E-07	3.265490500024111E-07	1.2470675377764431E-08	-5.354430666526155E-07
-1.7613014654375153E-07	-9.399181461042088E-08	-6.906404027201833E-08	3.5539405790294576E-07	-1.7294219910137449E-07	8.677072465165792E-07	4.5873695251741987E-07	4.859104435532964E-07	-5.871519725038075E-07	-1.032450225736283E-06	-1.8798833965027197E-07	-9.66234440276346E-08	-3.133108121987658E-07	-3.379677872213799E-07	-4.974309609203757E-07	-9.347524738320298E-08	-1.1002897856526704E-08	-1.6782274321272028E-07	-6.752658372648299E-07	-6.635566978817748E-07	6.260630523456058E-07	2.2927394919112967E-07	-3.2908636013154974E-09	2.5250286218954715E-07	9.423726866388275E-07	-5.908031745530009E-07	3.849726642418335E-07	5.162928400179836E-07	-1.0907138892397474E-07	-2.5159612723029776E-07	7.364265021725777E-07	9.12393909673345E-07	-8.156999787201021E-07	3.6402422849998156E-07	6.747329124410294E-07	-4.068602538390447E-07	-5.683500793133952E-07	-4.3497420125626386E-07	-8.066841892733815E-07	3.2893840827684703E-07	1.2592526487270244E-06	9.330787273400391E-08	-9.601075605972558E-08	-2.7470761263898093E-08	3.1994137656927396E-07	5.575464138762317E-07	-1.7278806538343508E-07	-8.700830245753176E-07	-5.03394811446538E-07	-1.4854169219571207E-07	-6.963005922531327E-07	3.9453211510264353E-07	4.2961271812000504E-07	-4.761830019937996E-07	-2.101373353821445E-07	-6.10942483038571E-07	1.2390711456394309E-06	9.517232471486914E-09	-1.823980728887771E-07	-1.3285764180693298E-07	-1.9493408249721477E-07	-1.3411891266648622E-07	-3.722222163480338E-07	2.5091472133692E-07	2.0289269924919133E-07	-7.977806328848181E-07	8.90625935245468E-07	-7.211266559076909E-08	5.96211259459171E-07	1.1838902639308113E-07	6.337730603596566E-07	-2.539619372375575E-07	6.032393581569506E-07	-4.45241841005939E-08	-3.347404234909202E-07	5.239725328517413E-07	5.341199766890352E-07	-2.0684951081384548E-07	-1.5429583297656074E-07	1.9278269240544646E-07	-2.6072368848009267E-07	-8.183704076338413E-07	9.822843252746874E-07	-5.410560392371001E-07	8.774140230909617E-07	5.907647770139673E-07	-1.0605559633951371E-06	5.237562676804122E-08	-6.251831983706426E-07	3.5446433526221876E-07	-3.806439519576744E-07	-4.049517443559867E-07	-1.2440597811520033E-07	-3.925493214277193E-07	1.430553083159604E-07	8.269349526599204E-07	-5.230258027721604E-07	8.84307955462965E-07	7.267666087652366E-07	-5.17706864692883E-07	4.907444952360887E-08	2.4746624603559266E-07	4.400065792333174E-07	4.497851332256142E-07	3.5117211198375536E-07	1.8374714453908444E-07	-2.2747964642244557E-07	-3.457346811046006E-07	8.687208912185689E-07	7.235430190438935E-07	8.785376272845814E-07	4.7402472893142904E-07	1.2144474276653314E-07	3.2064371141762304E-08	-1.7644734535742096E-07	-1.1250786143698525E-06	8.280368572590392E-07
-3.727680221213649E-06	2.5084167377259526E-06	4.167901300873658E-07	-1.812755562486578E-06	-3.729852289152424E-06	1.0107070513815572E-06	4.932694803323663E-06	-5.5330095687574865E-06	-6.36246604729161E-06	1.5641718365045624E-06	-1.4535972039779172E-06	-1.8476945130172104E-06	1.1261923627998995E-06	-1.6435747702218788E-06	6.1079850458808385E-06	3.1583519445261013E-06	3.0848411987719503E-07	-8.347616746896136E-06	-1.7134950263629432E-06	8.528950520953339E-07	3.614806570811765E-06	-3.907392052727961E-06	2.6699213366162727E-06	5.2227258805803004E-06	2.6507883477811925E-06	3.6551669485504436E-06	-6.018637033417452E-06	-3.3773238221027646E-07	8.906050267606363E-08	-4.627264366603387E-06	5.594562765718265E-06	3.744551103735489E-06	5.892851433215769E-06	-7.572428435432694E-07	-1.264032523213259E-06	-1.2060089821492766E-06	-2.5830726090381685E-06	1.4555691271201122E-07	-1.08328404392087E-05	-3.367846745563724E-06	2.232732183883843E-07	2.371983444557701E-06	-6.690954924382739E-07	3.015010254637374E-06	-2.8030198557772593E-06	4.580931938303733E-06	-1.8771026630194104E-06	9.983292825830896E-06	-2.2662542971818134E-06	3.6465751738410986E-06	2.507241264196211E-06	-3.518868898815139E-06	3.026271703618639E-06	-3.94689498579886E-06	-3.6525383868449966E-06	5.34615361385696E-06	1.984997655168906E-06	5.02608823796507E-06	1.4294285435260656E-06	-2.0420149106285533E-06	-3.22885966387816E-06	-2.0638414476832428E-06	5.675666545857036E-06	-2.1026493919352494E-06	2.8211739877122564E-06	-4.170247455887386E-10	1.2169545948305437E-06	3.9248068513596244E-06	2.668291971679292E-07	7.442605059006203E-06	-3.1974792322734967E-06	9.335532534767164E-07	4.704974517719638E-06	2.7924292797995463E-06	-1.862747624793182E-06	-3.199015004046043E-06	6.084029342644521E-06	1.1291489094863678E-06	1.634427780383412E-06	-1.0820102183113939E-06	-6.048421436876868E-06	-6.332317813597125E-06	5.033832907777898E-06	2.866293167590108E-06	2.35196095557298E-06	2.0449820268887694E-06	1.6494356300729908E-06	-3.147410760212847E-06	3.3090454020380743E-06	-5.860954941749095E-06	1.0416727105206144E-06	5.570360275464684E-07	-2.50787722144183E-06	7.391640133836681E-06	2.1381755882051015E-06	3.906670352215874E-06	-8.804184744075607E-07	4.326098502383898E-06	3.411419942964589E-06	-3.5168527895708335E-07	-5.4945397773767275E-06	3.2015941929619453E-06	-9.119065644753524E-06	-5.6021081204238224E-08	5.368875204568302E-07	2.2355479376921095E-06	-2.862441812730986E-06	-6.166153388929587E-06	5.640414761108574E-06	-2.60431606404058E-06	-2.5470420131774557E-06	-2.3754973023160662E-06	9.854947880170513E-07	-7.668415807081795E-06	1.9551346136097653E-06	-5.179105729413204E-07	-3.1061717771707517E-06
3.551622625075197E-07	-7.753659818047025E-08	3.57160888380401E-07	6.25156455103889E-07	2.215997029122685E-07	-1.998664937230803E-07	-4.427670125788485E-07	-1.6186268178364405E-07	4.203026693439341E-08	-3.7001094791469167E-07	-2.2755546942571845E-07	-1.1608776914494151E-07	3.3583805216055393E-07	-2.1655174580443052E-07	5.183838299322784E-08	5.392613567946619E-07	-2.149366228789577E-07	-3.067631714979255E-07	2.320917753903545E-07	1.299937849438642E-07	-9.81701925032408E-08	5.028387846890477E-07	-5.870712647823494E-07	4.795940787611546E-08	-1.1528993744168097E-06	-4.719782740944485E-07	-3.195497809292382E-07	8.445930822289544E-07	-2.3218603256566424E-07	-2.8022338995442795E-07	-6.894435481333146E-07	-5.25086141292254E-07	-5.362605806307626E-07	-1.0183586586748955E-06	9.570968937625281E-10	7.068481315575616E-09	-4.517788865613283E-07	4.7043923640949115E-07	-8.718336712821885E-07	5.661147998954728E-07	-4.441373742891179E-07	-3.4099118160465366E-07	-7.087545791207289E-07	3.9012960792115565E-07	7.487504697047487E-07	-3.5926013802254026E-07	-8.003959307725848E-07	4.441733158640202E-07	5.049338580709856E-07	7.916267885528646E-07	-3.1176190162660786E-07	3.0890489830931986E-07	2.7401963299923027E-07	6.862716469840056E-07	3.847249285617304E-07	7.316469847947943E-07	-6.325128447216027E-07	-5.878661657446392E-07	3.45682557080649E-07	-4.4291115046415206E-07	6.713791995532232E-08	4.1473296034478185E-07	-4.3563135414807775E-07	2.0879162068657897E-07	3.4956132239477023E-07	8.851180907129021E-08	-7.21086102086458E-07	3.192443251335095E-07	-1.2244116817631163E-07	-2.0210050828817904E-07	-3.0572085115543025E-08	-2.751949988218582E-07	-8.181352024054624E-07	-1.5518862722043257E-07	-4.789304583389468E-08	-1.39638097017841E-07	7.589258088271837E-07	-1.0580547951238143E-06	-4.2631087846107933E-07	-2.64708538071036E-07	1.4891311975470658E-07	-8.271693856361702E-08	-6.520068546820408E-07	-3.9164511922790493E-07	-6.09075507389936E-08	1.6569492103385043E-07	-3.488756279258521E-07	2.8399962017752355E-07	6.553680601493298E-07	-6.407038453728715E-08	-2.0525155989876433E-07	-6.24740851181696E-08	6.548689060844996E-07	-1.0613117805747653E-07	-8.453439688090402E-07	-6.147288225924959E-07	3.4294621379790224E-07	-3.144225186355493E-07	-3.6751351936122985E-07	7.321012208025834E-07	-5.598120825421388E-07	3.307795854932641E-07	1.1747422037162312E-07	-3.8437322197060513E-07	-4.868410342181131E-07	1.3232309499976983E-07	2.6466504310476465E-07	-4.756866249136592E-07	-2.499025069241312E-07	-7.78442047447507E-07	-8.200182145762115E-07	2.3186016117627702E-08	8.309894787545064E-08	-2.3555563985727504E-07	-1.3712969170179893E-07	6.535745510347651E-07	3.569796304373652E-07
1.4931483546691713E-06	-2.056296922312005E-06	1.9696188490779976E-06	1.0993968449282196E-06	1.3332614296871988E-06	3.3940005976004815E-07	-7.228708373589879E-07	-2.1749740933037073E-06	-2.262511172847382E-06	-1.3520178512915708E-06	1.206831807818191E-06	7.054636444031089E-07	-2.9851765013055075E-07	-3.1824881043780254E-07	1.6497321300579644E-07	2.1208170047969025E-06	-1.7417566147826192E-06	-2.458116795184173E-06	7.734829026760994E-07	2.8127347046212404E-07	2.1385485446997753E-06	8.652153970550224E-07	7.638823471979239E-07	1.549557729878652E-06	-1.3863308520186642E-06	2.183090837981388E-06	-2.6181489375185933E-06	1.944479154776191E-06	-1.7247145528897482E-06	5.569508461357194E-07	-1.210487134479534E-06	-4.436406030176313E-07	-1.142863341380906E-07	-3.3691185997001995E-07	2.5056741711553196E-06	-8.590510192139533E-07	-1.245759971123507E-06	-1.620492383579031E-06	-2.408747453092397E-06	4.930676637273729E-07	-1.3250021145375162E-06	-1.4822080133571736E-06	-7.322999779864798E-07	2.510916698927614E-06	2.086780481651503E-06	1.3490334823286126E-06	-3.0135599920499317E-06	-2.5883315082902475E-07	-1.8781854419124532E-06	1.8146242671748733E-06	1.5733519658069039E-06	5.344779879406763E-07	-7.67384171149436E-08	6.1290485633164E-07	-1.6230263310485302E-06	1.8902241160891364E-06	1.9806062082353248E-07	2.602885243301292E-06	-2.6130106446450364E-07	-3.0672395733574194E-06	-2.8166559501616907E-06	6.485012483162659E-07	1.2622292970241934E-07	7.118650791154808E-07	-7.198673843705599E-07	-3.121177727056613E-06	-1.986262298600283E-06	2.7941194536734088E-06	-1.095728734680181E-06	-9.954785434574338E-07	-1.9033510407444407E-06	7.275839641926217E-07	-1.3303301883659365E-06	-1.589854787209162E-06	-2.2036468663033593E-06	1.4048505657294762E-06	1.6141888120515125E-06	-6.826247112309922E-07	-1.0971975846103052E-06	2.4657030628656417E-06	-3.8505059379298367E-07	-1.2396466762253805E-06	1.4863188472588701E-06	-7.222066646998921E-07	1.3592398173493227E-06	1.779159783844166E-06	-1.3683378685015572E-06	-1.4371504895787957E-06	2.3224862843474114E-06	-2.983121040220655E-06	1.4776654526237317E-06	-1.7861039083798874E-06	2.64560840770774E-06	-8.766456889153499E-07	-2.804823612354033E-06	-1.5265304419905048E-07	3.964186369464226E-07	-2.876143625058314E-07	1.8929643611036905E-06	-6.077509835001411E-07	-3.2700099637399873E-06	2.408322101580712E-06	2.0116188157966517E-07	-2.3649968424164416E-06	-5.676095776759545E-07	3.1815284880982147E-06	8.860711827775047E-07	-2.5872708949438313E-06	1.9175757205676655E-06	-8.775189949402298E-07	-2.652047267484154E-06	-3.2009523534931754E-06	1.6282543182512213E-06	-2.2898247020413366E-06	3.275915056170732E-07	3.19321364731422E-06	6.690894439254727E-07
-1.7314507220569735E-07	-9.703985135752016E-08	5.62453128860247E-07	-2.8292168844696793E-07	1.6664241383074803E-08	-1.594252017542578E-07	7.535746750457588E-07	-3.6221712170114616E-08	-6.740250495015506E-07	5.366081882147015E-07	-8.156634416440894E-07	-7.177735552849543E-07	6.449152440826395E-07	7.050922292229282E-07	8.491329766632508E-07	5.632340586115607E-07	-2.3534627463579427E-08	-2.598532150733265E-07	-2.512621784473172E-08	7.040286275162165E-07	-2.6267240964418646E-07	-1.8028749032850027E-07	-3.821581613355732E-08	2.1341957400142831E-07	-6.368636262032136E-07	-8.847368734915955E-08	-9.101551698098934E-07	1.0097537953606427E-07	-1.7029929551486778E-07	-7.595978670084216E-07	1.9144325106106204E-07	-3.490696950944654E-08	2.0006225194773753E-07	2.3380011297833324E-07	4.170697216942909E-07	-5.543608158939721E-07	-6.190984093395185E-07	1.0948101186552168E-07	-6.296575163136465E-07	-3.6091534458935253E-07	-3.1223062034293956E-07	3.032390117422307E-09	6.331696646953723E-07	8.348081464035635E-07	-1.944087760288076E-07	6.56303992016974E-07	-3.406816153082222E-07	6.605674685972233E-07	1.3185898763510546E-08	2.5128435917685846E-07	2.6244598947169775E-07	-6.8887962322203E-07	2.676307640331469E-07	1.909845024125192E-08	2.496220100675744E-07	6.967453393003948E-07	-7.571936845846719E-07	4.3318783677517423E-07	6.504041220005612E-07	-5.216195810252043E-07	-3.7936771785911377E-07	-5.602915477841304E-07	2.988453460955675E-07	-4.159615906371269E-07	6.267824059936299E-07	-1.7468166018815848E-07	-1.2261302086591226E-07	9.475798512639667E-07	-4.5881027038401815E-07	9.14248687946606E-07	-6.312926379513852E-07	3.6039025540666564E-08	3.690892006222477E-07	-2.6880497944394816E-07	-1.136661474361211E-07	-4.683352042515449E-07	3.3361875716071596E-07	-7.192302838727929E-08	5.352554702807258E-07	7.232377914364461E-07	-1.5578832918331432E-08	-5.73615142219046E-07	-3.3658523396142225E-07	8.521570814233641E-07	4.0795277988834483E-07	5.503076858136009E-07	-2.156001164089386E-07	4.2750176236539336E-07	7.798649401302865E-07	-1.25821289259259E-07	2.16264220544082E-07	7.316086196619329E-07	8.195486168831768E-08	1.0171135226195806E-06	-2.7571453608933383E-07	3.2024725738290895E-07	5.229890100112004E-07	4.738792869915533E-07	2.2027842218028337E-07	6.289427347363018E-07	-1.2526667212710651E-06	6.57390389257502E-07	-5.930233869645097E-07	-4.434329843543439E-07	4.606796917040989E-07	2.668340023019819E-07	-5.133702128144283E-07	-1.0819517063173582E-06	4.8573359415075234E-08	7.279244481605564E-07	-6.72154090540307E-07	-3.339168316213507E-07	9.215608191680408E-08	-9.503090627886854E-07	5.951093910001784E-07	6.74367456272839E-07	5.124178753382957E-07
-8.165164841881559E-07	5.300258542453264E-08	6.735272729134512E-07	1.2585483974860428E-06	6.192481674849258E-07	3.164834612898107E-07	1.184263294353075E-06	1.3747288834122437E-06	-7.400278336751675E-07	-2.535699205305043E-07	1.1417172308424251E-06	-1.3011360850058175E-06	-1.3194375593924441E-06	4.6269716057596515E-07	-1.8665402732876133E-06	6.443558657796389E-07	1.2514710108022394E-06	7.106916379736551E-07	1.0603989840771503E-06	-2.1728567987004168E-07	-1.2054552676712444E-06	2.70582134327776E-06	-7.733788011324051E-07	-3.0340420557437786E-06	-1.544143704151693E-06	-4.687695804974897E-07	6.132064345255068E-07	2.0078850188028712E-07	9.232077271264757E-07	6.796097466268436E-07	-7.935677540521323E-07	5.769914837243548E-07	-1.7169259279583286E-06	2.054354823443561E-06	1.4062268606622235E-06	-5.5469728407561495E-09	-6.138161032265216E-07	-9.543830745512824E-07	2.9181786411579447E-06	9.479470502920485E-09	-1.010221444230664E-06	-2.766493879793506E-07	7.612600514235253E-07	-9.36305221658774E-07	4.055443342171144E-07	-1.0534907637416167E-07	5.46692220462771E-07	-1.7353736456863774E-06	-5.755940653045761E-07	-1.8562077400161192E-07	-1.6761773508664407E-06	-6.422075249988064E-07	-1.9943942425744467E-07	7.546884019977814E-07	6.280909344394579E-07	-6.203127731166905E-07	4.5713800595302424E-07	1.1583378318230887E-06	9.894622348540379E-08	4.496238683039807E-07	1.6202443153948148E-07	1.0158944004038885E-06	-2.1488495624505738E-06	-5.614703756163465E-08	-1.8855719784380058E-07	-5.672996682223365E-07	-1.0314555908654314E-06	6.433644622646066E-07	1.646378833015766E-07	-6.302842336059107E-07	5.876263416457088E-07	2.1885403140155793E-06	5.9471321650084595E-08	-2.708008501602212E-07	2.609078314150752E-07	1.2223052341360967E-06	-1.3779769293521502E-06	1.3366306277326452E-06	1.2395323103496186E-07	2.016786833686188E-06	4.863972470711333E-07	1.7242157352041542E-06	-1.4573713438487098E-06	1.613308405038102E-07	9.563652159519238E-07	1.3718115348325055E-06	-2.4348992673072666E-07	-3.644200866064573E-07	7.050046400180578E-07	2.441637513754388E-06	-1.213205702198427E-07	-5.472772222109605E-07	6.325590313662871E-07	-1.0519053401547065E-06	-3.11007466099063E-07	1.15894085100691E-06	-2.0609580879111333E-07	-1.8794207352779887E-06	1.8499568965712155E-06	-1.8406485346132368E-07	1.6646922914822428E-06	7.572193709420282E-07	3.4967584508471316E-06	-4.130040427406431E-07	3.7837911878378013E-07	1.4788373043874923E-07	-1.1739993825120915E-06	5.721066509191707E-07	-1.72995914205734E-06	1.1932751191601847E-06	-8.486543996793495E-07	-3.396917253199719E-07	6.186218618470027E-07	1.690019563025165E-06	7.734579211616893E-07	5.59723283627173E-07	1.3901095861036327E-06
-2.7249989420070014E-07	1.805761849330678E-06	-1.7045553494277754E-06	1.7475266223706381E-06	1.323076543995621E-06	-1.7844366808928541E-06	1.1197082548704643E-06	1.7691096251105272E-06	-9.406351062113665E-07	1.1310211495876694E-06	-1.2555367179155213E-06	-1.5501298322157154E-06	-1.0163501378367508E-06	1.6760663957886166E-06	8.43041450432932E-07	-1.1077495925728064E-06	-6.278187399762852E-07	1.8110406804982825E-06	1.3059272886506422E-06	1.7814773155395064E-06	-1.008401603012739E-06	-4.3100433696044985E-07	-1.8001092223009912E-06	1.8144467195699222E-06	1.548091966513484E-06	1.613587595351731E-06	-1.8036478596270056E-06	-1.0845432238944534E-06	1.789491163828416E-06	-6.56659603475224E-07	-1.7968278034266453E-06	-1.7721072997828086E-06	-1.7916808939690738E-06	7.708869772678065E-07	5.9071697855527E-07	-1.2426417461503966E-06	1.6249917788507192E-06	-7.701561593309094E-07	-1.373765779659555E-06	1.6934735942809556E-06	-1.316178837831428E-06	1.0210257138549627E-06	-2.908330972517479E-07	1.7358273199938626E-06	-1.6812233182665934E-06	-1.7818402766535526E-06	-9.077073391436304E-07	1.17798568358122E-06	9.315716772943781E-07	1.6571082882964581E-06	1.6887395035393015E-06	-1.599083891181235E-06	1.319833417381465E-06	1.7933193694783444E-06	-9.522778679291766E-08	1.683154873999521E-06	-1.5955522941216932E-06	-1.7801895529876215E-06	-1.37467335184352E-06	-1.2896586134651814E-06	-4.898822219742975E-07	-2.579828742242369E-07	-1.787502619715622E-06	1.783312935321145E-06	-1.6556091947189389E-06	-1.2605570567410991E-06	-1.6300273247096187E-06	-1.5748200506958262E-06	-1.7239707777794678E-06	-6.689299634515863E-07	1.4586288433125615E-06	-1.5737965587863488E-06	1.914533142891698E-07	1.7518463052334046E-06	1.5438379027593854E-06	-7.328987098504652E-07	1.5785531349287657E-06	-8.374025872469749E-07	9.671875289905204E-07	8.1308842694102E-07	-8.094054671494187E-07	-1.1278033498886633E-06	-1.815756890895681E-06	1.0575024119566661E-06	1.341437823587878E-06	-2.0126691173773589E-07	1.2744773172429333E-06	9.375434905110668E-07	1.3096231112965062E-06	7.854493407340269E-07	-3.8528181020304764E-07	1.6188678125425106E-06	-9.797256508489604E-07	1.1698489567267267E-06	-1.3812028003525226E-06	-1.344236911513973E-06	1.7218517380132356E-06	-1.6958304910045453E-06	1.3589553194289642E-06	1.445262515286029E-06	8.214775087656211E-08	1.6036468038429253E-06	1.7795596568884726E-06	-1.5593338337240589E-06	-1.3222631393044732E-06	3.6326682680609476E-07	-6.60073302425126E-07	-1.3687304786775878E-06	-1.0844485315957508E-06	1.4862698179798483E-06	1.3497400122068313E-06	1.677072375422802E-06	1.7485491601135912E-06	1.8257251902788857E-06	1.530755022384581E-06	1.7877902206649045E-06	1.78646639767736E-06
1.59866273303471E-07	-1.5159933370718382E-06	-4.858066760090738E-06	9.517416890873819E-07	1.909147900148765E-06	5.380873242464599E-06	-2.276843257050106E-06	5.362045351509149E-06	3.227305092275259E-06	-1.6657317752870514E-06	2.2222319597106743E-06	1.1796013530826237E-06	-1.2317138273170617E-06	-4.063330104552952E-06	-4.126153423936541E-06	-2.290619855021696E-06	1.1605804736602687E-06	3.5592171297013665E-06	2.957289031008005E-06	-3.760589231059761E-06	-1.5421117728037366E-06	3.3170254523567256E-06	2.6067953750558834E-06	-3.87879324212747E-06	2.139338773204736E-07	-4.850088207605013E-06	1.2126414330630185E-06	-1.7057908534110185E-06	-2.3020822292257107E-06	3.083567109579075E-06	-1.72196182396152E-06	-2.048820825123366E-06	-5.594565087622257E-06	-2.5390633706325666E-06	-2.9585568221794967E-06	5.212873180530313E-06	-1.5666012024321828E-06	-1.0000926276308358E-06	3.919856847943389E-06	4.029779994036954E-06	-1.744788365395837E-06	-3.526139211119623E-06	-1.022016557620972E-07	-2.6836109196624E-06	7.910418755888278E-08	-3.93169993535838E-06	1.7438956871224768E-06	-6.838448327626013E-06	1.7444604821630674E-06	-3.6787218083551295E-06	-4.5845949835974736E-06	4.102901700380789E-06	1.3635754124174734E-06	5.259281959468403E-06	2.3791545510361476E-06	-6.193588195213119E-06	-2.1006622934641287E-06	-4.9912728528136405E-06	-2.807512849668985E-07	4.413692065828926E-06	1.5202240568748418E-06	-1.5336494402905166E-06	-5.173131933175962E-06	4.405127024185367E-06	-3.0542740512266407E-06	2.9442485456268534E-06	3.2210975491115723E-06	-4.60699143164686E-06	4.948240302935317E-06	-3.189378559802261E-06	4.815433643375662E-06	-9.282808179867945E-07	-8.503204147844731E-08	-1.3356793914318118E-06	3.4839293587971853E-06	-1.8953734296868969E-06	-3.2519174722784206E-06	-2.291991894181127E-07	-2.377427616348177E-06	-7.394768400393042E-07	-7.552732287733522E-07	2.2252355552333853E-06	-3.1213677038296753E-06	-3.553106634131554E-06	2.150122039187953E-07	-4.1198088598788684E-07	-5.455523824425281E-06	1.459180733269564E-06	-2.08954830752516E-06	2.9438774866433806E-06	-3.912205320818919E-06	2.612627329308271E-06	-4.781277048778753E-06	-2.3520969284454425E-07	3.6823008120615753E-06	-2.4616745099575405E-06	-4.4501506776882785E-06	-3.05629301020633E-06	-1.2841911598459654E-06	-2.575913253055651E-06	4.300047729811376E-06	-2.329764430392293E-06	4.209487156493657E-06	2.1595157750618207E-06	-2.0703776910500632E-06	-4.458255133287455E-06	1.2823716747615594E-06	3.6040119655209005E-06	-1.0315455269813526E-06	-1.5212266389086904E-06	6.170595797033663E-06	4.608564319293616E-06	-4.417592022786573E-06	2.031092102175925E-06	-2.7186154282838223E-06	-4.755082800154904E-06	5.939231236305143E-06
-5.667902527862896E-07	3.834462720229211E-07	-9.521865293110975E-07	-1.6013678407696176E-06	1.28519250041994E-06	-5.103091698967915E-07	-3.656072404832542E-07	8.017907122492265E-07	-3.1339214527588595E-08	2.0340928142124224E-06	1.693099729631117E-06	-2.0428337249781626E-06	-1.4675221803820975E-07	2.8235407727355443E-07	-3.6526884884583634E-06	-4.823317847432268E-08	1.6772018010450142E-06	1.2009900175462138E-06	5.267400320567344E-07	1.2425867116930704E-07	-3.822203859980788E-07	2.8043305365992023E-07	-1.7759707490433134E-06	-2.902143630143979E-06	2.3884942500250283E-06	-7.148231512102769E-07	6.727032220987862E-07	-1.556122479074303E-06	6.734658372916414E-07	2.0981982276339835E-06	-1.2701115278837937E-06	-1.690831367679813E-07	1.0156183950804249E-07	1.462326237764646E-06	1.0625333168690176E-06	6.664101745956994E-08	-1.6873879246198485E-06	-4.436646097599368E-07	2.2435023748094303E-06	1.773560731815707E-06	2.7305656992503344E-07	2.068802759367635E-06	-1.0271866116977306E-06	-1.3758417448502765E-06	-1.658963484013183E-06	-1.8416689154784877E-06	3.2251782865594605E-06	-6.960166935714136E-07	3.168678670226187E-06	-8.271783596869515E-07	-2.6489432125081717E-06	-7.631016029609986E-07	-1.1756759933632582E-06	-9.295522151580197E-07	2.673126480237262E-06	-3.251823968458317E-06	-8.296645867970664E-07	-1.1365182804233715E-06	-1.7952607648541516E-06	4.2846423568275945E-07	1.3662779880254253E-06	-1.1299616449583074E-06	-3.349311356777456E-07	1.1507677961686264E-06	-1.5974920065103939E-06	-8.156572282409352E-08	1.3599885458434394E-06	-1.0233512701983491E-06	1.360963720759675E-07	1.0043183762280187E-06	3.376613844350089E-06	3.1926575564839036E-07	-9.26728025149944E-07	-1.803357050807668E-06	3.825138652784333E-06	-7.084454253152131E-07	5.957929297537612E-07	5.525143467854908E-07	4.3468877525257473E-07	-2.2891211509611635E-06	8.891479283760589E-07	-7.595119927068765E-07	1.5724780984133573E-06	7.189926309265348E-07	1.4295874103395932E-06	-1.353631776325627E-06	1.318514572893048E-06	-3.926643634397396E-07	-3.1444254466483335E-06	9.03783030642279E-07	-1.5113681681906993E-07	-1.4719668351133098E-06	3.4407835015085084E-07	-1.3077185618765288E-06	4.980747583914263E-07	-6.547827320865665E-07	-1.964542573367782E-06	-3.5188047732052545E-07	-1.0136828616194806E-06	-1.7166324979880631E-06	1.6157373068725672E-06	-2.5090701029401803E-06	5.328163511959175E-07	1.7872296855636727E-06	1.0106331781303617E-06	-3.0586216812505875E-06	-3.8999667146874477E-07	3.1822322868229186E-06	-1.0518455215078694E-06	-2.4192585391295963E-07	2.276914654560586E-06	7.563891878456861E-07	-5.284742584571851E-07	1.644149985886662E-06	-1.1880279229918984E-06	-1.27863696825289E-06	-1.4272629864938332E-06
3.0265211142155137E-07	5.010752264278685E-07	-2.640348049699537E-07	-5.810061202761673E-07	3.0901347317030983E-07	4.905443037050531E-07	-2.9564109018112037E-07	6.84995704929843E-07	6.614500721737149E-07	4.289273350184328E-07	6.364277683072918E-07	6.175437535235599E-08	-2.2045748460109035E-07	-6.719568939931363E-07	-1.5801820381942954E-06	2.9926840929251606E-07	2.350277851864408E-07	4.7637265213897863E-07	-4.96554785002964E-07	-6.963083848027918E-07	-4.887822833997547E-07	2.960958320006083E-07	-7.245785918051493E-07	-1.3242616492067346E-06	-3.948522085625192E-07	-8.158142622613223E-07	5.093616664536831E-07	3.9834434880006614E-07	-4.039445042385925E-07	8.257993673789116E-07	-3.821911823076036E-07	3.306157981581688E-07	-4.839906739840942E-07	-2.7179597018546017E-07	-3.0958567649354015E-07	1.006082280560051E-06	-1.4186172384796048E-06	1.2729691693726375E-06	1.4082925022605912E-06	5.780743310233173E-07	-1.5265097175553683E-07	6.354155401772951E-07	7.866034374423842E-07	-5.631586097763336E-07	2.76515890175302E-08	1.5747212903584737E-07	7.387028866569277E-07	-1.5160890819919657E-06	8.533702414194523E-07	-8.097517541438321E-07	-1.7903867361105573E-06	6.69881440580887E-07	-7.362117609637379E-07	3.522500352989928E-07	9.20972515133945E-07	-5.746640183399873E-07	-3.5524608719890885E-07	1.7854493786988486E-08	2.853352482144893E-07	8.159269321532566E-07	4.579577789200666E-07	-1.7052359973066126E-07	-5.705188459388686E-07	-6.1479595327726E-08	-6.013914367709147E-07	9.321742541351889E-07	2.3646346168346606E-07	3.6192797708962205E-07	5.844075248783652E-07	5.388378950262234E-07	4.378449401114688E-07	5.1682192528285E-07	-3.8466728242211146E-07	-9.853711896316624E-07	7.114908748019178E-07	4.6523425636880955E-08	-3.566626783672162E-07	-4.3669877522824996E-07	-2.845212738425142E-08	2.3187740752760978E-08	1.4067829728336198E-06	5.880142125920731E-07	5.288845152491317E-07	-9.185151266799919E-08	-5.853203623026282E-07	-2.5240877785989565E-07	-2.8418329602029315E-07	-2.0920602016188967E-07	-5.4603876241111056E-08	-3.4894912956200856E-07	-1.1045766497993643E-06	-1.7464813833813843E-07	5.36067364285848E-07	-6.08004770105684E-07	-3.7545248521450056E-07	-4.279515232638946E-07	-8.503947671195228E-07	-1.8631712744281294E-07	-7.189867097475038E-07	-8.507814660397041E-07	4.7331594938245033E-07	-1.004083484764992E-06	-2.9781246655016594E-07	1.0266310789808914E-06	2.6268641169688533E-07	-1.5217709337936638E-06	3.6505211715353823E-07	1.0595868497634268E-06	4.6932555828423997E-07	1.7063666973134057E-08	1.3044128224514604E-07	4.843972746375511E-07	1.8158811997054717E-07	-3.0239350897097845E-08	-9.704669016563273E-07	-9.619249137502005E-07	2.40131615059606E-07
6.195623297709226E-07	7.326083281932207E-07	2.253852636882268E-06	2.2521828644013245E-06	-2.1911287529378783E-06	-2.2146716947200887E-06	4.410869239464732E-07	4.453377513369614E-07	-2.117531965123396E-06	2.428440953681053E-06	-2.5046890606171495E-06	-2.4522486603982295E-06	2.306279556134806E-06	2.175186016366156E-06	2.3172135988919037E-06	2.100345815382285E-06	-1.1075872642544586E-06	2.5861416534482955E-06	-1.6820491655691E-06	2.1765821089719952E-06	-2.6743369774616573E-06	2.154220500886578E-06	-2.581423208805202E-06	1.583836276030012E-07	-2.024839243593872E-06	-2.07735302431075E-06	-2.428384964405844E-06	2.240102451081892E-06	2.139459745339147E-06	-2.2468508279979485E-06	-2.5538505093455816E-06	-2.678816017216374E-06	-2.641237275469402E-06	-2.544706305661626E-06	2.1143968207102138E-06	-1.9206824956597313E-06	-2.4678017521638186E-06	2.628362736753505E-06	-2.3486203001936828E-06	2.0313033891257372E-06	-3.41524337824489E-07	2.5275193423752797E-06	-2.1986018775347183E-06	2.4564364565179687E-06	-2.388456026793532E-06	-2.266669436195304E-06	2.4941370019700728E-06	1.952891875694959E-06	2.484834227236578E-06	2.2896593351019707E-06	-2.6115251702765846E-06	-1.2743240582153387E-06	2.1730605581313107E-06	2.32230737959788E-06	3.6962905688858603E-07	2.671601493762628E-06	-2.6366566773154664E-06	-2.336762182294529E-06	-2.1921242154709452E-06	-2.1817455302370384E-06	1.252037487676741E-06	2.2844197865206738E-06	-2.6365779668005798E-06	1.8643428047924768E-06	1.6668831826166754E-06	2.635736620313509E-06	-2.45443565103689E-06	2.593139722623577E-06	-1.5206065912682744E-06	2.6494876091303855E-06	2.3650196030196794E-06	-2.6812603752578085E-06	-2.2292574221452013E-06	-2.001625080532219E-06	2.6304568409015037E-06	-2.628445633565488E-06	2.3316887606872884E-06	-2.5812326720438055E-06	2.0636564500329754E-06	-1.5797961200203741E-06	2.633784434584444E-06	-2.6051466105884598E-06	-2.155052625681352E-06	2.5509225707372805E-07	1.8676505261330255E-06	2.097635404032189E-06	2.268406313180727E-06	7.63868550395493E-07	2.3073752368270583E-07	2.0962604677794817E-06	-8.204465069831689E-07	1.8570237997028123E-06	2.3580015613982475E-06	2.3519269805492254E-06	-2.3191173726112286E-06	-8.952189176606971E-07	2.1958912070064887E-06	3.9186760186487306E-07	-2.2787562430304837E-06	2.231355357052707E-06	-1.5924218013173136E-06	2.262865043051025E-06	2.0010631325054384E-06	-2.2416244164883546E-06	2.165112832990194E-06	-2.6421507458717437E-06	-1.2469852561775E-06	-2.6034945854376965E-06	-2.2694663538340076E-06	1.554113681422885E-06	-1.8785962278214996E-06	2.6438159692013446E-06	2.4178944978536254E-06	-1.3054511941620777E-06	2.2605749138643797E-06	2.2145594752152086E-06	2.6360180293410594E-06
-3.0499981312964803E-07	2.6154045464742217E-07	-2.220327691178242E-06	4.12108184682531E-07	-7.450471659327135E-07	8.106317121309136E-07	-5.370889246961229E-07	5.344355911931512E-07	5.465878492361607E-07	-2.235241919535314E-06	2.829879572567922E-06	2.6035375599079847E-06	-1.6597312293748579E-06	-1.3293497038793059E-06	-1.269696655322161E-06	-1.5096079558677015E-06	-6.129686956845814E-07	-3.0293110556037345E-07	5.389870645210652E-07	-1.3186666150853075E-06	2.434584803928664E-06	-1.0583037976068536E-06	2.463660114372557E-07	-7.208315440298109E-07	2.0831012150518785E-06	1.8419464580523986E-06	1.4124926811030005E-06	8.883377697164856E-08	2.62754631766728E-07	1.4581370830024996E-06	4.0949166331316713E-07	6.468575954401729E-07	3.057503388783839E-07	4.1965365959896846E-07	-1.07209619759207E-06	1.5971098529006945E-06	9.889457521548966E-07	-6.004982197182141E-07	1.4755126598289297E-06	2.542728493241118E-07	1.1843006237919022E-06	9.977187988170649E-08	-7.198199861942062E-07	-1.3302917416974287E-06	8.374383669365741E-07	-1.4429381292588985E-07	-5.529940762449377E-07	-1.5570825207902138E-06	-1.6546733690077424E-06	-1.4714623947458747E-06	5.981827603458001E-07	4.6779467242850914E-07	-1.572553569259135E-06	-3.851008555770767E-07	-1.360635926365941E-06	-1.682752044602763E-06	2.381275345682969E-06	5.728358120051111E-07	5.987274019061439E-07	1.2645753795510842E-06	-4.4697321539602777E-07	-6.785448275260123E-07	5.43214174273672E-07	9.116111623841378E-08	-1.8603367731992133E-06	-9.136417708288185E-07	6.107986390941965E-07	-1.536107235465614E-06	1.1259250154305184E-06	-2.0211162379114857E-06	-4.150189319164447E-07	1.053036158945213E-06	-5.692781655761549E-07	1.798060369076792E-06	6.817145369341265E-08	1.1258563618460998E-06	-8.714273490087412E-07	5.399594567547244E-07	-1.507060941580312E-06	1.7870061454894086E-07	-1.0152732353254778E-06	1.6288422664832789E-06	1.3413106255962499E-06	-8.922969216633967E-07	-6.362661194144748E-07	-1.9764423152634168E-06	-6.764298931250985E-07	-1.5666760354952188E-06	-1.6896719815254664E-06	-6.552704033082302E-07	7.038238928647472E-07	-1.212017270323271E-06	-6.966251966936352E-07	-1.6586459026913817E-06	3.5771920328216496E-07	5.917163495348366E-07	-1.314315705677329E-06	1.2215936160089506E-07	7.801429661873238E-07	-1.946806157186386E-06	1.4955726701182018E-06	-1.8763046280487535E-06	-1.294473212266406E-07	1.445216060174901E-06	-2.2935486293594455E-06	7.528943512185262E-07	6.506546667956696E-07	2.019488596994741E-06	1.5804902037855376E-06	-1.8700188434322315E-06	2.0301425205070893E-06	-7.882567404408139E-07	-5.182360686974028E-07	1.1728777021051333E-06	-1.6484221095374575E-06	-1.4514749599965888E-06	-8.379520869218699E-07
-9.52798345450305E-06	4.274778241792183E-06	6.010558412578628E-06	-6.619575080762808E-07	-1.9013859664327674E-06	-3.71180571843482E-06	2.5554109662273096E-06	-3.6670154992921885E-06	-5.8018540168226676E-06	4.2418060959410786E-06	-3.7428034225640294E-06	-1.3618796165028276E-05	2.90014940369289E-06	1.5523367580563506E-06	8.150390196488893E-06	1.4053010980273425E-05	1.4253088795735678E-06	-4.034434700462554E-06	-1.128265792469107E-06	5.0845995027387894E-06	-1.283761119974358E-06	9.152196470935576E-06	-2.0635773588614133E-06	3.2258731710082866E-06	-9.81283574861798E-06	-7.838302743590546E-06	-1.1014008581951019E-05	8.006809150151536E-06	8.900408487840317E-06	-1.2369992067399835E-05	-2.5883102718791727E-06	7.289667315382435E-07	7.262614197672664E-07	-3.989382722738806E-06	3.5659892246884914E-06	-1.4353852519634803E-06	-9.507607981529788E-06	5.634472237319368E-06	-1.4378893474996917E-05	-3.5306045253759936E-06	-5.7537296780383265E-06	-1.2128946270709699E-06	-2.7853367019194694E-06	1.1081282195948217E-05	-6.556452719208812E-07	-3.1332034880671105E-07	-7.0836084647515194E-06	1.4842839906464351E-05	4.2930224808717016E-06	9.29167130075011E-06	-2.046114204261856E-06	-6.190574152690462E-06	1.0629514013925097E-05	4.808728621138261E-07	5.068096419449315E-06	1.3980152690999398E-05	-5.349923385810792E-06	-1.8355395988768319E-06	4.047961600188975E-06	-3.3550930243793077E-06	-1.6585751201583207E-06	5.502696192642824E-07	5.385337696224254E-07	-4.9461818807557945E-06	1.228524661039971E-05	3.383228221947724E-06	-4.872432680335681E-06	4.265108178118816E-06	-3.212475396501551E-06	1.2972130883852844E-05	-1.5205541641882243E-06	6.342279884925581E-06	-2.5027020325620224E-06	3.4852769291982468E-06	1.983708630024931E-06	-5.002514367951608E-06	1.2185329017783971E-05	-7.238724688123638E-06	2.2501831899360705E-06	-5.13218865982689E-06	-5.225916360092104E-06	-8.27015966269606E-06	-9.493143900433762E-06	2.9910649158790185E-06	8.9943669878992E-07	6.594867565073878E-06	3.4803501782473125E-06	5.052304295336467E-06	8.245449387325388E-06	6.043058997121526E-07	-1.5411177019205051E-06	6.17546910524949E-06	6.053424516651684E-06	7.715752811394204E-06	-4.64252945198809E-06	-6.52838631247745E-07	6.670487732028381E-06	-2.1023732635657313E-07	-1.3458220515558416E-06	8.119087596040039E-06	-9.029492682578731E-06	8.955909150431455E-06	-1.0950153701749502E-05	-7.437571028722059E-06	2.0138214684532686E-06	-2.513584074594669E-06	-4.4756101638512085E-06	-8.929212148809157E-06	-5.232631838357074E-06	9.752032033207765E-07	-1.092487521981606E-05	2.030514702699498E-06	4.419702781308011E-06	-6.111831411870743E-06	7.4059517349955106E-06	8.072808027306718E-06	-1.1300416507951923E-08
3.811574274818097E-07	-2.582634805409495E-07	1.2588100611231257E-06	-3.211681734118607E-08	3.961147432929314E-07	-7.290728579531685E-08	-1.4540038717260901E-06	-6.009276861026522E-07	-7.695234860789331E-07	5.646746277788611E-08	2.0677697756404617E-07	1.7791399042329857E-06	4.7646061119540617E-07	1.024856502357269E-06	6.261820817836155E-08	-9.881447848443099E-07	1.3136873474585444E-07	1.2431610035338445E-06	-1.7307520607514634E-07	3.174512979097748E-07	1.0935966016003724E-06	-9.91100172233909E-07	4.624422089646265E-07	6.188294702711397E-08	2.026650302704503E-07	-4.2982715246881624E-07	-3.3461728778475206E-07	-8.156545938696802E-07	1.0332075737738992E-06	1.3192099899514198E-07	-5.78194706424415E-07	-7.251027032143332E-07	-5.576894844566388E-07	-1.934148861639259E-07	-8.243489932201081E-08	2.3584135426880814E-07	-1.950906804395799E-07	1.2444084633806293E-06	1.8648970208017196E-07	-7.961514788047835E-09	9.75607406636362E-07	1.0250957936402549E-06	8.923359300740476E-08	1.2113172222428246E-06	-7.554577016745104E-07	-5.96480002746008E-07	8.289959995965831E-07	-6.47907390295943E-07	9.123538308334026E-07	-3.1543591854783205E-07	8.817206722529332E-07	6.082684822992498E-07	-1.8490275138536957E-06	9.088436792743091E-08	-1.981877279233978E-06	2.0958476212089266E-07	-1.0087722594775521E-06	7.475085375235359E-07	7.405725105698154E-08	-8.398390529058507E-07	1.1791243829510651E-06	5.172551050693447E-07	-2.5626886221674626E-07	-3.1904624708194285E-07	-1.0568291790867053E-06	9.377056568451458E-07	1.951634680870714E-08	-3.23567062487178E-07	-8.481135830962001E-07	-4.2722188360147776E-07	-1.494463758833908E-06	-5.128029687471657E-07	-7.634298041062784E-07	-1.6572489772116508E-07	-1.6656253699451412E-06	4.6694717171433273E-07	-5.493167318087377E-07	1.903993482324293E-09	4.776135141731212E-07	1.091492942452915E-06	1.8741016765725747E-06	1.4839323010752803E-06	9.37781213506673E-08	7.806047182108046E-07	-5.929130417475889E-07	6.912614566983998E-07	1.0325935611205767E-06	-1.830459968495828E-06	-2.881255707742592E-07	7.94610779661436E-07	7.382748866142266E-08	-5.391123069284945E-07	1.275383012495766E-06	-1.9946659974999425E-06	-8.417848516271224E-07	-9.669373243008708E-07	2.3138912201983468E-07	8.221479246853982E-07	1.0151874249552092E-06	-2.571153637660347E-07	-1.3579651969720945E-07	-3.0903674340913646E-07	6.286196650313562E-07	-1.952601808039365E-07	6.476563022907671E-07	-1.4306302113182563E-07	9.850820574324469E-07	9.320132546758673E-07	-5.1636482416208725E-08	6.352895356265736E-07	-5.81870812376278E-07	-7.860399121063209E-07	5.347637752659533E-08	-1.1025446981731219E-06	-1.360367430720277E-06	-5.062664237878354E-07	-6.474901859726462E-08
-9.748915117387891E-07	1.6862308897129135E-06	1.737520187639426E-06	-1.5215332064792734E-07	-6.521589131753748E-07	-2.284309538110446E-06	1.7329300210002824E-06	-1.7245974019611725E-06	-1.9151507441276093E-06	1.0077311493609372E-06	-2.197046553183655E-06	-2.805669724652031E-06	1.7027422424125956E-06	2.1690209140832275E-06	1.9208343029549793E-06	9.315950544371944E-07	-1.3848590115657326E-06	-8.822176215114261E-07	-1.9887924924155834E-06	2.295099335604321E-06	1.782884179084069E-06	-2.696999049838012E-06	-1.946495894036089E-06	3.021161274126588E-06	1.7773895396841188E-06	2.84810040917688E-06	-2.6282747679885954E-06	1.871088306512501E-06	1.3360561004925295E-06	-1.2351550140483805E-06	-2.1260516260246465E-07	6.256372035842725E-07	8.032354304616228E-07	1.0375530154552982E-06	2.5492240594706405E-06	-3.2756757005823667E-06	-8.953826695918389E-07	9.487009996517519E-07	-4.167094531822022E-06	-1.6127841660353988E-07	9.609763024149466E-07	2.8073558836546724E-06	5.81663664013197E-07	3.697030383805675E-06	-1.468430636847353E-06	1.7675994109332488E-06	-2.519729072834363E-06	2.0717786399819546E-06	-1.394307375659153E-07	3.216522454778306E-06	1.4463954092017525E-06	-1.2330420517391252E-06	-3.3799895448388726E-07	-1.1219896109689672E-06	-1.2235937266924392E-06	3.6677824003936534E-06	5.117069388773623E-07	1.4002164089941219E-06	-1.9637079165399114E-07	-3.0363901461877007E-06	-2.3694919434564576E-06	1.088812277964931E-06	8.180487774562414E-07	-1.035730222811928E-06	1.3681602567861094E-06	-1.895392927171766E-06	-2.648335185817572E-06	1.7684008387982406E-06	-2.3398424396799586E-06	3.007321711755695E-06	-2.0283067009320034E-06	1.6032290504789902E-07	4.078122883498073E-07	5.644471447037783E-07	-1.2549576389108693E-06	1.6282842686740077E-06	3.9285278131711554E-06	-2.214836947724429E-06	1.0165149208536638E-06	1.7993615960236247E-06	4.3540513009241116E-07	-3.4857281128221897E-06	2.0918803299999973E-06	2.182877229998343E-06	1.7293777896709968E-06	1.144033402223276E-06	1.8945870714634564E-06	-1.24212677602874E-06	2.633903081903126E-06	-3.4167023035934434E-06	1.01039662514593E-06	-3.9786518859083403E-07	2.491330301192098E-06	1.331664034186761E-06	-3.141519722357436E-06	-9.11905970894388E-08	2.294791325795715E-06	1.3083418103578774E-06	1.7976886140044585E-06	1.6336471126783494E-06	-3.6066964418631836E-06	2.909994671650928E-06	-1.8448898158644754E-06	-1.8598457087048855E-06	1.991633813547996E-06	2.1199422943427537E-06	-9.939179223798286E-07	-3.121629680604436E-06	1.6123132759327957E-06	3.1852813224010697E-06	-2.0781978360714486E-06	-1.4267818382543964E-06	2.6724655412572385E-06	-2.5748795145535455E-06	1.7418994307764277E-06	3.165201734461747E-06	-1.0793077435076912E-06
-2.4619834276878604E-07	2.8412975787397475E-07	2.4529402139866407E-07	3.2981118277443207E-07	-3.285681295673093E-07	3.2290973521022946E-07	1.0595177081773272E-07	1.2372253787481482E-07	-2.3187230543080916E-07	-2.597749400113819E-07	3.7498314720577175E-07	2.5254861549975424E-08	2.607943542867285E-07	-2.2842216325433314E-07	-2.28849502548882E-07	1.653970799504613E-07	3.448032220038261E-07	-3.348005107209207E-07	1.4802196466457663E-07	2.7102291622173945E-07	3.6471733629160896E-07	1.6483175540912873E-07	-2.6942526627626565E-07	-3.560187204426662E-07	2.252941211479208E-07	-5.4460697226083384E-08	-2.9628869698591797E-07	1.945367889858784E-07	1.308787737121125E-07	-1.37513349421781E-07	-3.3036627106990043E-07	-2.6884776302549126E-07	-2.4370837534632396E-07	-2.1418219732337326E-07	3.0804957457684114E-07	-2.7626895867247015E-07	-1.9305308834439823E-07	-1.8898458389986522E-07	1.3022868689575994E-07	3.941623292004857E-08	2.170251697836E-07	2.8428268887546923E-07	-8.160769649306146E-08	-9.978375260205511E-08	-3.263412631545201E-07	2.2265785028172948E-07	-2.1439182819165885E-07	-2.600367270742857E-07	1.1942413729004935E-07	8.412323348249232E-08	-2.020385271661673E-07	2.516668792868096E-07	-3.7065362887254005E-07	2.9584178738531815E-07	-3.503094001786789E-07	2.2135011714875554E-07	2.0353033900005859E-07	3.6879416804048255E-07	2.386720434492414E-07	-3.331659225486643E-07	-2.9141348040454183E-07	2.7745710047932336E-07	-2.2576373311323445E-07	3.013520036972782E-07	-2.905561551441538E-07	-3.1321964273165125E-07	-3.1667019897255515E-07	-9.472809932445499E-08	2.2923280249286255E-07	-3.817175034496792E-07	-3.471372120315013E-07	3.2792723427195594E-07	2.9797470018657485E-07	-2.2303413762966352E-07	-2.624626734105181E-07	-9.615253114617267E-09	1.1432938647979966E-07	1.2446914682576914E-07	-3.36924688640705E-07	2.997369514553411E-07	-1.0082758392109584E-07	3.821854836515659E-07	2.746284356401971E-07	-2.1474038487253895E-07	2.2273066303766753E-07	1.443630476580802E-07	-3.105278932757758E-07	-2.616497753213982E-07	1.649274218517242E-07	-2.4965103790475773E-07	3.601974829835706E-07	-2.7599126320191095E-07	3.458969547883408E-07	1.7574709651128674E-07	-3.7185697002568465E-07	3.270784698240112E-07	-3.272314629618071E-07	-2.3042119902559488E-07	3.503742666863403E-07	-2.8003496125852186E-07	2.447533264608042E-07	2.1908533923600095E-07	3.0412173328777154E-07	2.46151366097849E-07	-3.445247100393351E-07	1.5764601602208806E-07	2.78387754614996E-07	-2.713552691322707E-07	-1.5058483103908482E-07	2.836961969542104E-07	1.462322358888633E-07	-3.7300541034437104E-07	2.1428032372077487E-07	2.7399900103393814E-07	-3.0023002112870084E-07	2.8475004449402287E-07	2.3004751373606377E-08
-1.5100391807581076E-07	1.063014818471651E-06	5.259271866127859E-07	-7.631987039114915E-07	-8.83113792879635E-07	-1.1885338702354523E-07	1.8500155052463118E-06	-2.061512375926768E-06	-2.7458545882508634E-07	-7.596160838987857E-07	-1.465261395723292E-06	-3.085632245896213E-06	-5.032885313304422E-07	-3.2824504644294214E-07	1.7781014677512893E-06	2.013485591248578E-06	2.994223328419884E-07	-3.7025182130158256E-06	-7.69079047893325E-07	7.142676027968165E-07	-2.6803989625968326E-08	-2.6255238934728617E-07	4.839602108449962E-07	5.060478581370689E-07	2.700936123078402E-07	1.0226414477072825E-06	-1.5393043165866487E-06	2.441942876991745E-06	2.756283704768608E-07	-1.284754485099276E-06	1.3631046157545416E-06	2.222808890710731E-06	1.1628032179548124E-06	-1.591542921364174E-07	2.4588080296410606E-07	-5.984101899830603E-07	-8.785907478124178E-07	6.283822528162153E-07	-3.5957956836895984E-06	-1.729203891275014E-06	6.699657674332034E-07	-8.389490949025107E-07	1.0553802872035004E-06	-3.108821064229342E-07	3.735196614784302E-07	2.307969146123408E-06	-3.042235774298142E-06	2.2234064287392232E-06	-9.657792134974523E-07	1.840365085792901E-06	-1.8890222767177477E-07	4.2835543309988976E-07	1.3419463094624842E-06	-1.0269056914566904E-06	1.9854243699527681E-07	1.633227203158393E-06	1.7036979541871082E-06	1.7961119116526443E-06	1.1231943097817346E-06	-3.078171123494558E-08	-1.724597026591442E-06	-6.466910619955618E-07	8.958463432118754E-07	-9.428827582064504E-07	2.65288663403684E-06	-8.482641333256763E-07	-1.2842384691932563E-06	1.61307748980147E-06	4.292546465674586E-07	2.2248309369096556E-06	-8.743489991960463E-07	1.8357563784562763E-06	2.1162645423654857E-06	2.6148350689710586E-06	-9.195839338298577E-07	-1.0107568195520904E-06	2.3523083531402293E-06	-3.457067264701708E-07	6.488186126883413E-08	4.788279253945799E-07	-7.738236718302622E-07	-2.1282261132965195E-06	8.148609415451229E-07	4.4896605866853894E-07	-2.9747172280699177E-07	7.808910201250175E-07	7.483097716924509E-07	4.915244719171222E-08	2.6406205924911803E-06	-4.2281270744352834E-06	-1.255010472270219E-06	4.04883499472272E-07	-6.357140771830085E-07	3.065383775922107E-06	-4.354174355750541E-07	9.283160318687554E-07	4.1504376394785976E-07	-1.6989006307031423E-07	1.768690240756534E-07	1.0709249672039637E-06	-2.109276727771295E-06	1.8357228256419766E-06	-3.000353168890662E-06	7.038172025675063E-07	1.153455241040297E-06	1.4281030727621273E-06	-8.991927997958644E-07	-3.0317128217077553E-06	2.659291656529262E-06	-3.172452218158773E-07	-1.4616187179057469E-06	-7.501750750825424E-07	-1.8451497466448998E-07	-2.030770296253726E-06	2.489160748743911E-06	8.686669734766355E-07	-1.5437780363591364E-06
-4.65599016299351E-07	7.489143560912317E-07	-4.928505393704388E-07	1.9691295955570758E-07	-5.592077394560573E-08	4.80898450306606E-07	2.390134468714866E-07	5.1394884282424946E-09	-2.34258412306468E-08	3.725268344004734E-07	3.4597860917148284E-07	2.3356593579844888E-07	2.2974177618605299E-07	-1.0194289333796376E-06	-3.443558297547805E-08	5.83708358990454E-07	7.398520315493457E-07	-8.821339113059535E-07	7.833482339882177E-09	-7.082775523256303E-07	-3.5967142217355315E-07	-2.8329388490351406E-07	-6.519768832909631E-08	1.7772943169907915E-07	-4.978102385770671E-07	-7.954157623479372E-07	-2.980910964998784E-07	-3.6297656111138637E-07	-4.90414829811963E-07	-7.490048820202942E-07	2.5123125103411684E-07	3.569359552552151E-07	2.098331090670007E-07	-6.438699644476046E-07	-1.1073938543600728E-06	5.741463415201514E-07	-5.619222855798795E-07	6.06296344088943E-07	-5.176251201568347E-07	2.6840587496341514E-07	-5.861229484064528E-07	8.264341593229052E-08	5.4511687879258324E-08	2.5122500500426835E-07	-2.2859639036795847E-08	1.148610572519557E-07	-2.2893974799049192E-07	1.0442823752091723E-06	6.329967622939783E-07	3.9697410252852923E-07	-5.120924685330477E-07	-2.5977987348244014E-07	5.56909017137621E-07	4.0924089563678025E-07	3.151447763174031E-07	7.156141021754166E-07	-6.846146843087944E-07	-4.658590582962402E-07	4.730024117409048E-07	2.5740767324718963E-07	-1.240170631723771E-07	1.764845953118799E-08	4.41387578467616E-07	6.780594754168916E-08	-1.3596755825548028E-07	7.235947613372417E-07	3.452900279926144E-07	-2.789684472636573E-07	6.283525522402757E-07	3.408838626581365E-07	6.11381020815172E-08	-3.996217359689751E-07	2.9719034431117826E-07	-2.1237288140538736E-07	6.132630193172474E-07	-6.540845251678294E-07	8.38772748417561E-07	-5.230055327218043E-07	-2.781480834477578E-07	-7.749429201094423E-07	-5.424941535797888E-07	3.7490563235610265E-08	-6.695613479621469E-09	-3.994918748991225E-07	-4.744602422622872E-07	3.074832602254109E-08	-5.404053417085807E-07	5.832683394495879E-08	8.120368458648483E-07	-1.8031971535374803E-07	-6.265496406461808E-07	4.89650999613403E-07	-4.107847751568447E-07	3.467040120175818E-07	9.959778676296459E-08	-2.4771900685383154E-07	-6.310211080992325E-07	-1.3323616817755152E-08	-9.636996920197008E-08	-2.8062574878922965E-07	2.2854667300026175E-08	1.174168751647894E-07	-8.010640202486392E-07	1.5863323572999287E-07	-5.472103509348884E-07	-5.669579696434432E-07	-5.594343916213901E-08	-3.660401161489731E-08	2.5434381290716E-07	-1.0369290130274789E-06	-2.869087307872639E-07	6.353580297989366E-07	2.472857775811147E-07	-2.5296751113756465E-07	-7.84088844680466E-07	-5.654626799114899E-07	1.7577901813678173E-07
1.1960297280870692E-06	-4.5986807447075127E-07	-4.516159300909413E-07	-1.6035001535777093E-06	1.570739805778668E-06	3.6172454495342617E-07	-2.689593066250736E-06	-1.9014257985355422E-06	9.277048944803797E-07	3.600999421505299E-07	3.048564672814974E-06	7.636550896311724E-07	-1.6281333955989781E-06	-2.960718444272273E-07	-2.375940509548072E-06	-1.8152508058778787E-06	-6.740385843994255E-07	1.8960679186596206E-06	1.4021554075949672E-06	-1.3983971667059079E-07	2.6789834064676992E-06	-1.4364393371111225E-06	1.95657913790638E-07	-4.7267525571287755E-07	3.6419369111817563E-06	3.504594940165071E-06	1.111561249758136E-06	-2.5806424368827694E-06	1.137237859567768E-06	3.54649743242288E-06	-2.3131263012334757E-06	-2.532125273180731E-06	-1.0027515085696794E-06	8.577829525494278E-07	4.7435599004241706E-07	-1.4832124840471348E-07	1.8490997929914592E-06	-1.2792614262018274E-06	2.65114926213388E-06	2.0220909800895576E-06	1.66658826611934E-06	2.006679631571801E-06	-1.470878717080007E-06	-3.6492180457525744E-08	-2.3369036579890423E-06	-1.490477358867429E-06	2.901304751736918E-06	-3.4625899028288943E-06	9.614865171009396E-07	-1.2434222587184606E-06	6.645765113070936E-07	2.285608843492406E-06	-4.57071423861212E-06	-1.6616028953168739E-06	-1.6761485392558085E-06	-1.3755329729596074E-06	1.0871399987025522E-06	9.635893343883627E-07	-2.681958460134011E-06	2.727771250147399E-07	1.3734485541028387E-06	4.243368451185432E-07	-2.1640615464808464E-07	-2.3001421711891276E-07	-3.2434728395267518E-06	-7.853684561983296E-07	1.0849747180929023E-06	-2.2396361886342126E-06	-5.562386135989656E-07	-1.2174570569889904E-06	1.6924250544054753E-07	-9.539253192276445E-08	-7.383169253074029E-07	-1.6691241534368686E-06	3.130776695511319E-08	9.793572317493983E-07	-2.400757841366206E-06	9.484548084589762E-07	-1.2485562357904121E-06	5.246057385572452E-08	9.211623601785814E-07	5.501478417137437E-07	3.908523119876246E-06	-7.103098443397445E-07	3.545270216561585E-07	-2.3315990568078088E-06	8.074309080017754E-07	-1.8227042867021562E-06	-3.670850991332217E-06	-5.571568719025038E-07	2.1473563873504407E-06	-3.591983077545037E-06	1.9991966779464365E-06	-2.8256724560603684E-06	-6.999159806713687E-08	-1.4329337989258183E-06	-1.7013235374695668E-06	-1.2634891918030742E-06	-5.818153927306735E-07	-3.6834946662448297E-06	1.3269055302620408E-06	-3.1844590144121933E-06	1.5347565030304724E-06	6.439324473985104E-07	-2.9979042826645325E-07	6.587545175167781E-08	3.216896131431134E-06	3.2082497423086133E-06	-3.9850079277337183E-07	1.32594536971145E-06	3.5443396689839135E-06	-1.3177243598252012E-06	5.113166915952552E-07	1.557911995645972E-06	-2.1905247179018705E-06	-1.5223368107078893E-06	-3.0040206107145553E-06
-5.545372437841447E-07	-9.386321553373104E-07	5.55133190928572E-07	1.0011938287024325E-06	-9.105923040441567E-07	2.3738119957770753E-07	-9.310205837210673E-08	-6.050551440527186E-07	-1.743241476982795E-07	-8.014532305091686E-07	-4.038459113388237E-07	4.1441806871763004E-07	-1.028549473062753E-07	-2.9525609235906036E-07	1.6281269731923483E-06	-2.6178014997152155E-07	-3.8925013182270147E-07	2.2009244146308352E-07	1.2514366160515873E-08	-2.5337088394003454E-07	-8.706505679019308E-09	3.3238995193060403E-07	1.2966513210830276E-06	9.385350416480723E-07	-6.294700275091722E-07	2.7484034600110774E-07	5.585404911194765E-07	-1.8493367980392274E-07	1.6350373007112523E-08	-2.0722421886287185E-07	1.0222438185358627E-06	4.05393483469895E-07	2.0329753674147706E-07	-2.786181133372789E-07	2.252971802695418E-07	-1.0806320703022527E-07	6.698968341072428E-07	-4.3323629635213795E-07	-1.0937220264719044E-06	-8.765096804897663E-07	1.8112189812911718E-07	-4.3478058559885847E-07	-6.5082227507436E-07	3.4686863002797463E-07	7.989717357042003E-07	4.019177093993354E-07	-5.485800374206463E-07	5.996031720164035E-07	-7.012898584731215E-07	1.2317254286919146E-07	5.55165255598308E-07	8.237905719264885E-08	5.253698128238944E-07	5.0116479947934226E-08	-5.343312369974041E-07	-1.3294044482174085E-07	1.0034646443468882E-06	-7.886694068021728E-08	3.6000109266321905E-07	-2.69243385465068E-07	-3.440719320547311E-07	5.745907750943519E-07	5.163266597787545E-07	-2.3150781925404246E-07	1.0614582230065345E-06	-1.6600105812462343E-07	-4.205510361149852E-07	-2.9984876870076386E-07	2.395539371898748E-07	-1.1737894776498452E-07	-7.293797845720369E-07	-1.0568769578869148E-07	1.9171939236135224E-07	7.287087142505214E-07	-9.827053069671159E-07	1.8922100619740092E-07	-2.9993339733347274E-07	4.737131075132158E-07	-8.219039387849446E-07	-4.2080094446686227E-07	-9.64576072452977E-07	-8.890110309907177E-08	-2.7059116480979365E-07	-2.5859723858335343E-07	1.3254301614389047E-07	7.217006352807907E-07	6.334855829875006E-08	4.061152228140321E-07	-2.7698120039770055E-07	3.424290953135238E-07	5.126075905147875E-07	5.087807589323836E-07	-3.7726900442243214E-07	6.25957441933781E-07	9.59605069706838E-07	3.905394867592599E-07	5.361884608870381E-07	6.902557477533423E-07	4.3270679784505607E-07	4.789627546039726E-07	-2.476456922490802E-07	5.624106752951433E-07	-4.7155990822733126E-08	-7.214640713434919E-07	-6.046498806817531E-07	8.256786376842048E-07	-3.4776350884625077E-07	-5.266980534910107E-07	-1.8077899046866851E-07	-6.762431056462938E-07	-8.020430926485021E-07	1.6001369515808364E-08	-2.759360441125563E-07	1.2724965087293503E-08	2.0756925844412813E-07	-2.190627021334858E-07	-6.443826101960749E-09
-9.02433578515554E-07	-1.4616497706004661E-06	7.42734338013422E-07	1.397642062073453E-07	-1.575818410881959E-07	-6.259569787406672E-07	2.0119234559934384E-07	-9.101538584219371E-07	-1.2536441758222545E-06	1.6570999046243466E-07	7.742300590327872E-07	-1.2776738528944836E-06	1.3973950192580674E-07	1.486201822545308E-06	8.268362038930133E-07	9.726956285449669E-07	1.1610461091546977E-06	-3.672334340688339E-07	4.87384021821092E-08	-8.188125543214254E-08	8.448737110711804E-07	-2.603838456571048E-07	3.3103817961194064E-07	-4.874585981546287E-07	1.2451074520783949E-06	-3.918353082455093E-07	-3.1040206488576744E-07	-4.192458915235738E-07	1.7087824999754336E-06	-7.116536391368434E-07	4.1648286095778275E-07	6.342215749659959E-07	-1.4278641640234615E-07	1.95442132675573E-06	2.0158015817755645E-06	-7.232917740896216E-07	5.681634414343572E-07	-9.74126808595802E-07	-1.6395180536849058E-07	-3.282077980417706E-07	1.6824222103429298E-06	-1.5003937364779546E-06	1.486091909668892E-07	7.538464663452592E-07	-7.891018254693447E-07	-4.096478287794642E-07	-7.051001295990484E-07	-2.5203576864074975E-07	-5.720552093541985E-07	4.853488622839793E-07	1.3621249140531877E-06	2.985379707689638E-07	-2.5467558421160834E-07	9.18121718335807E-08	-1.7223024253764136E-06	-1.2400597051648689E-06	3.463577419007699E-07	4.368840983642453E-07	-1.7520288206850538E-06	-6.999840492816809E-07	-9.039999975616665E-07	-2.997242823480203E-07	-2.60290112875813E-07	-4.942239540819347E-07	7.3913211939223E-07	-1.5451033537842896E-06	4.820301318128735E-07	-1.5121693207035917E-06	-1.1147999806549234E-06	1.8043246036528466E-07	4.13555782079548E-08	-8.725412065659242E-08	-3.362927577710051E-08	1.689572274331139E-06	-4.558828693878667E-07	1.5069438540416638E-07	-2.241688208152693E-07	1.1323335786087643E-06	1.0259905796215096E-06	1.826282173698719E-07	-8.966313009822474E-08	2.0244196081336838E-07	-3.94223403949467E-07	-3.021552510333994E-07	1.1302034001174384E-06	3.140462531874781E-07	6.42010736852754E-07	-1.0779787381927733E-06	-1.3368131260014315E-06	1.8952887120427964E-07	4.213904567436604E-07	-5.688572898149043E-07	-2.7497170674512755E-07	-1.177953218575191E-06	9.637003065981645E-07	1.2571687474685801E-06	-5.571038296614009E-07	8.313275057594948E-08	8.785262653845816E-07	-2.1301919586844539E-07	-2.351488852416015E-07	2.297002929475119E-07	1.380311452667023E-06	-1.5698058247328306E-07	1.474140241026074E-06	6.918400697778948E-07	-9.152653677866621E-07	5.648266975267714E-07	-1.7181502053626424E-07	8.118441847038075E-07	9.473914711167296E-07	-6.687895209423929E-07	-9.058047397069915E-07	9.805799862882932E-07	1.3480966224596476E-06	3.787701927013479E-07	-5.547071621142252E-07
1.6326847840987934E-07	8.149997712205645E-08	-5.577857966605824E-08	2.0063607859064527E-07	2.9584935444910818E-08	-1.7255735877882856E-07	-1.9474508009053285E-07	-9.589993141512158E-08	2.3003050876089588E-07	5.3236519810628806E-08	2.4881482393784625E-07	1.7894171645787636E-07	-5.016370645036516E-08	-3.990753909747614E-10	8.090443021805937E-08	3.2969246929057195E-07	-2.0644945166457736E-07	-1.0009228850838606E-07	2.964589334242369E-09	1.3355282655980782E-07	-1.7192571022082017E-07	4.4564147082136856E-08	-1.978002385865068E-07	-4.170268927820298E-08	-2.1384571841952568E-07	1.8562880252627607E-07	1.0356340280209675E-08	8.250466627068579E-08	-5.334843024405297E-08	-3.541968561241196E-07	-2.2648452124038537E-07	-1.9670872366135776E-07	-1.9603982477627478E-07	-1.639091300408485E-09	-1.2673659692433253E-07	-6.273129153445339E-08	3.1380710989029587E-07	2.9147785839648683E-07	5.5699994232002795E-08	6.815353708952124E-08	-7.116163736018436E-08	-1.853438055077479E-07	2.2536737556417955E-07	1.0394143114186973E-07	2.0906574802145348E-07	-8.809769336748417E-09	-1.7779268127282303E-07	3.198500009996436E-08	6.812321162612239E-08	1.7200267988183084E-07	8.7069027025836E-08	-2.628312474388762E-08	-1.478696502278563E-07	8.968825649350512E-08	5.8377319159334494E-08	3.821424951173493E-07	4.363649271133445E-08	-1.3158753464184237E-07	-1.7625804702938794E-07	1.3614351125759784E-08	-1.3649067355153712E-09	3.476236209302932E-08	7.43192933277111E-08	-1.9423820099438283E-07	-9.313178795293434E-08	8.839332968009193E-08	-8.658809385600393E-08	-1.3310914663846567E-07	-1.1299364278616139E-07	-1.951112933110908E-07	-3.266891256997647E-07	-3.081466306631724E-07	-2.4294995895022294E-07	-2.3457111248490034E-08	9.325876967614811E-09	-8.504596307985992E-08	3.9459837207801695E-08	-1.418471506642864E-07	-5.113744627363559E-08	-1.3988983229557293E-07	1.333938253822005E-07	4.1630170781822026E-07	-1.3966073916469468E-07	-4.28052181109615E-07	-4.0912483798910544E-07	-2.3681050297034377E-07	1.3774515459021438E-08	8.81923028515092E-08	1.583594404011764E-07	-1.0647747149790547E-07	-3.104269122316786E-08	-6.463483520902283E-08	1.6409147055447051E-07	-1.0403401763406165E-07	-2.458039112302597E-07	-1.88677496664205E-07	3.7435544308999906E-07	-2.423434681972141E-07	-1.9700225835254238E-07	-3.309784713201263E-08	1.4768864707346966E-07	2.03769506314556E-08	5.740436513401534E-08	-3.0758430643161565E-07	-2.278832881491711E-07	2.3055430851679293E-07	2.0957835662438835E-07	2.1580281989756605E-07	-1.4326092486198558E-07	-2.8088714101853266E-08	-2.504680569848968E-07	8.858816995789005E-08	2.3274502819018588E-07	2.961747398558445E-07	-1.7836595946491995E-07	1.4268493399273376E-07	-3.7232307137193848E-09
9.288773159953639E-07	-1.0687705124560328E-06	-1.0012685061199788E-06	-1.7720238187646587E-06	1.20107157192889E-06	9.711436633922718E-07	-1.4190122415857185E-06	5.48359816547965E-07	1.1679106179484983E-06	9.579059570967573E-07	1.1808857421214808E-06	1.087976643358732E-06	-8.733134314133115E-07	-3.16968118005277E-07	-8.334161070570066E-07	-1.2743005202624741E-06	1.0713168810234208E-06	1.6271530029040322E-06	1.0110522953217368E-06	-4.378690450265529E-07	-5.969457671440935E-07	-1.9982628507956051E-07	9.397340830299349E-07	-1.9831297526004037E-06	1.5696191713370163E-07	-4.238410539574686E-07	1.2207212318258174E-06	-2.771209571667098E-06	-1.007196613048298E-07	1.5188565515328327E-06	-8.693578330935819E-07	-1.406729143336135E-06	-6.653475130633714E-07	1.125285004824188E-07	-1.0975183141150576E-06	8.721625529815644E-07	9.726211839847574E-07	1.6967382084764752E-07	2.2760498424402924E-06	8.547628968314987E-07	3.071276575808317E-07	1.7336054991773645E-09	2.9174891836385627E-08	-1.2040638885187447E-06	-7.996249435660714E-07	-1.5440504148637107E-06	3.2287436277298405E-06	-1.539151834332413E-06	1.6943767699011341E-06	-2.2486557973778557E-06	-4.6722504536108856E-07	1.052387707058447E-06	-1.7124399136940069E-06	-6.1266617822386E-07	8.226186476029929E-07	-2.2032497994561313E-06	-1.5630867815609735E-06	-2.9272235088115227E-07	-8.709897082151143E-07	1.6170080547088272E-06	2.412302459454522E-06	-1.7572455498806286E-06	-2.2520785369282892E-07	-2.596720399391346E-07	-1.8410158218205574E-06	1.646677630918812E-06	2.487666645653064E-06	-1.7854683317274926E-06	2.909302832440904E-07	-2.740464297035889E-07	5.023086041800475E-07	-1.1956783564490552E-06	-4.789556735705649E-07	-1.5614209485861125E-06	1.119633970034242E-06	-1.6414316267808467E-06	-2.7438379290591997E-06	1.7705361389427352E-06	-2.907331524512335E-08	-1.019356170646492E-06	1.1288821184908525E-06	2.066388275561292E-06	-2.91694034113987E-07	-3.370248863114659E-08	-1.2967637272553887E-06	-1.5826090543748476E-06	8.032270258480098E-08	4.059804327705262E-07	-2.7098120954353625E-06	2.079711937550572E-06	-1.1814879921246745E-07	-5.447153688107594E-07	-9.241557553430375E-07	-1.1706834881242488E-06	1.7657107729076718E-06	-1.1308708233487849E-06	-1.0940598591707206E-06	-4.5257804156083156E-07	-1.4056691561207129E-06	-1.8556924045675392E-06	1.4065996970511414E-06	-2.9938082038144622E-06	9.605626293159319E-07	1.2171359321909238E-06	-1.0290733046169975E-07	-1.4972137635918068E-06	1.2736224104736656E-06	2.903758876345441E-06	-1.6985886481139956E-06	3.163473372374536E-08	2.2566301726043918E-06	5.686854770918049E-07	-1.895913501822685E-06	1.0327305462270964E-06	-1.543883267650578E-06	-2.4742769964480556E-06	-3.991167093392788E-07
-1.3681661719783168E-06	2.4950157133555175E-06	-3.4433003332660037E-07	-1.6581829402352511E-07	-2.847215409008347E-08	-1.6053754841536013E-06	9.823042050247516E-07	1.964044091064682E-06	3.7930324486901253E-07	1.7446495756166291E-06	-1.0635813801114838E-06	-1.3189016450950129E-06	8.14468794476202E-07	1.8479268475840313E-06	-3.6454923333425655E-07	-3.859762799153317E-07	1.952534148484585E-06	1.6148110669750587E-06	-1.466667940157858E-06	1.7425281726515839E-06	-9.154215057911898E-07	-2.231223525215389E-07	-2.073758345048157E-06	-9.193213097036114E-07	2.0554568336416872E-06	-2.4510989408201203E-06	1.2720985052401616E-07	-5.509726895998807E-07	1.768006829911065E-06	-1.662676561762318E-06	5.237295398919571E-07	1.1003923866010251E-06	-3.832155458691489E-08	9.884987920242023E-07	-1.1925153675589882E-07	-3.8534164606321007E-07	8.318098204009332E-08	1.7537084166015476E-06	1.1038977646798575E-06	-8.579697489714868E-08	5.90250017181909E-07	2.170048593084937E-06	1.4992607468245392E-06	-1.6145973544739344E-07	-9.871886434095208E-07	-6.671608796972225E-07	2.2688587137918943E-07	3.604604926967865E-07	1.5058487756145671E-06	-2.503071296525315E-07	-6.560000229119046E-07	-1.6381334706304965E-06	4.5597739913204627E-07	-5.306644091668276E-07	1.191780717158534E-06	-5.887156806571611E-07	-8.7185238878248E-07	-1.7649699441958614E-06	2.3929672346656656E-07	2.496036640988954E-07	4.266677806984314E-07	-1.4184134100775283E-08	-1.6537841693910473E-07	6.759435491075486E-08	-2.9086485676589602E-08	9.84020705608862E-07	5.539804023959989E-07	-1.2362049371324988E-06	-1.13741832595586E-06	7.85865451578372E-07	9.40256406981973E-07	1.171055988394558E-07	6.751892698593865E-07	7.7914036122718E-07	7.129340962217298E-07	3.6442129668042525E-08	5.665311735650852E-07	-3.4360168367298626E-07	2.4399319707629445E-06	-2.8771288824238925E-07	1.3225783452212987E-06	7.550480946546321E-07	-1.5820818738765282E-06	1.0663389853048412E-06	-3.049619879899718E-07	-2.1586200689518428E-07	1.568521387304522E-06	5.983942587543118E-07	-8.065450046008475E-08	2.0334434868825705E-06	-1.14234996028387E-06	1.0627767020828832E-06	1.642670072721833E-07	-1.7353014948377848E-07	-6.068389864046103E-08	1.3520122101132523E-07	1.5185292629658266E-06	9.270774841068637E-07	1.4918866520452344E-07	1.2276345456576319E-06	2.47830606007726E-06	3.421707770012593E-08	-2.436737568921684E-07	4.3336221655153873E-07	1.4728281806104023E-06	-1.9692949687016494E-06	-1.1685776180911706E-06	1.5336477356676365E-06	-1.0933682859609456E-06	1.965457477906059E-06	6.933373798453772E-07	1.933746538828206E-06	1.1435688305804825E-08	1.7620198192797905E-06	2.5648366652400543E-07	-5.216812741194988E-07	-2.181591979259169E-08
3.210480538340723E-07	1.1529226458339383E-06	-3.0379965845599827E-06	-6.206817781969525E-07	5.252356880743143E-06	-2.3885880716704163E-06	-3.675987247700414E-06	7.523252685399807E-07	3.3705488410652264E-06	4.734076551114732E-06	1.9839083905338085E-06	-2.466548526158047E-06	4.963694488005318E-07	3.8110545731162604E-06	-5.14144515087949E-06	-2.220105212484161E-06	-3.3008474612111542E-06	5.5900670652249545E-06	4.517358702827374E-06	2.0749988866711957E-06	1.8349617263486882E-06	1.572468134556161E-06	-3.176820943298136E-06	-2.9452547309793267E-06	4.071015714882043E-06	5.156955092774765E-07	3.2592921526033964E-06	-4.024087852932331E-06	-9.339462404714602E-07	4.167110966357952E-06	-5.22884526539187E-06	-4.50003860154777E-06	-6.835135438413553E-06	1.4177378277776822E-06	2.524430588620344E-06	2.259967675093647E-06	2.9584713578389784E-07	3.4915715595645454E-06	1.1124551509048817E-05	6.322242126087473E-06	-3.3671778169712204E-06	1.6210348398379732E-06	3.423736892920266E-06	2.5802644585668668E-06	-4.182655725549036E-07	-5.9429802215283E-06	-2.0959363896940176E-07	-1.0496931916508066E-05	3.397565944841615E-06	-1.5147969850977398E-06	-9.192176525587469E-07	1.3078291227632912E-06	-4.1578368948315784E-06	3.009432504755111E-06	3.622383193336136E-06	-4.027003633298188E-06	-1.816234739973453E-07	-8.027004755421703E-06	-6.47549840489433E-06	-2.077470169167833E-06	-4.220231467771801E-07	3.5526080781933674E-06	-3.833084308402732E-06	1.0768654156670984E-06	-4.9986725181686796E-06	-1.4825456079457076E-06	5.075338421889957E-07	-3.9738416494185695E-06	-2.7388453092856333E-06	-3.4070229502127677E-06	3.3138497971178837E-06	1.9358800846304074E-06	-2.876406380116921E-06	-5.15565122078865E-06	2.9022600473102006E-06	6.641438477155593E-06	-6.709948815183178E-06	-5.529503946489225E-06	-3.329785845174309E-07	3.2114635958134136E-06	2.4807325278728854E-06	-1.725525298400833E-06	1.5562359574385118E-06	-4.804826794126017E-06	5.433512936859727E-06	-3.3632278613925087E-06	-3.5942823896529692E-06	5.958490197653668E-07	-4.027761829240848E-06	2.2703714596625392E-06	2.323895510954737E-06	-1.5013717516447435E-06	4.403622866857284E-06	-4.090972271417058E-06	-3.8869135771199945E-07	-4.6078319201037835E-06	1.8863406717703467E-06	-2.40086158424189E-06	-1.847509899281556E-06	-2.1919517481101967E-07	4.791933072114326E-06	-2.3025222110846484E-06	3.6794423405065856E-06	-7.508255810082697E-06	8.484681329690876E-07	-1.7969542790919545E-06	4.089117380292661E-07	6.323603822619117E-06	-2.939642460147212E-07	5.342935090904596E-06	2.6903526691936506E-06	2.3089551321561583E-06	1.1351925740847767E-06	1.5257166831379117E-06	-3.5910783395288E-06	2.380248201696492E-06	2.0534960288401825E-06
2.415278438269383E-07	-2.3021518250386107E-07	4.3995352943957993E-07	2.8048362720371006E-08	-5.903909259707971E-08	-3.5027620599738186E-07	-2.6700148527586186E-08	-1.4879242618601707E-07	4.685855034009039E-08	-4.905868762036761E-08	-5.473096639036471E-07	1.6401223635758646E-07	2.8908517392097275E-07	3.690751634705195E-07	4.66704518028507E-07	-4.881266890447138E-08	1.3104079384720908E-07	-1.7876128145697825E-07	-2.245517752929488E-08	3.192512486598541E-07	-5.5035277974933826E-08	-1.127458362114435E-07	3.4262308308666083E-08	9.593646523123483E-08	-8.540718146438395E-08	-1.3528493528001563E-07	6.676130032895353E-08	5.0161360138626594E-08	-5.0967765854086434E-08	-3.109485926540915E-07	1.230090749467999E-07	-1.2491236544416092E-07	2.4892083151562276E-07	-1.2424346343433544E-07	6.966772617984367E-08	-3.322953435069843E-07	2.8798743477915563E-07	1.1278826810878863E-07	-2.01814914395682E-07	-2.8016472464816483E-07	1.1130661050154465E-07	-1.3490804599878757E-07	-3.694914354947468E-08	-4.976525423293813E-08	2.1066293797033754E-07	7.324355185601049E-09	-1.3570521646681272E-07	4.087876623491848E-07	1.2784335178001262E-08	1.8457526377246194E-07	3.0668029144518685E-07	-4.3635867140967036E-08	2.140769734940038E-07	-1.3599049744357876E-07	-1.0670674021671297E-07	9.186410301127606E-08	-1.346994257117585E-07	-1.4270951477015512E-07	1.8105158161854678E-07	-4.475162565687324E-07	6.501353715494987E-08	7.607766975153503E-08	3.0673349496699263E-07	-6.051532039774418E-08	3.073188726414559E-07	-5.182349468854312E-08	-6.772355796883147E-08	7.69533531212425E-08	-2.5389674941360177E-07	-2.4697997753072424E-07	-1.8763183115223556E-07	-2.925713821574675E-07	-8.925147251844269E-09	-2.427177906645491E-09	-5.417855673473696E-07	-2.8442671108621185E-08	-6.779562587592139E-08	6.575502959784838E-08	2.6416178512564974E-07	-3.47701785344704E-08	1.6078797857615308E-07	1.5197175212600158E-07	-3.017932516682918E-07	8.27288674770999E-08	-1.405033726240407E-07	1.1485722981903948E-07	2.6066482871501624E-07	1.411807853614129E-07	1.4309419125062493E-08	2.2332709883447082E-07	2.843577716587278E-07	-6.8401118571466325E-09	9.48466815670424E-08	-1.3902120269665273E-09	-1.0946716292869064E-07	4.6315342114711605E-08	5.144826931901325E-07	3.5986879467209494E-07	-1.0676298176895567E-07	5.236040172291629E-07	-6.148357439687082E-08	1.2513462362306396E-07	1.284744404986545E-07	-1.0919471375400325E-07	2.2122064943229707E-07	2.8601680578950784E-07	-6.9825771913846E-08	-8.841166015795954E-08	-2.2363013339616306E-07	-5.2301396875927855E-08	-3.310700507498124E-07	-9.971557337926437E-08	-3.181002334623821E-07	-1.1219788911138627E-07	4.749277121769062E-08	2.388430055662518E-07	-1.3385999071936663E-07
