3.678561647336626E-07	-5.796423558846103E-07	-1.305656378072311E-07	3.4938351422976045E-07	4.103713138096079E-08	5.173334368521561E-07	-3.136755345594049E-11	7.26833165625362E-14	-3.7514141154837473E-08	-4.5922556748805155E-08	-9.317847886082595E-08	-4.985190473136086E-09	-9.77683957325962E-08	-1.6930986843941287E-08	1.6849641343180704E-07	2.5332428579880963E-09	-9.450292308757627E-11	2.932209839306127E-10	-1.3427151688851413E-07	-1.1117854797065532E-06	4.1844107156909E-10	1.476190421035601E-10	5.296938945668626E-10	-5.6901260121155376E-11	6.20627953659686E-296	4.741168851612439E-294	-7.070991243965165E-12	-3.341552031787006E-08	7.655915670089861E-09	9.748219485434237E-08	2.6385720756218752E-08	-8.980499975744223E-297	2.102604773241358E-296	-3.6278702505721486E-295	5.734548013044879E-294	3.791378039455343E-11	-1.1501624843830098E-09	1.564426665532478E-11	2.3585085207449503E-296	1.05785630380838E-297	2.5E-323	2.5E-323	2.5E-323	4.98538583064165E-298	-1.133522143105676E-10	0	0	0	-3.253016908525502E-300	0	0	0	2.5E-323	-1.252439281317302E-09	0	0	0	-4.1956987378293537E-293	0	0	0	2.5E-323	8.030904834911227E-11	0	0	0	6.333271080391596E-298	0	0	0	-3.9495350529539035E-08	2.832126337281903E-08	0	5.3108024608528596E-11	2.0880515658468066E-09	-6.564478808095299E-07	5.689950571193191E-11	0	-5.177090284121015E-12	2.495468544938739E-07	5.973560663522539E-07	0	2.844000968373895E-10	6.561868010146917E-10	-1.0722923843761008E-08	-6.09705863514774E-08	-6.549746234533888E-09	7.832728092833944E-07	4.809759319096787E-08	2.8445574178307498E-08	2.2404201441719598E-07	-5.063181340090886E-07	-5.876627448976991E-07	1.1249265989071333E-06
2.1198526872814696E-08	-1.4285051387029696E-09	-2.4519952361611227E-09	6.737346164452271E-07	1.3569908076154405E-08	-9.181661944819261E-08	1.5026890700536762E-12	-2.7351991200671634E-09	2.6027757574044987E-12	-2.4468852703095684E-08	8.76218041564367E-09	-1.925725173676882E-09	1.9129411702773314E-08	-5.63852759754791E-08	-7.816810917340563E-08	6.262342720990121E-09	3.1805284084294537E-10	4.884176738302557E-10	3.2321776770036083E-06	-3.131108613535838E-09	6.7858058925358E-09	-1.0599144964471078E-07	2.377636398670572E-09	-1.7590326983775194E-11	-2.7624149861325197E-299	1.3972633997530885E-294	-1.7434449376960006E-11	-4.027662112482717E-07	-1.5003765096584196E-09	-6.912836605322852E-08	-4.733041801288257E-09	1.6739709197615544E-296	2.5104774627501726E-295	1.8071944953344912E-294	-5.116733342583381E-294	-8.650433911253294E-12	-1.0134960065284781E-11	3.0908741849880796E-14	-3.3311736193636862E-301	3.156457334376322E-296	2.5E-323	-2.5E-323	2.5E-323	1.2838073653088563E-295	-2.045343158114231E-12	0	0	0	-2.0901119507896616E-299	0	0	0	2.5E-323	-3.010685824122309E-08	0	0	0	-2.6833479909134445E-292	0	0	0	2.5E-323	-2.8807823189605405E-11	0	0	0	4.786342708111876E-296	0	0	0	5.167698494743663E-14	2.5293760362736014E-11	0	2.8665341366500755E-09	-5.239095213519514E-10	3.6278081763267027E-07	3.004859721920803E-07	0	-1.717305360729593E-12	-1.2302840675991338E-07	-3.6582318062147686E-08	0	-1.1334281575610412E-08	-1.0977680506341899E-09	7.281479320211865E-10	-5.538148227860721E-11	1.667364094012504E-08	1.0855339624665812E-08	2.7334777563285868E-08	-1.7052181299565755E-09	2.4031077396355457E-07	-4.496874074470424E-08	-1.449175662336338E-07	3.6049834625856536E-06
2.498898531675355E-07	-2.4207928995368564E-07	-4.481110583658244E-08	1.949892889982707E-08	-2.8786710825972605E-09	-4.2655475195094363E-10	7.276590610015425E-12	1.0196331670185753E-09	4.4813942031196966E-14	2.206442276634866E-06	-2.9144347853863136E-07	-4.273502165128121E-09	2.9009772556557976E-08	-1.158317913531459E-07	1.0459546408901764E-07	4.940553487704194E-09	4.2420898553084586E-11	2.8230126917410386E-08	6.628120007612115E-07	2.0360631642891777E-09	-5.702039490927966E-08	6.490336475767882E-12	1.1052483320130947E-09	-5.480335969619313E-10	3.338432852693194E-299	-1.109903680186008E-294	-1.616501930376018E-16	1.9109407415743602E-11	2.2313894719964928E-10	5.340366804188517E-09	-4.4287154853495195E-10	1.7898761142603368E-297	3.6380067505327705E-295	-3.5341896902025165E-293	2.4162698764196674E-294	-3.562079241375565E-13	4.681958178569931E-09	-3.9516892805996166E-15	8.984670017954487E-296	5.274057570987068E-296	-2.5E-323	-2.5E-323	-2.5E-323	1.8445989832480002E-293	-2.545258011315329E-11	0	0	0	1.6834199183092047E-302	0	0	0	-2.5E-323	-1.434803528357648E-08	0	0	0	-2.891449007269918E-296	0	0	0	-2.5E-323	-6.9436231847432006E-15	0	0	0	6.185636174514555E-300	0	0	0	7.580471568027819E-07	-3.8761120957058954E-10	0	3.720072496873293E-13	-2.8190024723468426E-12	-1.5566753999525777E-07	-6.581929751084024E-08	0	1.1972450607558492E-12	-5.868439542824214E-07	-1.880573391845568E-09	0	2.813412719213887E-09	1.5660501933604546E-06	5.815573111383986E-08	2.2759363927554737E-07	8.061455092101248E-08	-3.356438272605287E-06	-4.3567839572272284E-11	-1.1325005792430365E-09	-4.5420415346274353E-07	-1.394261495100361E-06	2.038062771426606E-06	8.812341724544804E-07
4.095748467876737E-07	-1.4483420741949695E-07	3.886918842195571E-08	-1.0203456655596536E-07	-2.4659549778927437E-08	9.054569855031176E-09	-2.6023185333596917E-10	4.750748394511768E-09	-7.44612982617786E-12	-1.1168273842996459E-07	-2.0611623691057986E-10	1.3380735583075983E-11	1.1536994025159842E-07	-4.577138638285906E-07	-2.456175553359551E-06	1.3395705854048208E-12	-7.633377476317391E-12	2.95066219271019E-08	-6.50004058212815E-06	3.5433175755174524E-08	3.690743265141252E-07	2.4278315375666933E-08	-2.3717326827738144E-10	9.97944806349366E-12	6.683329419953842E-298	1.0074211904247752E-295	-4.16383337155195E-11	2.1465829832313086E-08	-3.20579554888834E-10	1.0221317060342226E-07	-3.609030258491965E-10	-3.524400635824926E-296	-4.486532954921271E-296	3.834056573484837E-293	-4.3780988738727166E-296	-1.6190903094081073E-11	7.02649081839242E-08	4.213720568603913E-11	-5.040900603346334E-296	1.2021254496967685E-295	2.5E-323	-2.5E-323	-2.5E-323	-9.267972528773217E-295	3.635739160172485E-12	0	0	0	1.569153751773214E-299	0	0	0	-2.5E-323	-1.7125817691717954E-08	0	0	0	6.079200952590885E-296	0	0	0	-2.5E-323	-2.8675992043810676E-12	0	0	0	-4.626698361559756E-297	0	0	0	-2.2109830943985483E-09	-8.215649981214592E-09	0	5.219166452735476E-10	-4.6590639122238364E-11	4.441680051446745E-08	-1.8519757423345408E-08	0	-4.424655617766354E-12	-2.801217018071542E-08	-1.7738159180010792E-07	0	-3.103816100397729E-08	6.421817828244238E-07	5.419431251526895E-08	7.7599914275648E-07	3.0122331068737524E-08	-1.549909123757993E-07	-3.8767596368740524E-09	-8.438148933038252E-08	-2.559241921122243E-06	1.3657861943416347E-06	-5.4846107180878755E-08	-6.2987419147087825E-06
8.530161928739919E-09	4.5077485097289095E-07	-1.0447320426614406E-07	1.7721968284982177E-06	-8.38079866372695E-10	4.994271043404581E-07	7.194613215643969E-13	-2.69059435858011E-09	5.942924984483744E-11	-2.5546580345101526E-07	3.072527756778293E-09	-1.9743878838237262E-11	1.4765024071845662E-08	3.2711718868996486E-13	-6.776734268485845E-08	1.4330111976023861E-09	-2.3107146456271394E-10	1.9730227383146987E-10	-1.2308339283176333E-06	1.9233761607722418E-08	1.1631687214990411E-10	7.430236348157437E-08	9.254438207335892E-11	-2.258872066905325E-12	-9.552584448378329E-296	-4.3257115597856546E-297	9.830181208555373E-10	2.694969289538705E-08	1.0886773438685307E-08	2.509023110506993E-07	-1.3857857936336956E-07	-2.030839142638499E-295	9.13185784602635E-296	-1.6778810482358075E-293	5.7735896335576116E-294	-7.439151928892555E-11	8.557004974689862E-09	6.296717070676435E-10	2.6340943097482056E-295	4.3611829525873064E-297	-2.5E-323	-2.5E-323	-2.5E-323	1.9444744981792002E-294	-5.882708732533918E-11	0	0	0	3.4038936833776827E-299	0	0	0	-2.5E-323	-9.750393775145078E-09	0	0	0	2.7035014585761348E-292	0	0	0	-2.5E-323	-3.218405500405562E-09	0	0	0	-7.725573544472008E-297	0	0	0	3.539919438327785E-07	9.834771398203607E-08	0	-1.2782248789967257E-08	2.6350912680583913E-08	-5.450962976290077E-07	-5.0816314437194584E-08	0	8.976836981561849E-12	6.587693506244112E-10	-8.692038299955277E-11	0	-3.0743175071770996E-10	3.611176098723899E-09	-1.642096072645957E-07	3.608173496057374E-10	5.770644663134304E-08	-8.92744880791789E-07	-8.041627328957177E-09	2.3405574793093956E-09	1.5999025811524556E-07	-1.6445651798220265E-06	-9.441491862578721E-09	1.6924165204301349E-06
-1.3659451735772796E-07	1.7010616215258127E-08	-2.0109608008070739E-10	-1.2357578265712202E-06	1.9908131650207653E-06	-1.005269550301234E-07	-8.136224791543089E-11	7.395747438028336E-14	-1.5127387690525414E-08	1.7859183634470462E-11	-1.1849990668054501E-07	4.199858627868617E-12	-3.019362754133487E-08	2.8606905878341447E-10	-1.8834035956894215E-09	-1.7449215784071018E-14	6.597742893676482E-13	1.5367438819714302E-09	4.6907988515239966E-08	-8.982292382266032E-08	-8.19003813923891E-09	7.964201725527462E-10	-3.849018312896368E-18	4.0257453856917846E-16	-3.6591680482521865E-296	7.095892558287765E-295	-9.171018068488289E-11	4.472502417896282E-07	-1.9163260435777755E-10	-5.015482472531175E-12	-2.4906006342625818E-17	4.033548135125963E-304	-4.279236066717398E-301	-4.9759158913184265E-293	6.268027210146821E-294	1.5383427732886573E-11	-2.7123990748124194E-09	1.3432060705851415E-11	-1.808533614846972E-296	-5.139808345627085E-297	2.5E-323	2.5E-323	2.5E-323	-1.2547585295297095E-299	-2.5734501178044513E-12	0	0	0	-1.3519366859122515E-298	0	0	0	2.5E-323	7.39749357213825E-08	0	0	0	-3.981765138956113E-297	0	0	0	2.5E-323	5.282921339011389E-11	0	0	0	2.407437066935073E-296	0	0	0	-2.547934274542526E-11	-2.0768742667385924E-07	0	1.1422342651444282E-10	-3.539087713228308E-09	-2.5788058518550946E-07	8.65591325480591E-13	0	-1.0516871517835152E-12	1.1457316842671797E-06	-2.0693541687751413E-06	0	9.329372263044489E-11	-1.158351219073034E-12	-8.406381909822489E-09	-3.149058320210026E-10	-1.2598023594898024E-12	5.7528226937423674E-08	-3.7854680914421374E-09	-5.134059817936547E-16	7.834666650072264E-07	-4.7180820114235614E-08	-1.8921123374475447E-08	-1.2260951762248145E-06
2.920507728339099E-07	-1.1462194790126235E-06	-2.600806072708666E-10	1.12659275336813E-09	-8.011852358303883E-08	2.0853251865508194E-06	1.5473194095996087E-12	2.744161340280216E-09	1.3226736016968437E-08	-1.8323166880697975E-07	3.8873011952562293E-07	1.692933438836595E-13	1.3266919533437458E-08	1.0685091480746737E-11	2.8602527853638266E-07	-1.0406317216704416E-13	-1.174170104006597E-10	-4.6018217885586084E-08	-3.0996226724525566E-07	2.968357114917912E-07	1.4571910688242577E-08	2.5834847067052726E-07	4.130962082055783E-09	-2.4816361853022883E-11	1.1209566886613938E-296	-2.3498582239720417E-294	1.2248634283365053E-09	-3.1258294929122577E-10	1.2026683484260757E-08	3.6118862371215163E-08	-5.522411463268609E-10	-5.2742451185331566E-297	-3.1114015184135854E-296	1.1185979177182259E-292	1.0172836508855189E-293	-3.3807861291846923E-10	-1.5122099894504956E-12	1.603752729898082E-11	-3.6274459385183865E-297	2.7731832587191217E-296	-2.5E-323	-2.5E-323	-2.5E-323	2.5550462948025497E-294	-1.3431827689023882E-09	0	0	0	3.6402826237222374E-299	0	0	0	-2.5E-323	-4.4268528421100624E-11	0	0	0	-1.1262201596051572E-292	0	0	0	2.5E-323	5.0056625145728266E-09	0	0	0	-1.8582511263381828E-297	0	0	0	2.337078496413062E-09	2.3482253461403822E-06	0	-1.3723396206339564E-10	3.5121257587869056E-08	-1.4585465892939796E-08	-1.806784442470661E-11	0	7.834299187835377E-12	-1.0025303868161182E-07	1.2692416449944687E-06	0	-1.9235782186622364E-07	5.821412699460672E-09	2.580289499125095E-06	3.932201361509288E-08	8.33176388113183E-08	-1.0263501838746005E-06	6.1976335860425325E-09	-2.403863457484157E-08	1.524668540709641E-07	1.5032168855443938E-06	2.6592409262763592E-06	2.639459139028201E-06
-1.8011817774318819E-06	1.9453273485486594E-09	-1.4365713404952776E-09	-3.6558538290171764E-08	2.597941996440531E-07	-4.170193467375512E-06	2.4819547457082706E-12	-4.4187483447091876E-11	-5.22915233941933E-08	1.33241964318075E-07	-5.021299856626184E-07	-4.828058970014393E-11	9.990170231065008E-08	-2.925558333873428E-07	-7.318474680808024E-08	1.1220115017689567E-12	8.240795165946666E-12	-2.848459922380488E-11	3.3478556142013415E-07	-6.634441324222518E-10	6.76083286204968E-08	-4.2018030383324304E-10	3.098040953584616E-10	2.0856770285856757E-13	-2.3215318908756992E-299	3.7027566045300096E-294	1.0414719958325606E-09	5.280733773273465E-09	3.142645834428187E-11	8.509291748925766E-11	-6.878790502833788E-10	-1.1639032548162663E-297	-1.0457686950777057E-294	-1.2244738494621926E-294	1.2809668794024286E-293	9.796693461007417E-10	-3.649512650214935E-09	3.5590787057340107E-10	-1.1549661770719895E-295	-8.791071547721657E-297	-2.5E-323	2.5E-323	2.5E-323	1.3414630974473544E-295	1.3182495167306478E-09	0	0	0	1.722909699617018E-302	0	0	0	2.5E-323	2.115566454671438E-09	0	0	0	-3.1026611716779123E-295	0	0	0	-2.5E-323	1.118779184726346E-10	0	0	0	3.242946065547872E-296	0	0	0	-6.558526681318046E-08	-2.116245410054512E-07	0	-8.109771121081623E-10	-3.670309867294161E-07	2.99770924163133E-07	6.379225228565725E-09	0	5.828007845522114E-13	-1.2764185910121086E-09	1.3943078983579613E-07	0	-2.3459776548357448E-08	-1.5578196077805936E-09	-6.963358564995749E-07	1.1360238516448629E-07	-3.0576954941761626E-09	-1.85566281380444E-12	1.0811668024924518E-07	2.5560016184715963E-12	5.4859197835371185E-09	-4.5390968977516515E-06	-1.350966845743229E-06	-8.450157020703984E-07
-8.747710924070106E-07	8.212035703574129E-08	-3.362429707886179E-09	-3.99262308458592E-06	-5.507544606940157E-07	-7.993397133479317E-08	-1.4449876360783437E-10	1.5187662410854294E-10	-5.832820445142905E-10	1.0229590902319393E-07	1.4287851156942414E-07	1.5358252194011689E-09	-1.8743371037801198E-10	1.880360201979928E-07	4.132253672405206E-08	3.399505303130729E-09	5.29081497992683E-11	-1.9060591258179E-08	1.718303494666019E-09	4.151175588393532E-07	1.2490644088461883E-06	-4.323276704219503E-08	4.6548245931353266E-10	-1.1665251195933656E-10	-2.0006025659647422E-296	-1.70867818636558E-296	-2.281449543987879E-11	-1.5567490330451552E-11	-1.121841805902576E-12	1.263786972436113E-09	-1.8474078170946662E-09	-3.0989309846762116E-297	-1.486156921531563E-294	8.852499539584594E-295	1.3664616004372864E-294	4.034101211214048E-10	2.519719703697157E-09	-3.421281502564784E-16	6.278822347096938E-298	-2.2072187484773332E-296	2.5E-323	2.5E-323	2.5E-323	9.115824488185327E-295	-7.228824732331102E-11	0	0	0	-9.84840860693518E-303	0	0	0	2.5E-323	8.845784677077313E-09	0	0	0	2.4654558586048673E-293	0	0	0	2.5E-323	4.3053470380540254E-10	0	0	0	-4.4106749911294166E-297	0	0	0	3.2748087955682022E-09	-1.794968464140075E-07	0	7.900921304694937E-12	5.950765484298449E-11	-2.955289479792021E-07	1.5260227529361046E-09	0	4.4710086791383154E-11	-7.959090455138761E-08	-3.253465952278048E-08	0	-1.3384868786676006E-09	1.074890006181342E-08	-9.637453404034882E-08	-3.1052240297166755E-08	-2.9731625978794035E-09	1.9238117974363452E-06	8.709806271987608E-14	2.423983860095692E-09	8.730891649713189E-07	2.4982536594760672E-06	1.317686227478114E-07	-5.6052105354389536E-06
1.2049052843115684E-07	-1.0238198389415936E-06	-3.8910216878590955E-07	-1.5289505000366488E-08	1.1712044699279809E-07	9.259065719749195E-07	6.834358881774735E-13	2.5668023801024737E-09	-2.024126645187376E-08	2.866120180226254E-09	3.0316254868809404E-12	-4.876306320647943E-12	-1.5225042037878382E-09	-2.596070917243596E-06	2.8192328425477213E-08	6.71482246169132E-15	-9.418452502031209E-11	2.7031435602261925E-09	-3.6837976123194225E-06	-1.8339936031544746E-06	-1.185547203954611E-10	-8.253033282545702E-08	4.435093167179741E-11	-3.2150685580960015E-12	-2.764942781706518E-296	-2.187693367050651E-295	1.7196905867329394E-10	1.0536577065534732E-07	8.381506759722518E-09	3.34411660648144E-10	-2.4728702908644557E-09	1.6062436086436163E-296	-2.1278955676692276E-295	-2.767731553792423E-294	8.146099196252033E-295	5.895856688115102E-11	-1.7235095657157766E-08	-3.5249956770193134E-10	-6.023369141921029E-296	-1.6802668315057331E-295	-2.5E-323	-2.5E-323	2.5E-323	-6.0218400762324004E-294	1.2283885158732596E-12	0	0	0	-6.448788307835515E-300	0	0	0	2.5E-323	6.78284586467546E-11	0	0	0	-2.6112461807358297E-292	0	0	0	-2.5E-323	2.7156020043978482E-11	0	0	0	6.4553809053544746E-301	0	0	0	1.9650126791264772E-08	-3.229192569152081E-07	0	-1.7198264786023662E-11	1.9278158119372534E-11	2.3639122082384E-07	-3.109440193329364E-10	0	-4.447766039788513E-11	-1.1184990849912007E-06	-2.1215132211144776E-07	0	-6.060378399846083E-10	1.668448003395285E-12	1.701879769444087E-07	1.172579103392337E-07	-6.633030313693364E-08	-1.2389427033415387E-09	-9.297932097545877E-08	3.789814045731131E-09	-3.5637653876052813E-06	-1.3896561155889166E-06	9.046520262043578E-08	-4.757188793334974E-06
-5.56220486660267E-08	-1.8635695178566712E-07	1.251299767424312E-10	1.3407349099725603E-07	-1.106977764884608E-06	1.536730026804002E-08	-1.9147327136940689E-10	2.521826988048108E-09	2.3317320185931065E-10	-1.208614257949719E-09	2.4450898522044798E-08	-1.363270101389513E-10	4.1715269314792294E-08	-3.025193948699061E-07	-1.0632567521880605E-06	2.207097930566277E-09	-4.1151926330586785E-11	3.1057559676988735E-08	-5.467177844566435E-06	-7.50802443376264E-09	1.39986291289427E-08	1.5422615540084937E-07	1.6864248596824615E-09	9.239970692071018E-10	8.189446164314322E-299	-1.7606842337664946E-297	6.637409452189924E-11	-4.64347498558854E-08	-3.126083043292379E-10	-2.9425030281737882E-08	-1.714320090145665E-10	-3.1897451217550505E-296	3.011808063783597E-296	1.0702726935131851E-292	-1.908361247271921E-293	2.9282506575326143E-10	-3.8799792742753474E-08	8.91715241993708E-12	4.546685089722239E-296	7.022940325894505E-295	2.5E-323	2.5E-323	-2.5E-323	-6.458487878336847E-296	-6.16129540606415E-10	0	0	0	4.3949945278919975E-302	0	0	0	-2.5E-323	-7.246501569885385E-09	0	0	0	6.83479558750923E-294	0	0	0	-2.5E-323	-2.9542794563490758E-09	0	0	0	-3.7497127727608022E-298	0	0	0	5.624103778804394E-08	-4.057928997428828E-07	0	-1.2784442530120176E-12	1.1787516793232968E-07	-2.400446932005334E-07	4.2636660075790217E-10	0	-9.842643853778758E-15	-1.247552049462657E-10	2.7157286611748966E-09	0	-3.4502864001134314E-08	-3.258605788981311E-07	1.886996470484587E-07	-7.344957852824583E-08	1.5958131884331997E-11	-1.9572126139117258E-07	-1.069169654314884E-10	-3.3068430683558733E-10	-2.233792519540351E-06	-4.989361972512796E-07	1.2317565790839238E-07	-6.194410357453424E-06
-8.841856840570047E-08	1.2226412189335791E-06	-3.4838688469748122E-12	1.4646134203016978E-07	-4.3091019670303604E-13	3.270386676901389E-08	-1.3073341301045484E-10	3.5456190553755483E-11	-1.3020686606072806E-11	8.438988449567653E-07	1.0355313660851332E-07	8.469995661483969E-10	-1.775466367980717E-07	6.890793337004058E-09	-5.180486902917994E-11	-1.7253880563254717E-11	6.0517776780685385E-12	2.9699171618601635E-09	-2.7405763000891453E-07	-8.923145139930482E-11	9.69043428133674E-07	-6.473986720968611E-09	-3.743950104816349E-10	1.6005945644552024E-10	2.4829634944593453E-295	4.4673979298589674E-294	-1.9238579198676847E-11	-1.3659151376170202E-07	-2.1239406690950042E-10	-3.5169516744912367E-08	7.079763482397816E-14	2.8276298213409937E-298	-2.9736936165412793E-294	-7.533704640328476E-294	-2.1014212916664093E-294	7.34185531456279E-11	4.125135512431406E-09	-3.630803935445588E-11	-2.747886148997064E-295	2.398918532280874E-296	-2.5E-323	2.5E-323	2.5E-323	-1.3794639473290414E-293	5.963783004853554E-10	0	0	0	-3.071674186425103E-299	0	0	0	-2.5E-323	-2.6741511326161294E-10	0	0	0	-4.782845707660293E-296	0	0	0	-2.5E-323	3.810166334472476E-08	0	0	0	-8.903391524754153E-297	0	0	0	-2.4453864768397445E-09	-4.346161137395895E-07	0	8.356725747718814E-12	1.905906612589291E-08	8.350575457921683E-07	6.475303658867022E-09	0	1.9259803190717484E-12	1.3495666036039629E-07	-2.180891272378229E-07	0	9.449724865567497E-10	-3.625195729614338E-08	-7.998873066275959E-07	-8.786157340332371E-09	-1.2130967011679235E-09	1.0660082273562388E-11	2.1193305777330613E-11	1.0662750168360853E-09	8.385119991126489E-07	2.0721387937929474E-06	2.856147142363193E-09	-7.645599068319163E-07
-1.2729782114522097E-06	4.647702650538583E-09	1.0927624597309873E-07	-3.547496048946945E-09	3.132872473813095E-08	-1.3076826685319464E-07	-4.3058758972374124E-11	7.268431026816822E-13	-9.47583538860293E-12	2.8265207631439283E-06	-1.2416715051322493E-07	2.0750277004430642E-10	-1.0196084738038187E-07	6.600017612695586E-08	4.6278381021945477E-07	-1.3467444263257747E-12	1.526950125904483E-13	-4.801501941751897E-08	7.420343064981201E-06	-2.0168986075492982E-08	-6.502500016926862E-07	-4.470990780162441E-10	-2.077555847961336E-10	3.049175321458875E-12	-2.4864951066102916E-298	1.451879618172626E-293	2.0455174138894707E-11	-2.6575378600609174E-12	3.2781100074470367E-14	8.683434621968355E-15	-1.7886294307241784E-10	9.047370940474724E-297	-1.597904402642506E-295	-1.3353375996843159E-294	-4.650475761936249E-294	1.1817141249767566E-14	1.505915339581199E-10	-7.193342094085356E-13	-6.064207626934871E-297	7.440505157303891E-295	-2.5E-323	2.5E-323	-2.5E-323	-3.523924787680794E-296	2.3869058817446853E-17	0	0	0	-3.752934273654272E-303	0	0	0	-2.5E-323	7.327848664650363E-13	0	0	0	-5.619355358376323E-294	0	0	0	2.5E-323	1.9601670185549604E-14	0	0	0	1.0726944810390621E-296	0	0	0	-2.2065713066462578E-08	-4.283254051508219E-11	0	-1.2127780928361971E-14	4.892002811805366E-08	3.674248123392526E-08	8.700780407976702E-11	0	-8.660673028139546E-15	1.0596501354378202E-06	2.3431468534377625E-08	0	4.903587719747451E-08	-1.609992844425896E-08	-5.335129887259715E-08	-2.989301282599467E-08	-1.366388397337912E-10	2.346708008063116E-06	3.3511162624609434E-08	-1.066846596119929E-08	-2.758678173017482E-07	2.3703248545390536E-06	2.444074767586123E-06	7.495833269317384E-06
-7.277204766854672E-09	4.2576165874983036E-08	-1.835209793235403E-10	1.581640122800711E-08	1.7135847681674645E-08	2.4371153133272997E-08	-4.4457705453525125E-10	3.235338617048656E-10	3.013977344708035E-10	-2.26850479887921E-07	-1.6865928180052484E-07	1.3598855223191838E-12	2.248990110105114E-08	1.378401580000251E-09	1.6827729517976305E-07	-7.103294694306241E-14	3.5175728556024524E-11	-1.6877588625225933E-10	-8.375387609802228E-08	1.8451930342414653E-09	-3.678341368700233E-07	-3.2588058033501864E-12	1.1561876957295569E-10	-2.1811574774819595E-10	3.9623017141780786E-297	-9.154082174087236E-295	1.3121737811520152E-14	-5.472799678581288E-12	1.5324467792520074E-09	-1.0734114333174574E-09	-2.3750912651369224E-08	-8.310411619112592E-296	-1.6203374931709564E-302	3.964267411511594E-294	6.355304448786954E-294	-7.293999381802377E-12	2.0278018422770037E-12	-1.4819126589967682E-13	2.6245171534939608E-301	5.922048137841786E-297	-2.5E-323	-2.5E-323	-2.5E-323	-3.1130379998120766E-296	-9.124365019872635E-09	0	0	0	-1.4137311854912355E-298	0	0	0	-2.5E-323	1.185639205753643E-12	0	0	0	1.7765037153015577E-292	0	0	0	-2.5E-323	-3.4092631471203476E-10	0	0	0	-6.05011215214243E-297	0	0	0	1.3025940533938349E-07	9.792021971843024E-14	0	1.238201845280818E-09	7.013469730322199E-09	-3.315920087749612E-08	3.9658232672067485E-09	0	7.064642209551649E-13	-4.209555837187544E-08	5.463142309899095E-09	0	-2.2586419220847728E-11	4.859829009036864E-07	3.8718246003293204E-07	-1.6462864104613046E-10	3.093785201300319E-08	8.266518438095063E-08	7.269465647769578E-09	-8.88652802179797E-10	-1.703495330695199E-07	6.537239162309961E-07	1.5630183575227567E-07	-1.675208473753898E-07
2.6990529520504623E-07	-5.54746565761365E-08	-1.722014712237643E-07	1.4633663644045097E-08	-7.79553258645284E-10	6.496928117413569E-09	-4.683064942944862E-11	8.69150793020759E-12	-1.8815961288028463E-10	1.6480226334461881E-06	8.273936607522332E-09	3.6750956762947154E-11	-8.917852538338209E-08	-1.493675639387973E-07	7.256462805393556E-07	7.008243709479572E-10	1.0548121922039565E-10	-1.388702705161538E-07	1.6565061407939137E-08	-1.4892029823641012E-06	1.7575356367413923E-07	-1.4166597170678551E-08	-7.505815801161512E-11	6.89275030949787E-11	-2.546804171013376E-296	-7.676362352516234E-296	2.8097787528961296E-12	4.832156985217528E-10	-4.429566073139081E-11	2.0625597928991196E-08	3.260598720618125E-10	3.604409270933797E-296	-1.0153506505594816E-295	1.3680412806042268E-294	-9.147866062506646E-295	2.7285450347338883E-12	6.31249876191361E-15	1.3532222778966195E-10	-3.624080952036333E-300	-1.6936668782760026E-296	-2.5E-323	2.5E-323	-2.5E-323	5.307611891954364E-295	-8.750092730962928E-12	0	0	0	-3.186149966433079E-299	0	0	0	-2.5E-323	1.1057294052144581E-10	0	0	0	8.073536958543051E-296	0	0	0	2.5E-323	-3.4789411264432484E-11	0	0	0	-8.538528332920597E-296	0	0	0	1.6425307874791768E-07	-7.483589641744236E-11	0	-5.30049839914305E-12	8.959126023918145E-08	4.222252802949432E-07	3.134208614132623E-09	0	-2.113088733985581E-12	1.054966977427081E-06	2.5830100826242764E-08	0	7.333154202556604E-11	3.678512970641961E-08	-2.787577702537444E-08	-5.1514005172090253E-08	4.251690678581666E-09	-2.8830591644048123E-10	-2.7761704261875473E-10	-2.1863812823424303E-09	1.467244698203992E-06	-1.2020583684884511E-06	2.0917070463603504E-06	1.4025819356528805E-07
2.770947308524791E-07	-3.2216266399445016E-08	-6.161149648484944E-10	-4.6441495964181675E-06	-9.568876388113362E-07	2.800794176454675E-07	-2.1570885225769607E-11	2.1963493552634433E-09	-2.7027216396322306E-08	-7.061211842418678E-07	6.939873375812527E-08	7.372120214599377E-13	7.0859571642981884E-09	-2.3633383628169597E-07	-3.575855723745982E-07	-7.630451298810237E-09	-3.3238716325598274E-13	-8.442024839595757E-08	-7.358333288827738E-06	-6.789233539772944E-08	4.737434832146596E-08	-1.12865926370749E-08	-2.1287034429254954E-09	-2.9546809806783E-14	1.7359174643261547E-296	-1.4926187773085902E-293	3.5818545277318834E-14	6.812450251936698E-08	-5.2933161861363245E-11	1.729176454894533E-08	2.1352678268783828E-09	2.1784903639951474E-296	-4.504298094228526E-297	1.3892149494057585E-293	1.9378112178283942E-293	-6.926150901677065E-13	3.8383677337233483E-08	4.880343953766055E-11	-2.1333603780806106E-298	-2.5534092609948693E-296	2.5E-323	2.5E-323	-2.5E-323	-1.059298516150397E-294	3.650528272806169E-12	0	0	0	3.479375812468832E-298	0	0	0	-2.5E-323	-9.489393164200977E-10	0	0	0	-1.5414334378986438E-292	0	0	0	2.5E-323	-1.2269958557523723E-08	0	0	0	-2.7280216935099694E-299	0	0	0	1.5399330645980055E-09	4.7458739386711354E-07	0	-2.8399512568111964E-12	3.284034459311936E-09	2.873317031004664E-07	-2.4282434384010124E-08	0	-1.850570259695298E-14	-6.020426838001188E-07	-1.0510837792192023E-06	0	-1.423257085254976E-10	8.241986012057544E-07	-3.277140919433732E-10	4.949696745604559E-09	5.053682334355773E-09	-4.477593496811001E-08	5.191895094282882E-13	-7.62981593174565E-08	-2.166903486804028E-06	1.2126452982065328E-07	-5.200613280482349E-07	-1.1329015566978717E-05
-5.11730998879692E-07	-9.497934939523328E-08	1.1380307904575735E-07	-6.721489765725874E-07	1.1380303179343576E-07	-5.299221468667955E-06	-6.969822695848458E-16	5.554955234092165E-10	-2.8880385687288312E-08	1.0908765880266958E-07	1.1277861097053379E-10	5.111307977762928E-10	-1.1356016535221138E-07	9.807951527009083E-07	1.5827199415866249E-09	-8.037133181319931E-10	5.718206318708347E-11	-1.797395943525231E-08	2.9174103359849914E-06	1.5360263040864326E-06	-1.544921903549278E-07	-8.902100229145877E-09	-2.9582245002367345E-09	1.2338676596069114E-10	-7.496763634759593E-296	-3.872791114407247E-294	5.652736944488766E-10	1.1852526691315764E-07	-8.74950314139909E-11	-9.534220119872413E-10	4.213927766670202E-08	4.2057482680868526E-297	-9.263478197521476E-296	3.112847590396249E-293	-2.6254370320725235E-294	-3.653528495501377E-11	-1.247221428859818E-08	-1.5859360420964616E-10	-3.017841892781978E-296	-2.619179853273635E-296	2.5E-323	2.5E-323	-2.5E-323	6.320318087299745E-294	2.7869305896838576E-10	0	0	0	4.0776324296022183E-300	0	0	0	-2.5E-323	2.880759711342381E-08	0	0	0	2.898516651873764E-293	0	0	0	2.5E-323	5.1943259594485444E-11	0	0	0	-4.647058781193048E-297	0	0	0	1.3521343289288238E-07	-9.466040705314108E-10	0	-2.01599077495394E-09	4.342076021059963E-07	-6.761051849569264E-07	4.957623103924538E-08	0	8.644720236370726E-12	1.2366115639894716E-06	5.969134892095092E-10	0	2.9818720316913305E-10	4.35589453920334E-10	-7.491599482850157E-08	-5.005756030407851E-09	2.877725770472025E-08	1.30159263812079E-06	1.3535531622712235E-08	1.0206545456618647E-09	1.4978206650891976E-06	-2.1017274553101812E-06	7.189954605495632E-07	1.3726725604106862E-06
1.789861966218508E-08	8.832722482252947E-13	-1.7328316033169667E-08	7.228059078123113E-08	-5.971579246005398E-08	-1.9862308419200164E-08	3.207110628062552E-09	-1.6517121482021903E-10	1.657826684281215E-08	-1.026649489948253E-06	-6.72122152328024E-10	-5.679077651248935E-11	2.1992480420965453E-12	8.247991208981194E-08	-7.120031435148513E-08	-3.363364828487724E-12	-1.1488541229872168E-10	-2.6154055363506207E-09	-3.2276482048266052E-06	2.8215469830937143E-08	1.0807015906329224E-07	8.109558328772538E-11	3.554984758927181E-11	8.307747075336117E-13	-1.3205918954879162E-296	3.95107497606912E-294	1.4636401568317982E-09	-6.246576674515754E-08	-1.7821061627000654E-11	3.216632634177393E-11	-1.416391426268075E-08	-7.186674964551806E-299	5.78649060010863E-299	-8.571931557499062E-297	5.358023129276415E-296	-1.3373489710427448E-10	-1.0110412702348138E-08	7.505736908128055E-10	2.0070982007195516E-296	1.1889339295109638E-296	-2.5E-323	-2.5E-323	-2.5E-323	-2.2704973221664274E-297	1.1352498456168213E-10	0	0	0	1.12369857372451E-300	0	0	0	2.5E-323	-5.005162678014745E-08	0	0	0	-1.6245494279623467E-294	0	0	0	-2.5E-323	-2.5074935462207086E-08	0	0	0	-5.614833972896902E-297	0	0	0	1.4594048550868536E-08	-1.327877248481042E-07	0	-1.1587398558183016E-11	6.687323370025207E-10	1.6659009534271566E-07	-6.498578272513957E-08	0	-1.2072386190986466E-12	-1.694490379732688E-07	-1.6626301623517472E-07	0	-4.5953719724870655E-08	1.0280252245616135E-12	-6.56849995531146E-10	-1.0707144481827746E-12	2.454648348073308E-11	-1.1026885039243823E-11	-2.6421125091770126E-08	-1.939904895849134E-08	-4.048765991831899E-09	1.2749309509057418E-07	-1.1119243052742382E-06	-3.7124225544986497E-06
2.3787114079212556E-09	1.1505873842714465E-09	-2.6603943684105494E-08	-5.841273201313474E-09	-1.5722109025958824E-09	6.958689585676545E-08	3.091322627724751E-10	-3.400096689456579E-10	2.196898487637812E-08	-4.291631623128678E-07	2.9436321081688452E-08	-2.1723298906691143E-11	3.525765595567179E-08	-3.254740953517129E-09	-7.614947765499458E-07	1.050180797138677E-09	-1.872595949701563E-12	1.9030872861040887E-07	6.810481417524472E-09	-4.518134883218253E-09	-4.13391581880256E-08	1.947331993209827E-08	2.5070284578118333E-11	-1.2031530982856439E-12	-2.932759354977964E-296	7.840556067960737E-297	6.62569346754893E-11	-2.546337943922194E-08	1.9995234754099784E-11	-3.9708443901067753E-10	-2.3021662769378283E-10	-5.060990262573825E-296	6.923781563458296E-297	9.08715439129722E-294	9.763010695550821E-294	-9.675525841109287E-11	-1.818786109840681E-08	-8.6512704768774E-14	1.4025353574850712E-299	2.517926178407652E-296	2.5E-323	2.5E-323	-2.5E-323	2.3579221617005398E-295	1.1496197391980616E-11	0	0	0	1.8901550098774856E-300	0	0	0	-2.5E-323	-4.141609743668637E-08	0	0	0	7.478934906229932E-294	0	0	0	2.5E-323	-6.656081436592875E-08	0	0	0	6.593776117061666E-300	0	0	0	8.983738336176396E-08	-2.710461556937116E-07	0	3.701296604349384E-12	-3.5451270341836413E-09	-4.0300185615599326E-08	-3.1092283346910747E-08	0	2.4981941133165434E-13	-2.054845463004388E-06	-1.3229779999559504E-06	0	-4.027504686322804E-11	5.7394453727068584E-08	8.811231369631312E-08	1.8068101067757655E-07	4.3230758537215153E-10	5.983511765800542E-07	3.44973921383285E-10	3.990399612404023E-08	-2.4926252540860916E-06	7.671733436154873E-07	-3.079069804280866E-07	-1.6840777183458429E-06
-1.8837376190149943E-08	8.615922124800768E-09	-1.922845372510883E-08	3.604903082149595E-08	6.145514433593864E-08	2.4993435313302516E-08	5.850738172531805E-15	-4.410014225707448E-15	2.1047748714857416E-08	-3.341110317921789E-07	5.694770111106938E-09	6.966928746599802E-10	-1.9464923198531842E-08	-7.628077127830452E-12	1.5195753912663445E-08	-2.334416004155336E-10	-2.0528786762043845E-11	1.7282671568305818E-10	6.771324087977911E-07	-3.157277683989497E-08	-5.208623058658113E-09	1.2460578890320692E-07	-3.0052539365811067E-12	8.770002073759702E-14	-3.298215329303105E-297	-1.5192522631966873E-293	6.664166908909316E-12	-6.332458842774203E-09	3.271594049761556E-11	-7.50355148086581E-10	-1.865546108564955E-11	-7.470729307474889E-301	4.0093700744257464E-297	4.2044851756960605E-293	3.7438646097743738E-295	3.751337340210476E-14	-8.346940284264159E-09	4.215844332669794E-15	-8.289208377833315E-296	-7.830922988853932E-297	-2.5E-323	2.5E-323	2.5E-323	5.2305567428895704E-294	-1.3148875205547181E-12	0	0	0	6.231379172965676E-300	0	0	0	-2.5E-323	-4.082453276541475E-09	0	0	0	2.0665412573193192E-298	0	0	0	-2.5E-323	1.082189680638414E-08	0	0	0	-9.274179577501107E-299	0	0	0	2.069247423224054E-10	-6.089804591157817E-07	0	8.286428713268222E-09	1.4712248679039376E-07	-5.2785524670609005E-09	1.6683467237365183E-07	0	1.831844065323882E-11	6.104551976771005E-08	-5.2796587332984305E-09	0	1.1384610140198207E-08	-2.6431495249236475E-11	-4.123955684607149E-07	-6.214463885872829E-12	-1.320304094951063E-09	-6.5215803733746615E-09	-7.177497924661673E-09	2.2996817031261206E-13	-6.5412224249881074E-09	-4.123887234289415E-08	-3.6102869285204994E-07	2.9502267541354406E-07
-6.458179593780178E-08	1.7881830862978606E-09	1.6538073097487589E-07	2.0628856438755006E-08	5.429602616702401E-07	-5.884140422817033E-09	6.752086937445266E-10	-1.0840042541242914E-10	-9.338155246529237E-10	-5.0960052718823835E-08	2.876094075400219E-08	8.02406603214468E-13	-1.8000142997490154E-07	1.3955168848395358E-07	-5.9390416788938734E-08	-1.8307498955467713E-10	-1.0019475330741153E-10	9.544201330644495E-10	-1.775668295620043E-08	1.0247851968615073E-06	1.1532101986861189E-10	-8.236504731312853E-08	3.1882822061831604E-12	3.326214517746783E-10	1.793811475586999E-295	-6.356273624593105E-295	3.0738891125665095E-12	1.3736051995277789E-11	-1.1028286710784413E-11	7.649152345854622E-08	-6.646932385201356E-10	-1.0525170411047309E-295	5.0245525607980465E-297	2.3428968899488778E-293	4.217364856130358E-293	1.0595550611770684E-11	-3.6707357773775714E-09	-1.6085534745288567E-12	9.105357440376059E-297	-5.29357936694318E-295	2.5E-323	-2.5E-323	-2.5E-323	-2.7594900063162948E-295	-1.6786259423278043E-09	0	0	0	1.565961876028606E-298	0	0	0	-2.5E-323	-4.797797457110489E-08	0	0	0	1.8790728558656687E-294	0	0	0	2.5E-323	-3.4925534893784106E-11	0	0	0	-1.1909416577525515E-296	0	0	0	-1.014341519085001E-08	1.1593079149858055E-07	0	3.834601111918507E-09	2.4230933129481264E-07	-1.3613101858870925E-09	2.79575927159066E-07	0	-3.6314168991101186E-12	-3.547539098942335E-08	2.9409565569974468E-06	0	-2.2670259918665073E-10	-7.467683449304918E-07	-7.933127780550293E-08	-4.196287292609028E-08	-1.6114185871661354E-08	-5.37170839465349E-07	2.6248252051919556E-07	3.8755293845706814E-08	1.0113773430880741E-07	8.957297035092602E-08	3.316613675639095E-07	3.3790666843189535E-06
1.3676643711821363E-06	-1.2015758610353758E-08	1.3970981902234179E-08	1.437605923776381E-06	-3.006836996752159E-07	1.3647822329855553E-07	8.867851699114837E-10	4.496588763134471E-10	1.202809269430336E-09	-3.053441439669983E-07	-2.9213937774371005E-07	-1.4490214695280763E-11	4.0212036094270483E-07	3.074779721957155E-07	-5.653142632007573E-07	-1.4329575590961806E-09	-8.842057631067444E-12	6.61361356001284E-09	-2.3231055781165815E-07	1.1878063248806717E-06	4.444733989959655E-07	4.0981872792570654E-09	1.7558887756923214E-13	5.377416593983101E-13	4.99718661582137E-296	-3.2994677988885004E-295	8.330545248437822E-13	-2.4573956178649623E-08	2.4080031401569808E-08	1.6704991948193433E-09	-1.3810442264332057E-07	2.5817919470853985E-296	6.585403562954031E-298	3.1053886906415046E-293	-3.8857983265428405E-294	-2.4916148319060254E-13	6.184581827739864E-11	-7.698155122328148E-13	1.0197056825106829E-294	9.227352932640901E-295	-2.5E-323	-2.5E-323	-2.5E-323	-1.9479016805481364E-295	-1.5432047850704354E-09	0	0	0	3.9115286968296714E-300	0	0	0	2.5E-323	-1.1766581692598246E-07	0	0	0	2.4033372002967953E-294	0	0	0	2.5E-323	-7.463234582714889E-08	0	0	0	-1.4633829821498382E-298	0	0	0	1.3876986066398027E-07	3.9490677095496063E-07	0	3.1221888897076807E-09	-7.580864161586398E-08	-1.5646977707006455E-06	-4.390364795686682E-10	0	2.9760123249625883E-12	-2.8366385296062686E-08	-3.124758284480239E-08	0	-2.5215744097605097E-09	1.1411595139381491E-07	1.6391685784851632E-07	-1.49124572058116E-08	7.999696676344183E-09	-7.675842192211473E-08	1.8507276734124234E-09	2.3572301292995413E-10	1.5185719483377246E-07	4.2806099836724157E-07	1.7395675296505023E-07	1.547171614437033E-06
-2.846884673849413E-07	-6.434560380898809E-07	-5.406433674851951E-10	-2.9640171397011518E-06	1.1051560390301568E-06	4.693443811016932E-10	-6.8157703764311436E-12	2.0325991859159688E-11	-1.094656223166035E-11	1.443581083037497E-06	-1.792579024190779E-07	8.13290441158618E-09	-9.776270039135975E-08	9.698251751830318E-09	-4.4385709779765623E-07	-3.138189288890566E-10	-7.1379342569048365E-12	-5.883249915481663E-08	1.1180529940768073E-05	4.57193407590825E-09	-1.0569742990990539E-07	-2.125190841818153E-07	-2.3227859695536075E-09	5.908265360745361E-12	-1.294227093758903E-296	7.916202558135762E-295	-2.52540307346973E-09	4.49270109106008E-11	-8.994444711941955E-11	4.4664869306034313E-10	-7.500294104959857E-11	1.2175873361558291E-296	-1.0730288128517333E-298	-5.284269218268622E-294	2.8314566206812736E-294	2.0500057069354946E-11	1.2814911639433192E-09	-1.728799455105686E-13	-5.818853759069626E-298	-3.4886599044997853E-295	2.5E-323	2.5E-323	2.5E-323	3.421438154136355E-293	6.086814864552767E-09	0	0	0	-2.1616795316846183E-298	0	0	0	-2.5E-323	2.5607665900492627E-09	0	0	0	-9.088372767429795E-296	0	0	0	2.5E-323	2.25735646971332E-08	0	0	0	1.4746273969683474E-296	0	0	0	-9.269906002704654E-11	-3.422955907082669E-08	0	-2.5431250142791587E-10	2.385449079349327E-07	-2.631036173968885E-10	2.8843751359245688E-08	0	-7.777274370590641E-13	2.3774646121511604E-08	4.0413340653275956E-07	0	3.4136690321353067E-09	-2.5947650492527718E-11	2.632545927996357E-07	-6.386461636496681E-08	1.0700673626128607E-09	7.721491137291005E-07	8.353129519845826E-11	-1.2826908233787554E-08	-4.0161796865817445E-08	9.486966657376505E-07	1.3871948705785877E-06	8.117179436375459E-06
1.3015861753897605E-07	2.1738283398964281E-07	1.5574918266534576E-08	-6.396653985172679E-10	1.2117662870571573E-06	-9.664367734411043E-07	1.7186916059185156E-10	2.033979985201797E-09	5.4158713610233267E-08	1.001192170856234E-06	-1.1686574778290674E-08	-1.0968504173524263E-09	2.4383367583116375E-10	7.874672715521265E-08	-4.902302081666615E-10	-1.6190446772900188E-10	3.285629493120348E-13	1.112276531034269E-07	-7.614376795881593E-07	2.838979977969341E-09	-3.6976954008592546E-08	-5.6304962616268424E-08	2.896023188930739E-09	-1.1531381095429045E-10	1.8168402178073718E-301	3.3563742881494156E-295	-1.1148580022668233E-09	-2.98367113025295E-07	6.222615070719824E-09	1.194277319191367E-10	-1.086730578645945E-07	-8.185938800137547E-299	-4.1295956685359264E-297	-8.202314624491327E-294	-1.9118628269039084E-295	-6.419078789954106E-13	4.487040401566199E-09	1.9816012526891055E-10	3.547412848205601E-296	-4.028482052962327E-297	-2.5E-323	-2.5E-323	-2.5E-323	-6.418641107694349E-295	1.2598955109960819E-10	0	0	0	-2.2909098974395408E-299	0	0	0	2.5E-323	2.1604886683956058E-09	0	0	0	1.0718852522766205E-298	0	0	0	-2.5E-323	-1.948075654898238E-09	0	0	0	7.408322504234794E-296	0	0	0	-1.2294360260203862E-07	7.962796598436939E-07	0	-1.897598946398552E-09	1.3130657908830724E-08	1.252923988692732E-07	-5.1860891828510096E-08	0	7.858108645421069E-12	1.6743776374488465E-07	-5.904363194460277E-07	0	-9.294282372741044E-10	1.0837575962728265E-08	1.2344275813818752E-07	2.6474709852312155E-09	9.151802315516498E-09	6.564086136612059E-09	2.993345602307709E-08	-1.9286321993014934E-08	2.1940123496709666E-07	-7.933539773957703E-07	1.1343623672617902E-06	5.332177026380935E-07
-1.4015428278969362E-06	-8.007772223701077E-09	3.9720653207784536E-07	1.2624348087300516E-08	3.42167242607068E-06	-2.2561314020587643E-06	-8.633898108303366E-14	-7.1201249166500765E-09	-1.176374535234468E-08	-4.3991896625262065E-10	-1.5251955166654704E-07	3.4256830581331736E-10	-5.1892181729530665E-08	2.537535443429435E-06	-2.3554098420298116E-06	-1.5744748192385875E-09	-4.302333844329382E-12	-2.995253003002923E-08	3.609270020375139E-08	-1.7172161963914493E-11	-8.416575224027985E-08	-1.9302271320719936E-07	-5.960254764227196E-11	2.0545189707401579E-10	-1.2952608260875434E-297	8.53977888745021E-295	-1.0797272731472911E-09	5.382477954438412E-09	-2.7523036334124677E-10	-7.39232441294561E-08	5.746165458807836E-10	2.0109123263592704E-297	-3.0808005627112325E-296	-1.2455611173005964E-293	1.1183219432255046E-295	1.9825585800776618E-11	4.8658598183998516E-11	-1.425689641741526E-12	-9.69141005330792E-297	-1.4559139782329554E-295	2.5E-323	2.5E-323	2.5E-323	5.4598027290587754E-294	1.2219316550434862E-10	0	0	0	2.8053745015649673E-300	0	0	0	2.5E-323	-8.492144165754161E-10	0	0	0	-1.4433239908009276E-293	0	0	0	2.5E-323	9.412003781265173E-08	0	0	0	7.579181424897818E-296	0	0	0	-2.1207754622935552E-10	-3.2992324081036386E-07	0	-6.813976374149857E-10	3.547350002442056E-07	-5.690951476647574E-07	4.4344086515306147E-07	0	-9.760762797350605E-11	1.0669336856866752E-07	1.9436835968924224E-07	0	6.027827357517765E-08	-4.401953923811209E-10	-1.090342037029234E-07	-8.120158585179604E-09	-4.095527648688571E-09	1.5917421324794237E-06	5.9289349546829E-08	3.758546213798298E-09	3.3106900256925E-07	-7.460800595815368E-07	-4.6467393237336986E-07	2.548485765582633E-06
1.4257161236148234E-06	-4.192445100003413E-07	-9.891783463125864E-08	6.979224705103173E-09	-1.7265858540820706E-07	-7.344211765351679E-08	1.2206563424974857E-12	-2.069263749352602E-11	9.405045473940934E-08	-2.214970926574529E-06	2.4758245393775987E-07	-3.2985692782066783E-10	4.0676106761777065E-07	-3.919308174179514E-11	-4.853816239320935E-09	1.7776230477977785E-09	-1.716033953882922E-11	1.1757607891239222E-07	-4.302004000271806E-07	1.5998636412165753E-07	7.100210680031855E-08	2.688507471973496E-08	1.774690793261482E-09	-3.6638056847332417E-10	2.0790668833324525E-296	-4.950340671366683E-294	1.0636337759800013E-10	1.5331582718620768E-07	2.021749187987658E-09	6.347285428771724E-10	-5.978965216896692E-10	-1.0829314546428001E-296	4.626575800201282E-296	-3.540394763076414E-293	-2.115777775956004E-293	-1.595148590368798E-11	-4.882813175154555E-08	9.237809363351203E-11	1.7813349802986631E-295	8.993787498438962E-295	-2.5E-323	-2.5E-323	-2.5E-323	-6.941211325810084E-296	-1.5102649724470958E-10	0	0	0	1.5712818219809243E-298	0	0	0	-2.5E-323	-7.073647928010233E-09	0	0	0	2.4229028978180725E-295	0	0	0	-2.5E-323	-6.717329543807324E-08	0	0	0	-4.9591676078495794E-297	0	0	0	5.64765775891218E-07	-2.621321025686923E-09	0	-1.1808857161042247E-10	-2.9946057477305735E-09	2.3484204801740983E-06	-5.354556266054217E-12	0	4.344984215008491E-12	4.40063491155153E-09	1.548934911056608E-08	0	-1.3093084500666865E-08	1.2170415946041599E-06	1.1659927502735067E-09	9.249218665259003E-08	1.8545260226884556E-11	-1.473799020313873E-10	-8.179220507746012E-08	-6.317978527793914E-09	4.197888519394922E-06	9.442364390918894E-07	-1.5951164873385643E-06	-2.3293747837580811E-07
-7.338671135781023E-07	-2.7231025535746157E-07	3.6226258671150807E-10	-2.2452414737313998E-08	3.3588481840393546E-08	-2.9286507550911577E-08	-1.4967704427895619E-10	2.7252847810400362E-09	9.091481847855204E-09	9.932410727090036E-07	-3.005878838708813E-08	1.4937794065606175E-11	-1.0835554462709405E-11	-1.2190709436659369E-08	4.972757499177145E-07	4.988240202076737E-10	1.817009056982239E-11	5.191782052719408E-08	-8.026142110290217E-07	-9.106727194348374E-10	-1.1366217364844102E-06	1.4946364758973814E-09	-2.258119165578655E-15	-1.0024608554527917E-17	2.0584220860627648E-296	4.203865061331624E-294	8.218629633493633E-10	3.6666034550241536E-09	-3.2089122539216894E-11	-6.570524470561393E-11	-8.061728444660603E-13	2.952443228375814E-299	-8.708026359122908E-297	-8.629987655412823E-294	1.0365687315315795E-293	2.0643156307874406E-11	3.118112208405431E-08	4.103861095728127E-11	5.610459454608059E-300	-1.5973597508886669E-295	-2.5E-323	2.5E-323	2.5E-323	-3.101230674015248E-293	-3.394030945776166E-11	0	0	0	1.0526529851888612E-299	0	0	0	2.5E-323	1.288079361421265E-08	0	0	0	-2.796408440489198E-294	0	0	0	-2.5E-323	6.543066369808561E-11	0	0	0	7.109014387864911E-297	0	0	0	-1.2881279699305425E-06	-3.2687760797664315E-07	0	-5.623916151347103E-10	-6.723254534584083E-08	-9.302426698227504E-07	1.3500620997726927E-09	0	-7.158679431285653E-12	1.2671277455047515E-07	2.517074719421467E-07	0	7.773668170010466E-08	1.414430159345724E-11	-1.313039903777696E-07	-3.6702826485610706E-13	-3.077859215425268E-10	3.777644713523037E-12	-5.949636564786182E-08	2.0572055995071382E-13	-3.2017373363866164E-06	-1.8035774386835301E-09	1.186267489508875E-06	-1.7310595579285696E-06
1.5399963200989642E-06	-2.4971201919813827E-08	-1.10429541887695E-07	-1.4675363955688867E-06	2.251462660200519E-11	1.9255575744411948E-07	-4.228869788168915E-09	-4.2814254341771355E-10	7.948690505473703E-08	-1.9339679958630442E-09	1.4215989270795991E-08	-4.87078225520949E-11	-1.6006070692468992E-10	-9.939352997654723E-07	-8.348306128223712E-07	7.114847631396671E-11	-1.5724626062360858E-12	1.848825121489761E-07	-2.0265530818824725E-06	1.6972194037801229E-07	6.702372186888758E-07	5.544896516146057E-09	-4.970434513273812E-11	-6.430006291279208E-13	-5.769304853905442E-297	2.2616848018559244E-296	4.3989610391706306E-14	5.582065372961187E-07	-8.90507663023013E-11	3.7916320155705E-08	-2.092215037105995E-09	-5.249055076677576E-296	1.2942986551277884E-298	-2.2837684586524175E-294	-9.02026949139254E-294	8.547112993932977E-12	7.4672583512436E-09	5.651817028377101E-11	3.1627291605800393E-296	6.6123429929431705E-295	-2.5E-323	2.5E-323	-2.5E-323	4.6170564434614123E-296	5.772271044437813E-10	0	0	0	-3.1535333129254396E-300	0	0	0	2.5E-323	-1.6754267647164797E-09	0	0	0	3.343272325574844E-294	0	0	0	-2.5E-323	-2.9056784911229644E-08	0	0	0	-3.3594633077216914E-299	0	0	0	-7.664105621793642E-08	8.791309033508882E-07	0	1.215371054229735E-09	-1.7571181930843883E-08	-2.760216122098829E-09	-1.421764303235766E-09	0	-4.973305114987684E-12	-7.224815673478885E-07	-5.10033936763347E-07	0	-8.481604377603676E-10	2.3056872098691837E-07	2.308597010673769E-08	9.454113766592018E-07	6.157333666770568E-09	-1.9614902133726392E-07	-7.495277750426559E-09	-1.3883732129442252E-09	-1.4652363806418094E-06	1.3583675788687135E-06	5.1064873617241885E-09	-1.3865171636001615E-06
6.806888794779684E-07	-1.0469087659053705E-07	-6.377098440295815E-08	2.21749686414675E-06	-6.564122871414102E-07	5.927243949449008E-07	1.3978701288074908E-10	-2.6450820820158024E-10	1.7563334662610085E-08	-1.5673359817548289E-09	2.6016395322102765E-07	-6.374161933904448E-11	6.309695573338968E-10	5.087655677075103E-09	8.783916500671596E-09	5.855827513860763E-11	-4.98921712501396E-11	1.0592232060152851E-10	-2.1049200111772867E-07	2.7619055767369216E-09	1.225873674059167E-06	3.943413979995844E-09	4.900981091777307E-12	4.81476719079023E-11	-3.2255205900373795E-297	1.3720120275209824E-294	7.963962232748832E-11	-8.48994746019155E-09	1.241676160039194E-09	9.18475419086087E-13	-1.163724670159499E-10	-6.971972558123578E-299	-2.689332670214974E-297	2.1222759120652559E-293	-6.280165225071176E-294	-9.83667877234066E-12	-6.835253459703024E-08	1.1330536796930615E-11	-5.759841729084785E-296	6.031449611030449E-295	-2.5E-323	-2.5E-323	-2.5E-323	1.5015031647456957E-293	-4.877426479991725E-09	0	0	0	-5.665659831312424E-302	0	0	0	-2.5E-323	-7.364737077408886E-11	0	0	0	-5.447598655413249E-293	0	0	0	-2.5E-323	-1.2496799070065435E-08	0	0	0	-5.2398352120123694E-298	0	0	0	7.61618995080396E-07	3.1381774875902863E-07	0	-6.201889145124248E-10	-7.159089500130085E-11	6.796826983727142E-07	-2.20204677475396E-08	0	2.962543132775783E-12	-3.7918288781118076E-08	-2.6410747960692633E-07	0	-7.81145671862465E-08	1.7548390391615964E-11	1.8698092661712957E-08	1.1228230946653698E-07	3.8905052321085236E-10	-8.444436553423509E-08	-3.267525787131567E-09	-9.100300279435897E-10	2.1055825292341706E-06	-2.1678166481715657E-07	3.0596713991931397E-08	3.3613189744109443E-06
1.025881546414736E-06	5.305926963723607E-08	-5.381000592020425E-08	-1.0815000564311524E-06	-8.503940678844617E-08	-1.7307220517204447E-08	2.9710622175125535E-12	-1.1753485629505922E-09	6.800082759922531E-08	-2.0151457202099338E-08	6.230641587962499E-08	-2.1346802661637255E-11	9.256600981940465E-09	-2.1465787671090822E-06	1.9854018699908697E-07	2.976396916737976E-10	-1.9394575569631432E-11	7.343913191551355E-08	-1.1292819558640367E-06	4.97033267328821E-06	1.1039305088136258E-07	2.735361768454741E-07	5.440643474865373E-10	-5.979705028255903E-10	2.7446371711527216E-296	1.716668237366805E-296	4.193007475204582E-10	-1.1288735023495372E-06	6.7901931809458235E-12	1.0253741004907964E-07	-5.530787494528785E-09	-1.648027450436765E-299	9.100923531792826E-297	-2.2022168959607615E-294	-3.0556804231583243E-295	-9.4300288039673E-10	2.5098850385693308E-12	3.622689218921307E-10	5.782692285793706E-300	2.4157893762512414E-296	-2.5E-323	-2.5E-323	2.5E-323	-3.584758751889675E-297	-1.6629020186534031E-12	0	0	0	-2.8211476420996823E-302	0	0	0	-2.5E-323	-1.1386792641194477E-07	0	0	0	1.1440532982027547E-293	0	0	0	-2.5E-323	-8.172429671787869E-10	0	0	0	2.866009004353519E-296	0	0	0	2.340035276455648E-10	-5.592303956712284E-12	0	-1.18592188383069E-09	-5.0959569305045235E-09	2.8795336554665325E-06	-2.571978977229119E-07	0	3.914114644059554E-13	3.665639306109953E-08	9.980977635517198E-08	0	-3.341382551256135E-08	-5.218819504626491E-09	-1.5966495973972253E-07	1.7425307918265525E-10	9.988330835868539E-10	-2.3532241255873677E-06	-5.020621814877035E-10	-3.7243734483713394E-13	-8.682218996749827E-07	2.5209812413581185E-06	1.5666846346280792E-07	-4.4412825290691305E-07
-2.9763169338802976E-07	-2.5463301287959185E-08	8.624487055160454E-08	1.6021968630167474E-07	9.398235400770715E-08	-2.7817437037808505E-07	-1.548178060352243E-09	6.65252507291557E-13	-1.7195511462756467E-11	4.087890798848121E-08	-1.7047572002379124E-08	2.631792366443433E-10	-2.1616622300634554E-07	1.3921680083604985E-06	-1.2119999649833551E-07	1.8529877705451586E-10	8.1735406546133E-11	-3.599113229692533E-11	3.8468124105549075E-06	-4.365339811001943E-11	-4.836073555614483E-09	-2.814224695562609E-07	-1.814053056777277E-10	6.829971699112497E-13	-2.04265399289239E-296	4.358715135173591E-295	1.7296109159131202E-16	6.426020993312979E-12	-4.511251458757359E-14	-8.537961545798573E-10	-2.2748479540297438E-11	3.0941726266658747E-296	-2.690078285431658E-296	-3.378777740866136E-293	5.789286301956698E-293	3.948573541556271E-13	-8.856753707431484E-11	-5.883885017376991E-10	-6.491710952305139E-295	-2.6597446381804956E-294	2.5E-323	2.5E-323	2.5E-323	9.035612635941102E-296	4.250520543989242E-11	0	0	0	1.9986282952264764E-304	0	0	0	2.5E-323	2.5372165261218755E-09	0	0	0	-3.334549569102578E-294	0	0	0	2.5E-323	2.967331099816997E-09	0	0	0	9.849837018417153E-298	0	0	0	-1.3463536881016745E-07	7.350922682722763E-10	0	-4.592411618331715E-09	2.357907351461071E-11	-5.124740702437363E-07	1.0278146363750071E-07	0	-3.1833258094844124E-14	6.842821779592043E-09	2.1001306846662703E-08	0	2.0562436609898122E-07	-1.1157836168995494E-10	-1.1794812886803883E-06	-3.677028595423981E-10	-5.662320724639382E-12	2.2405843576521387E-08	4.10654338093143E-08	1.2248249180155828E-12	2.13875397709316E-07	6.448220260578689E-07	-1.2192223781247495E-06	3.3104079759961306E-06
-2.0672389771436938E-06	3.7476930850783245E-12	4.171732323042537E-10	-3.940174873354585E-10	6.114103112126767E-12	-1.1045488666864828E-10	8.601457723911931E-13	6.975639430791392E-12	9.417945908740208E-09	-1.997991872617007E-06	-1.4142286402854794E-07	4.195254545142848E-10	-6.71536724724268E-09	4.5582473004407447E-10	-3.866189786946437E-07	-1.2967135622681867E-11	1.777678988560646E-10	-1.1491385179019994E-11	-5.030896466625833E-09	7.98211174674167E-11	4.1047685701965684E-08	-5.4464483146451125E-08	-6.60012484187961E-10	2.3969810244428525E-16	5.226358572005504E-297	4.638045448262145E-294	-6.077420405707758E-10	7.379556564193168E-08	3.3916795977228397E-13	-4.74503088114987E-08	2.6550634535663607E-09	2.166055242708422E-298	6.139090941839978E-297	1.6219175761893074E-292	-2.680103140096143E-293	2.7250665263590574E-17	-3.822583600705351E-11	3.014951864112728E-11	-1.5293074738831888E-295	7.238046802715017E-298	2.5E-323	2.5E-323	2.5E-323	-1.0373315042690014E-293	-1.0821114311293036E-11	0	0	0	-4.456593627714329E-301	0	0	0	2.5E-323	1.9610940238192196E-08	0	0	0	-1.5975352039729609E-295	0	0	0	2.5E-323	3.6803931927449495E-10	0	0	0	5.299782231638576E-299	0	0	0	5.0655208848643793E-11	-1.413421967356224E-08	0	1.6801314328962323E-09	8.590788937417213E-09	1.6155354980055517E-09	3.254114297486331E-09	0	2.5261110520122847E-12	2.7839101168436255E-09	2.5270186114832467E-06	0	-9.338983078631322E-09	3.359736560301133E-08	-7.750395130851085E-08	-4.562421087313314E-09	-1.2642661433892382E-11	-1.7384321618009038E-06	6.898618870299751E-08	2.0989811797491505E-11	9.865664315536086E-08	-1.8519183097595817E-06	-2.456520242791972E-06	4.531124056956532E-07
2.35483836268631E-10	3.919395792817045E-08	3.416057812084771E-08	7.093649162542745E-07	6.0112133400593555E-09	-4.409227878634705E-08	8.349671693714618E-10	-3.141627094925102E-12	3.356590431675361E-13	1.300281081804115E-07	-2.1326520507776924E-09	8.091934654015723E-11	1.5425087840430678E-08	1.0727082794241685E-07	-1.0742030953167365E-06	-1.003239261067219E-12	-1.6875121179051815E-15	2.2384624171779408E-09	-4.490997576165424E-09	1.2768954676559573E-10	-7.28407368885789E-07	1.4914805649557154E-10	8.826589125063557E-12	-1.0253480015313621E-11	1.8365517903600135E-296	-3.8396842145270893E-295	1.9001689804041316E-11	-9.196356721441112E-09	-5.915839861615192E-10	-2.0777139088160177E-10	7.556953723159569E-10	1.1279472487902978E-296	-7.411565984995405E-301	-9.098396953747268E-294	-1.0785012119291773E-293	3.1526352208736357E-10	4.514029153589069E-12	1.4027402930694101E-09	-2.4631539071377395E-296	5.940832489561974E-297	2.5E-323	2.5E-323	2.5E-323	-7.223378338532547E-299	-2.2393653071413162E-09	0	0	0	2.6675469240987255E-300	0	0	0	2.5E-323	-7.561281913270152E-09	0	0	0	-6.019180278119291E-293	0	0	0	2.5E-323	6.985002947921556E-14	0	0	0	9.34189441906336E-296	0	0	0	-3.308757715577006E-08	-2.2209865521146462E-09	0	5.037251966037758E-13	1.5854733780257156E-14	-2.034053156836841E-06	9.849209378924412E-09	0	1.0595878315856366E-13	-4.503879878757818E-08	-8.792114314032813E-11	0	2.2260452620406598E-12	1.4392303109858028E-09	-5.940870548130611E-09	-8.551478776727543E-09	-7.028946232903547E-14	1.7930214085017823E-08	-2.7510074657132305E-12	-2.313881762446658E-10	-1.4658532317682408E-06	-1.851547494294887E-06	-2.9170931894786262E-09	3.948149803532992E-07
-8.701510464221655E-08	1.8143245048740536E-07	-3.419996323971965E-10	9.683653649871392E-07	-5.940526149791547E-10	-4.5036458049383074E-08	5.8101271129407434E-12	-1.6953635015460434E-11	1.6486425358205853E-14	-4.122432832135713E-08	-8.826140320946899E-09	-2.0168615540456085E-13	1.0909972968919805E-11	-3.4405208304451005E-07	1.61236899044065E-06	-2.0020208964607672E-15	5.84153224185394E-15	1.3977273278045785E-07	2.997969428965335E-09	1.080169916833843E-06	-2.0682017148594796E-09	5.324284694685052E-11	5.805608287346098E-12	-1.762583631959297E-10	-5.960899915105735E-299	-2.021974433170583E-295	-1.5088052406963886E-13	-8.48846224159217E-09	1.877583345687001E-11	-4.0716300672421116E-11	1.8511695029493536E-09	-2.4903992103880457E-296	9.869207050577066E-295	6.397456888144659E-294	1.414419749330014E-295	-7.443410923427505E-12	-6.38164907007725E-12	9.857603480089836E-14	-6.496753903253931E-298	-2.5837640819760773E-295	2.5E-323	2.5E-323	2.5E-323	6.041449703473623E-296	1.3571563446501649E-16	0	0	0	-9.244982819845541E-300	0	0	0	-2.5E-323	2.2907957038955143E-08	0	0	0	4.232397093547856E-293	0	0	0	2.5E-323	-6.133098687984397E-10	0	0	0	-1.9246915077900281E-302	0	0	0	1.8830791738489787E-07	-1.9628323938706272E-07	0	1.30760402858574E-13	-4.084198358053766E-15	-7.455942204334435E-08	-3.895600235036662E-09	0	1.1975903919096491E-11	8.294950560197801E-08	1.567810719313967E-07	0	5.605144560338994E-16	2.766437780675327E-07	-2.5190757621739143E-09	1.5556774468057395E-09	9.125915332727214E-10	-8.306176917452804E-07	5.322407635078022E-11	-2.773638312315961E-09	2.3394435950863333E-06	9.515528899681993E-07	-8.867860175024915E-09	-2.141084546316213E-07
9.672623992973966E-08	-2.7495534752711165E-07	8.489134749774001E-09	-1.6252673282287275E-07	-6.61167739298637E-09	1.3737071485784028E-07	-2.528856675709537E-10	-4.446768550753475E-10	-2.4078386008859736E-11	2.4080502927182274E-07	6.44263087691564E-09	3.1676797086460944E-10	4.941135360431416E-08	-1.7251279147797296E-08	-6.66329069691139E-08	-1.927024417019883E-09	-9.170400575381882E-16	-3.963217028435303E-10	-2.9969952012387845E-08	1.6034642038995547E-06	4.233399316347004E-12	-3.0402098779514377E-09	-2.8582440441891286E-11	9.690058521461382E-11	1.3937450014791557E-296	-8.190359849902275E-295	-1.3623357835376453E-10	1.4905478671406923E-07	-1.33941567018602E-09	-2.4470668685186347E-09	-1.3549845864043022E-10	1.6735541594832642E-297	-2.581625182099342E-297	2.7381261862913196E-293	-6.558812889559242E-296	-7.763533871164279E-14	2.7229651059767122E-08	1.4836264499723055E-11	1.4888503934007786E-297	-3.914183007440875E-296	2.5E-323	2.5E-323	-2.5E-323	-3.6578570425393516E-297	6.467517313381985E-12	0	0	0	3.4117264875042496E-304	0	0	0	2.5E-323	-9.239208760050921E-11	0	0	0	1.0476099867204352E-293	0	0	0	-2.5E-323	-6.7247096121108E-09	0	0	0	-7.894884604037978E-299	0	0	0	9.480719335390688E-08	3.40721179801466E-10	0	-9.00909386394518E-12	-7.057581030604193E-10	-3.7559003907551365E-11	1.383722187534144E-08	0	1.4704736866181327E-15	-2.0552670965415792E-11	-1.880692380577189E-09	0	-6.760746698560004E-11	-6.765719241597618E-11	-2.261475005875823E-07	9.209231834663244E-08	8.08328310379868E-10	4.75307373046567E-08	-2.160868789348595E-09	-4.9776575383518775E-09	1.515260260714343E-07	1.4973366172380516E-06	7.039714468265044E-08	3.85777516760317E-08
2.9181804501580556E-07	-5.7840567792297214E-08	7.69102670992974E-11	1.0755906577249819E-07	-3.403437521632103E-09	2.6603476982784087E-07	1.5607697943267216E-10	2.3984094580820795E-09	-3.0694781399781744E-09	2.4336685446759267E-06	-3.9314059133848364E-07	2.0866020911441387E-09	-2.221252063844441E-08	-1.2841874746298471E-11	1.928279901882162E-07	-1.5096750832046747E-08	4.472076159713784E-10	-3.062228480415219E-07	5.905530813955033E-10	-5.980494014632779E-07	1.2530180041981492E-07	1.6751011309420678E-10	-1.8927198245141554E-11	1.4208452242880927E-10	4.872998084183133E-297	1.389020396967268E-293	-1.7804155343169287E-12	1.6747026730030973E-09	-5.650936396888269E-10	-1.781728363227873E-09	9.050729194888461E-12	-2.165377414627785E-298	-7.5590778246348674E-295	-1.3098105610275714E-293	-5.599337342163106E-293	9.583277538435173E-10	1.4764503304002857E-11	-1.11215373667699E-11	1.2600314388636435E-296	-3.9059468753063153E-295	2.5E-323	2.5E-323	2.5E-323	9.067590079435524E-294	1.810081160427709E-12	0	0	0	-2.3814574636273407E-298	0	0	0	2.5E-323	2.2633692427148455E-10	0	0	0	4.640625155456978E-295	0	0	0	2.5E-323	6.456404409768758E-11	0	0	0	-3.257788453514583E-296	0	0	0	-5.962749773210341E-08	-4.350252731809658E-07	0	-1.5413212468561196E-10	1.6643461618979934E-07	-2.294816412049467E-07	5.420698877288422E-08	0	-6.91904283878044E-11	1.3990934582937177E-07	-7.1007976002133E-07	0	-3.730649920254776E-09	-4.4745807301934333E-07	6.046309434082974E-08	-2.982212909338991E-07	-5.1477873572311385E-09	5.328071461321401E-07	-2.827640170514394E-07	8.779744834893504E-11	-3.8939221792966225E-07	-1.2561239584277716E-06	2.2008404685133693E-06	-4.8376578476013235E-08
-1.0127531536521028E-08	-1.4178283329016675E-07	-1.4238202066417498E-08	-1.108353575016017E-06	-2.8409932450143826E-06	-3.929183304191177E-08	-1.9527969786579628E-11	-9.598585897885632E-15	3.4279153330671125E-09	2.816548916288841E-08	-9.279736638732793E-11	1.882284130743532E-11	1.958694845896359E-08	3.17403208897183E-07	-2.412957838881443E-10	9.647460370964517E-12	-4.3035466062254616E-15	-1.1928441007648058E-11	4.247864089254059E-06	3.8761613125701786E-10	-1.2325900869078868E-07	1.7734090593869625E-11	-1.6932774928199336E-11	-5.425507791822362E-11	-3.095452856828036E-297	4.5301163957424556E-296	5.853364987329614E-15	-7.752053820808528E-08	-5.889430647514072E-12	8.915763485295906E-11	-3.1257253371560294E-09	-4.403852839753704E-296	-5.9035796800578325E-295	-7.7164655807244774E-295	1.029229922815698E-293	-1.0075039548940982E-09	1.1475117158258073E-12	-6.79407529925451E-14	5.318696460260078E-298	1.1998494540574672E-294	2.5E-323	2.5E-323	2.5E-323	1.3327786598764616E-294	2.638693414378612E-12	0	0	0	1.249755385461726E-305	0	0	0	-2.5E-323	-3.3111713677896584E-11	0	0	0	5.579792320395618E-293	0	0	0	-2.5E-323	-3.7140602906855803E-09	0	0	0	-5.387332239275632E-297	0	0	0	-8.300968457277563E-09	6.326726506740027E-08	0	-5.554926506628585E-10	2.2659327601613387E-10	-3.66096091396348E-07	6.178182369486076E-10	0	-3.8319035340868495E-12	-2.9157976774175264E-08	5.186136990099773E-07	0	-2.2312195651777334E-10	-1.249749008586448E-07	-4.4700024446393985E-07	4.788671054382613E-07	7.683082235052787E-09	-4.169987927830521E-09	4.712065819626173E-09	2.124422047498749E-09	-1.0328297975511026E-06	-1.262392414003256E-07	-4.890793629668794E-07	1.9968623811350447E-06
5.104468029363289E-07	-5.656319386141146E-12	1.7279781054700285E-11	2.890670002135835E-06	-2.6842420128184494E-06	-1.205647268387056E-10	-3.2106991645898134E-11	1.2545326216268803E-09	1.3846569300026724E-09	1.4647236726683649E-10	7.589501406266706E-10	1.0551008745889055E-10	3.318981791588008E-09	-1.5041159823705702E-10	1.6968101478114754E-09	1.4938689249638065E-13	-2.5224232286587803E-14	-6.775349338728873E-10	-2.762502769891773E-06	-9.527114939823895E-07	1.996909806980626E-09	1.3965000131861599E-08	-3.723928339270613E-11	2.5418623756690146E-10	1.7732212262552817E-297	-9.369647506897966E-296	1.7944370078681034E-10	5.130547285762585E-10	-1.886429833736797E-12	-9.196370055987123E-12	2.504327113200428E-10	4.2408050314976314E-296	1.3325560303953618E-295	-8.037324431791963E-296	-4.105799560405353E-293	2.285868263029966E-12	-2.7905357009907154E-08	7.275972815352993E-10	2.9282867288660363E-296	1.2337824046160372E-299	2.5E-323	2.5E-323	2.5E-323	4.424209493575254E-296	1.2320477012711726E-10	0	0	0	-2.615630195412465E-299	0	0	0	2.5E-323	-9.334148724692253E-10	0	0	0	7.5332116798098104E-295	0	0	0	2.5E-323	-1.2422999143335454E-09	0	0	0	-1.2882365851439221E-296	0	0	0	-2.6942842597878654E-07	1.917545345709889E-10	0	-4.2704183893995064E-15	-1.672191944231689E-12	3.363550553786527E-07	-3.325887729410296E-10	0	5.194396526141824E-13	1.3866741469748327E-07	6.349332493374675E-12	0	7.325412620737331E-12	-8.02626963207818E-08	2.2066147965765103E-08	3.0275645001388296E-08	-1.7376918980754036E-09	-5.701833559035423E-08	5.384857943719767E-09	1.6005589626429753E-09	6.241611605208588E-07	-1.0274521629247982E-06	-2.7050912105856295E-08	-2.4466435786478217E-06
1.3707581274056973E-07	-3.3178762620373666E-08	1.0798550262051182E-07	-5.66613473878239E-07	-2.4868675817875776E-07	-2.2277465704916883E-09	-1.2754200808037685E-14	-5.089358221223814E-09	2.288810566131819E-08	-5.349305468844527E-06	-9.663309541174903E-08	-5.905120114522638E-11	2.946185196102808E-09	2.758615428060572E-07	-8.58373706399963E-07	4.714066461914702E-10	-1.635543042234617E-11	-3.84194429146696E-09	-4.4296546486710563E-07	2.2863142674797903E-09	1.8598066768731337E-09	2.8543821498908365E-08	-9.849085537678118E-10	4.2443297894408765E-10	-2.015539028363398E-297	8.568872906912973E-294	2.2851615533001357E-10	-6.656951512718404E-08	3.31669522871254E-09	8.10774397411601E-08	2.0938297222481694E-08	-8.241478602451466E-296	-1.5874471843470896E-294	1.8399300319357904E-292	-4.113787014281449E-293	-5.958304637528906E-10	-1.222439493737033E-10	-8.31295500194099E-12	5.693729276155696E-295	1.7131072132276566E-297	2.5E-323	-2.5E-323	-2.5E-323	3.059797448365049E-296	-1.028616926680809E-13	0	0	0	2.8964957507295546E-298	0	0	0	-2.5E-323	-9.143121592517733E-08	0	0	0	-4.5489531854797824E-293	0	0	0	2.5E-323	-1.2370661684960058E-10	0	0	0	-7.0433458750634916E-301	0	0	0	-1.0761122992942205E-07	-2.6286108555929313E-07	0	5.4678109139551495E-11	3.2341662260190483E-10	4.5979181852594255E-07	1.8809029396132296E-07	0	6.2576771143344685E-12	-1.612411395160196E-07	7.341806407048535E-07	0	-1.105435426905038E-09	-1.893573758649207E-08	4.025069273879584E-09	-1.2902175802425788E-10	2.334012179960614E-08	-7.187996720610303E-07	-3.3736664094159615E-08	8.419099178495022E-09	-2.0134828929513913E-06	-2.4959941355730136E-07	-4.794786097427919E-06	9.075665817639477E-08
-1.2303675571510196E-09	7.711032994223374E-08	4.351503719187812E-12	-1.619061760103122E-07	1.670719800809721E-08	-1.1580301455337095E-06	-1.344993508483564E-09	1.5371212183400956E-09	-1.5153998357252726E-08	3.414707811310347E-08	-4.7387208262682E-07	1.736605148967737E-09	-4.857891148866586E-09	4.368501306048642E-07	5.318338799451418E-06	-1.3947635533864832E-08	1.2338393150609776E-12	-6.209460250538521E-08	5.569595721078942E-07	-4.6998736475509356E-07	-1.0479956868209113E-06	-4.975244486511122E-08	-1.0221596752969157E-10	2.2484538337732534E-11	8.410980209133267E-298	1.5224660694430993E-295	-6.549722251171703E-10	3.683474324053269E-10	-1.068305922399467E-09	2.576917298953575E-11	2.9607077498701665E-08	1.866414044499032E-296	-1.3051553273505414E-295	-2.850441814972805E-293	4.881047827464649E-294	1.8352216139761536E-10	-1.7983785951100294E-08	-2.372768123689639E-12	-2.3648565041762504E-296	1.3304197064228941E-298	-2.5E-323	2.5E-323	2.5E-323	-3.3295738156067293E-295	-4.325645835000321E-11	0	0	0	-2.043573059783631E-299	0	0	0	-2.5E-323	5.1890137927721224E-08	0	0	0	1.120472847779823E-293	0	0	0	2.5E-323	-4.709641829934052E-09	0	0	0	2.1403916832027548E-298	0	0	0	-1.1762533141141954E-06	-2.4660060008040213E-11	0	5.856143970929468E-12	1.1442815360837068E-07	-4.975683394612499E-07	1.5846515332693785E-10	0	-6.340638213262351E-14	-2.25790287391011E-08	1.22530990934893E-09	0	8.136326182101483E-09	-4.0475964401341055E-07	1.4608191312461066E-10	-9.827468601138176E-07	-2.571724753019785E-09	1.3523078310167161E-08	-2.5846005779535006E-10	-9.662169341057909E-08	3.013986714603397E-06	-2.908022069789391E-06	-2.8111983024108504E-07	1.701464868419211E-07
1.0319396131071974E-06	-9.069053471382701E-10	1.5916700924894088E-07	-1.3514194704316643E-06	-1.5508717202953234E-07	1.2809415425377548E-06	-2.566384233045729E-15	5.366239901569008E-10	-4.6976040241316235E-08	1.2359164746209284E-06	-6.015223101464454E-07	1.1935152753992453E-10	-3.581684281675332E-07	1.4411435730147003E-09	8.067223516394165E-07	-5.047274585587074E-09	2.3196321334623002E-11	3.0174037047829112E-09	3.4216423921682796E-06	-1.2331740753674758E-08	-3.3663830232569085E-07	-1.5175577798338288E-10	-6.590192535415611E-09	4.262010496735443E-12	-3.419472610503402E-297	7.692655844711437E-294	1.9387527430419012E-11	1.181356612589764E-07	-2.8847810135668774E-09	-7.440248834364963E-08	5.938374240689296E-11	-3.613684774272144E-299	-3.07431027654263E-295	-1.4742638349825291E-292	4.74106034416616E-294	5.275243374445139E-11	-1.4892832729680884E-08	1.339654082986781E-13	-5.70160448451269E-295	-4.9890801316112575E-298	2.5E-323	2.5E-323	2.5E-323	-4.4609754281530125E-293	2.7021163517397956E-09	0	0	0	-2.662679061462138E-299	0	0	0	2.5E-323	4.8403027040515576E-11	0	0	0	-3.5188692252836505E-297	0	0	0	2.5E-323	4.106361450492727E-09	0	0	0	4.902837653160633E-296	0	0	0	-3.220474662844318E-09	-2.2875465182889227E-08	0	4.960239860029709E-11	9.356189732677045E-07	4.4890918575452E-07	1.0416719032663619E-09	0	-2.0821393318199158E-11	-2.7278343042757253E-09	-6.835250993891776E-07	0	2.1916701954120652E-07	-3.3547564913323895E-07	-4.3723328390080766E-10	4.568173217278274E-09	-7.272686266338827E-08	-1.891637341011767E-12	-3.7859708941490725E-09	8.732383133155543E-08	9.205815410669463E-07	4.137445426581317E-07	1.5587218746871156E-06	2.778409063669234E-06
6.098382583004214E-08	-1.948624754793482E-07	3.3373650256098204E-10	1.2468578378135333E-06	4.1825441982009677E-10	2.3515614607830583E-07	-6.263185380738958E-10	6.497526942454019E-09	1.3912666672652951E-09	-1.7655975266094843E-06	-3.9003142831674256E-08	9.210822915319003E-17	1.7077897883540339E-09	-2.143540090365882E-09	-2.9572794653312826E-06	2.208155136867631E-09	-1.6503467925643843E-11	4.222427910778359E-09	-6.551004808841522E-08	4.960589361765047E-07	5.841304257523631E-08	7.1759612511243975E-09	1.9738082108833137E-12	5.6890542267118746E-11	3.412321532577703E-296	-2.4567914500609655E-293	1.322627613668172E-10	-2.7738278316347497E-07	3.584830623097611E-09	7.457895338600851E-09	-8.365929319247173E-13	3.272158364557929E-297	2.1381717981277668E-294	1.0690561717274914E-292	2.3471599542790903E-293	-4.568978722595538E-11	-1.4173086529414218E-08	7.719219811607282E-10	3.3602041904378185E-296	1.0899973188753577E-297	-2.5E-323	-2.5E-323	-2.5E-323	-3.2917772313137535E-294	-4.276722107997988E-11	0	0	0	4.368341340699687E-298	0	0	0	-2.5E-323	-4.156510379410267E-12	0	0	0	-7.813349405268694E-296	0	0	0	-2.5E-323	-6.1630878668853125E-09	0	0	0	-1.1909552235527274E-295	0	0	0	1.016725347387916E-06	5.639580561057938E-08	0	-3.4402195020432207E-09	-9.429814667947044E-11	3.6217816299780005E-10	9.897127199396239E-11	0	4.277648493408564E-11	7.762751444304143E-09	5.502287476331023E-07	0	-7.0074798257078605E-09	-1.1116555343197674E-07	7.584143646768285E-07	3.783130369140404E-09	5.508782801035146E-09	-1.1060327322143294E-07	-9.65904080493584E-08	9.347656910838824E-10	-2.8434577912458105E-06	1.2605690037951038E-06	-9.157397231094507E-07	1.3805641540485722E-06
2.9344503901700228E-08	-5.544246715298791E-10	-2.314900978960328E-08	-7.021897707518753E-08	-9.118602203463557E-09	4.616500137705256E-08	1.0973313932808448E-09	-1.3292667759096283E-09	1.9091133477975895E-07	-3.791493394555474E-10	4.366601674630865E-07	-1.1915663072136982E-12	6.444225478686994E-08	-1.3647929163877386E-09	2.790496170660317E-08	3.1133235111522584E-11	-4.123844403444562E-12	2.229117830792293E-08	-8.621817185295856E-06	4.664097596969175E-06	9.62254153667246E-07	8.527690589997258E-09	1.5383313168621235E-09	2.95018500565125E-14	-1.5998605382717285E-296	-3.775957985089575E-294	9.984571262194607E-11	-1.0248834507970271E-06	1.1308264175015113E-10	2.497407988295039E-09	-7.8065372370409E-11	-2.2593057316137325E-296	4.191430754521007E-295	4.214119881187448E-295	-2.6271110041587417E-294	-9.486484304321364E-11	5.928309058196305E-12	1.1200115769231143E-11	1.875031191665889E-298	5.590420144416636E-295	-2.5E-323	-2.5E-323	-2.5E-323	3.963481313506833E-294	-2.8270338464886145E-09	0	0	0	2.3026388359684875E-298	0	0	0	2.5E-323	-1.4957400287120978E-07	0	0	0	1.8887598587451184E-294	0	0	0	-2.5E-323	-2.410161122458119E-08	0	0	0	-1.9839314853898432E-296	0	0	0	3.684687155221728E-09	1.5378001962345146E-07	0	-2.260237285713127E-09	-8.22479835113031E-08	-6.279320134467638E-07	-2.203553514323684E-08	0	1.6586108084242811E-13	-4.091226820142278E-06	9.046684032851211E-07	0	-9.469000769742293E-08	1.5263807025255834E-08	3.492361510897812E-07	6.545684005772961E-07	4.011525781403891E-09	2.4052918394861503E-12	1.3397275237269293E-09	7.891764786957859E-08	-1.155388625987668E-06	3.540309748206504E-06	9.586541043664832E-07	-9.569997501397092E-06
-2.225750859041302E-06	-5.460214462450091E-08	3.285678222703043E-08	-8.423470963316928E-08	-1.2007363315573976E-08	-1.632937564499838E-07	-1.0828779296832318E-11	1.3822962851121295E-09	-1.5550543499827023E-08	-1.590994428428643E-07	2.931380260440306E-07	2.402519291302532E-09	-1.7756761997578724E-07	1.0288537082346358E-06	-5.9338552065923505E-09	-1.9840857106373308E-10	8.906871881839193E-12	3.772914336934261E-08	2.0601341463638763E-07	-3.745662343920162E-08	3.0983840803246264E-11	-5.377474097655599E-08	-2.2795623021227595E-09	1.325164429770118E-14	5.2658190038503E-296	1.3194044515548152E-295	-2.8411228299962334E-11	3.7435069535639564E-08	-5.435624493018817E-10	-1.2812972445753364E-07	9.046980775374347E-09	4.93636905336802E-298	-3.722689433761173E-300	-2.6320717598276916E-294	8.759927315499113E-295	9.453775410029424E-11	-2.914007113038595E-14	3.0772838844505157E-15	-1.8302631211447202E-295	-9.094138654134074E-296	2.5E-323	2.5E-323	2.5E-323	-4.8922629956323694E-294	1.6233333448882353E-12	0	0	0	-5.10374443311663E-300	0	0	0	2.5E-323	4.45664975913909E-10	0	0	0	-4.984428934227132E-295	0	0	0	2.5E-323	4.398299528424459E-09	0	0	0	-3.380078990691516E-297	0	0	0	5.097682645436536E-07	-1.1526149885615093E-06	0	-2.1097376048410318E-09	1.5351421356225822E-08	-3.1405215370877675E-07	2.702049888110564E-08	0	-1.297301349194922E-15	1.4989935269737598E-07	2.5286158694996996E-09	0	-1.1649734007838285E-08	-9.630014760752974E-08	-8.607625169560811E-07	-5.643476357668303E-08	-2.1756476142927617E-09	6.619794719380906E-11	-2.5462080912524842E-08	6.78791266228247E-11	6.213605103838085E-07	-1.1341286920073678E-07	-9.414083779831535E-07	-2.8500230175264142E-06
-3.7521974973373505E-08	-7.428232486710268E-08	2.4470872800727502E-08	-4.6155487117122415E-07	3.3034633862833883E-09	-1.152798532089063E-07	-4.610540225028231E-10	-1.1808710210910583E-09	6.462883003821373E-08	1.421900933171194E-07	2.570321225073854E-09	-2.3567699505532336E-09	8.750519644128148E-11	9.155650633867857E-08	-5.658315993110129E-07	4.763579451589705E-10	9.07085736547617E-12	-3.791499748458641E-08	-2.611254477833991E-07	-1.8766175367174317E-07	-1.0499335544087729E-08	8.567630278737169E-12	1.629258683461396E-12	-1.4331976170181246E-12	2.5493472334358392E-297	8.140625909364999E-295	-1.3638139220943206E-12	1.6713418251552122E-08	-1.0829668684554571E-08	-5.571042851983774E-09	-2.2091388709523952E-11	4.6159381253314175E-296	-2.9636687532370117E-297	1.1826029383109873E-296	4.846441443488828E-293	2.705284838179103E-15	9.406344396264E-09	-3.117550475989722E-11	2.4821807615851265E-295	2.0772368236524704E-298	-2.5E-323	-2.5E-323	-2.5E-323	3.2712397525324E-296	4.99166688547111E-09	0	0	0	3.845100419014784E-299	0	0	0	-2.5E-323	-2.2589382257534558E-08	0	0	0	3.734136446185451E-294	0	0	0	-2.5E-323	-1.6011720249533234E-09	0	0	0	1.9071476405236292E-297	0	0	0	-2.0403015814789995E-08	1.013754271993442E-07	0	3.315385674025677E-10	-3.371153265892005E-09	-1.4181465727138174E-08	-7.577903216356684E-08	0	3.903081747486734E-13	-2.708682012038176E-06	-1.147264173772651E-06	0	7.516166794873739E-10	1.9876010637153315E-10	-1.1171807454047798E-08	1.517373785484576E-09	6.23600964870794E-12	-1.444847134431925E-06	6.757337617824774E-11	5.2017178389509714E-08	-3.5127054523529427E-06	-1.779931764497497E-06	3.0538511533741105E-07	-1.7180851312345782E-06
1.1550955052918545E-07	-1.4646946803851209E-08	-1.4051479813908802E-11	-5.442502969406087E-08	3.5819344340294427E-07	3.0839927047896717E-09	4.129790127225627E-10	6.065325607384765E-10	6.822567807187726E-08	-4.075831528220063E-07	1.4212359112446102E-07	8.492309372119397E-11	5.1210011549405285E-09	-1.09076476303E-07	-2.7634938253371704E-07	-1.3831125160126295E-12	-9.270472393823162E-11	-1.0426891249317958E-10	-9.96931951428408E-08	-1.3554056089815135E-14	4.41097161872705E-07	-1.7579006449419147E-11	-2.3923602910874248E-11	-2.803958061526671E-12	-2.1638512839334926E-296	-2.956578063227427E-295	-1.7640406681589758E-13	-2.1260854524263096E-08	-3.097610760341223E-13	2.6948499930779037E-10	1.4605139031239673E-09	6.040675582968316E-304	1.6171907774121002E-298	-4.465241546941658E-295	1.9219296040676673E-293	9.119098242489401E-11	-7.676020786539637E-10	-1.272374644346857E-15	-2.8463623931497133E-295	-2.7377129427566853E-295	-2.5E-323	2.5E-323	-2.5E-323	-1.1540139936641397E-296	6.491102843684926E-10	0	0	0	-4.035727737495392E-303	0	0	0	-2.5E-323	-2.16154544652263E-08	0	0	0	1.0578255175101759E-294	0	0	0	2.5E-323	-3.762575140423708E-12	0	0	0	2.343619322053055E-296	0	0	0	1.830360385309012E-07	4.1599903644523696E-08	0	-3.704334705644509E-12	7.364624471815924E-08	-9.916618034782923E-08	6.086579242395702E-13	0	8.270165394308973E-12	-3.890764731144846E-07	-8.493487953100602E-09	0	4.358360451244692E-09	-3.429836671391556E-10	4.5206316209267245E-11	1.1865881275250016E-10	-1.4693230459397623E-10	6.122903436903114E-09	-1.229690471352938E-08	-1.0247988409636244E-13	-1.966864917871532E-07	1.2186240100369365E-08	-1.8066755937777617E-07	2.958273178500995E-07
6.15090546473915E-08	-8.675576387936682E-07	-1.5203998058825605E-08	1.8682500659770267E-08	1.183049727819554E-08	2.6969286414525844E-08	-5.271656611159361E-11	-5.035135705746298E-09	8.408552212385948E-09	1.914552572739209E-10	7.219111352441922E-07	-4.344791155667056E-11	-7.253171253398151E-08	-1.2090701908098688E-06	-7.472072504643423E-07	5.171798012479335E-10	-1.4592772895906212E-10	1.2254073290779311E-09	-1.5340116282605332E-14	1.5971085051044493E-06	5.409737753776768E-09	4.95238444642481E-08	3.1013208378208434E-09	-1.0838621883798777E-12	4.364469725371444E-299	-2.1630755323546466E-293	9.015477780007195E-12	-7.156563425275417E-11	9.36540570946802E-15	-7.842043767991203E-11	-1.1482329541592133E-10	-9.920313059699508E-299	8.620945135260005E-295	2.86981400373988E-294	6.664424284870827E-294	-2.767669983026777E-10	8.269384048266746E-14	6.579957044334458E-12	1.974805934036333E-295	2.777797517587018E-295	-2.5E-323	-2.5E-323	2.5E-323	7.482900867743469E-297	-2.2071103580775468E-15	0	0	0	3.4862715789998324E-299	0	0	0	2.5E-323	-5.819287760834242E-12	0	0	0	9.835294656471158E-294	0	0	0	-2.5E-323	-4.138439474394187E-13	0	0	0	5.8525176099616975E-298	0	0	0	3.341404546731206E-07	-2.4820825233775693E-11	0	1.2682970193796156E-09	-1.478227867048933E-07	-1.360111601275998E-06	-2.1438983036915593E-09	0	2.8710777768654858E-15	-7.467008616927584E-11	2.0251515016853129E-07	0	-2.5017268417850175E-09	6.170674382141075E-07	-1.5258215820054876E-07	1.2259323722123984E-08	3.1611798052051692E-09	-4.0297404933573166E-07	7.939303081928583E-10	9.375842983348735E-10	-2.019067715983982E-06	1.1676519922093938E-07	5.036138781452509E-07	9.160352314240655E-08
-9.083839816166132E-08	1.0646133706185775E-06	1.1741330554909786E-08	-7.892647145061638E-07	3.28644830512999E-09	-6.081660464158324E-07	-7.834479068986382E-10	2.124296931550443E-09	-1.9885292420870444E-10	2.4325314402583112E-08	2.1541703371348763E-07	2.6391047926635556E-09	-4.733289605200211E-08	1.0017501832565036E-08	-1.9271262820796087E-08	-4.304848616538422E-09	4.2317264553672186E-11	-8.308009391977381E-08	2.2097690586632897E-07	-5.589093238115321E-09	-1.0799112719351086E-06	-2.3124307554766827E-08	-1.347225303117615E-09	3.018387206872541E-10	-2.802335895999717E-296	5.085018042774477E-296	-3.147931138679567E-13	1.879453479015681E-07	-3.2067429610971125E-08	3.037347002711251E-10	1.5771141841613394E-08	7.13851523463113E-296	-3.7910333834721415E-294	-6.716199108528812E-293	8.42269735695807E-295	5.110267150790984E-10	1.6533342072472374E-08	1.1812628775872298E-10	-1.7970807530878452E-295	-6.735330103429541E-296	2.5E-323	2.5E-323	2.5E-323	-6.367306419737772E-295	4.8539582420152E-11	0	0	0	-3.7521333202931486E-299	0	0	0	2.5E-323	1.0077521924386157E-08	0	0	0	-8.23566991451365E-294	0	0	0	2.5E-323	4.617135730068469E-08	0	0	0	2.3710555468700727E-297	0	0	0	-1.7788746050297154E-07	-1.3948424970429703E-08	0	3.443825614400091E-09	5.708478757488335E-08	-4.524660513000481E-10	9.020118314570406E-08	0	-4.709298657336998E-12	5.804608141329006E-08	-1.0423123682219274E-06	0	5.78571768290914E-14	1.5689393727606012E-08	-2.5520398934259685E-07	-1.9700113552899406E-07	-1.1641619489170077E-07	9.232842602280536E-08	2.322950423215196E-12	-1.3797922554251076E-09	-1.302834627590354E-06	-5.896754384864388E-07	-1.7950968272804987E-07	-3.6810531638264844E-07
-2.35780935848877E-10	6.697536152159345E-07	-9.27192837251338E-08	5.165691940440837E-09	2.6465331532220274E-07	-2.98321958099205E-07	2.0538333727000512E-12	-1.5510654248150195E-13	1.289595808767224E-10	-6.387221177545979E-07	-3.939095262188038E-07	-6.210111677260818E-11	-4.694655408132261E-09	-1.3860319240465069E-08	6.917697772043912E-07	-2.3417346129118387E-11	2.8505504883435887E-10	-2.285870187219271E-11	1.1814264074808543E-06	2.043104166771121E-07	-3.655354648506704E-10	9.887867978123835E-11	-9.77764865553955E-10	2.079768298557669E-11	-3.794474316230803E-297	1.1287605595708192E-294	1.5864226630606263E-10	-2.370410473104137E-10	1.0243558338385192E-09	-1.0053528086392228E-07	-1.2938582047638622E-08	-1.6701204016175192E-295	1.1899426367019589E-294	-6.327069998206366E-298	3.962439981089577E-294	1.6234916373959073E-14	-2.715711958944885E-09	1.879235666494974E-09	2.819433386187232E-295	1.073772904332543E-294	-2.5E-323	-2.5E-323	2.5E-323	1.2724435990584732E-293	2.903220609687782E-11	0	0	0	3.6862171596492726E-300	0	0	0	2.5E-323	2.4547773947769454E-08	0	0	0	7.3529975748554785E-295	0	0	0	2.5E-323	-1.3133524203736921E-09	0	0	0	-8.159135135189994E-299	0	0	0	-9.10931795754827E-15	1.0321312783272747E-09	0	-3.445348014606643E-10	-1.1169622021704274E-07	-6.905762756930972E-08	-7.9832378690311E-08	0	-4.1961169684011497E-13	3.7797080556576517E-07	-1.1991048398791346E-06	0	5.3131884505048866E-08	-2.4477552395072354E-09	-1.136215907479423E-07	3.0432525322613266E-08	4.699464880642938E-10	-4.5178400119286786E-07	7.514157061110439E-08	2.226766395833099E-09	1.0720004758337451E-06	-7.68396141473049E-07	-1.2607704375903545E-06	9.53280938837935E-07
1.921325479316466E-06	2.344202471386459E-08	-1.2426964012722374E-07	-7.0671025502386E-07	-6.791417523716874E-07	8.684588471536264E-08	1.2181232394928346E-09	-1.139763045051854E-11	2.2478718800516808E-08	-4.0290277918142015E-06	4.0333927800625024E-07	3.4800027556536372E-09	6.710027068489091E-08	-1.07599193898526E-07	-5.581856518917968E-10	6.526592301029554E-09	-9.265771514377163E-11	-1.4248021037295294E-08	-9.502420873834083E-10	7.990314851596932E-08	6.470769266780488E-07	1.4341853007595419E-08	5.235559567726219E-10	-6.925131363364163E-10	-2.5158001246710176E-295	-1.1740596956768163E-293	5.227097991137623E-10	-2.896309305064166E-08	9.807306369946037E-09	-1.6095043380588473E-10	-6.624057545098324E-11	-1.2718962571844854E-297	4.927920192949253E-296	4.652873648494308E-293	-2.542781190201007E-293	3.6542927672679766E-13	-2.322180926360994E-09	4.421160172424091E-13	3.6766145675451755E-295	1.1588171905068477E-294	-2.5E-323	2.5E-323	2.5E-323	4.026189167341744E-294	-4.4907728807265644E-10	0	0	0	9.258650753572659E-299	0	0	0	-2.5E-323	-8.236112265100411E-08	0	0	0	7.416529654121184E-293	0	0	0	-2.5E-323	-1.9586796232111518E-07	0	0	0	-1.2311276797039023E-295	0	0	0	1.9581315828760933E-06	1.1361539399759537E-08	0	-6.497441995965914E-11	-1.7658379360582063E-07	-1.6525797223521885E-06	-1.6873439634932805E-07	0	2.504015180679922E-10	-4.197219339079123E-06	-3.450476738620969E-06	0	-6.525307381354075E-09	4.4591559119562756E-07	-3.137463713239595E-07	1.0541299315549745E-06	8.616857982784344E-10	7.132494458382658E-09	3.0163478946997492E-09	-4.098005961554839E-08	-2.5093435441554007E-06	5.453367110118384E-07	-4.073886299134018E-06	-3.1737775911089713E-06
1.111449455534246E-08	-9.895143525507603E-07	-9.270364289218565E-08	2.4675191147941536E-07	1.39166010000812E-08	2.2621678041576876E-07	2.268703754710004E-12	-6.257486340052683E-10	5.9526677155256855E-12	3.4020503376897713E-06	-4.714351882838358E-08	-2.1306119314704712E-14	4.224217886657462E-09	-9.097359210381459E-08	-6.172228111114547E-08	-2.1262737220672513E-09	-8.392580909086442E-15	-1.7159245522713513E-09	3.522086764178947E-10	1.7251855577269005E-08	4.074787063827567E-09	4.261110357432352E-10	1.3047530355223364E-12	3.085622976882154E-11	5.024213126962209E-297	-2.724860688210205E-295	-1.894594708517478E-14	-7.348015903055524E-12	1.9971910060571933E-12	-6.165771917017932E-12	-1.2488419137770454E-07	-1.0092339007244118E-297	1.577919780538962E-294	2.536498191350127E-293	-1.7649095547255142E-294	-2.0250378020505132E-15	-1.6112574882455372E-08	1.5917211673321894E-13	4.226977834124061E-302	5.678823034447961E-296	-2.5E-323	2.5E-323	-2.5E-323	-1.9745444347103895E-296	-8.3294891154322E-14	0	0	0	-4.1285942080176E-302	0	0	0	-2.5E-323	-2.2517249400131545E-09	0	0	0	1.7828259998037874E-294	0	0	0	2.5E-323	-7.528672398311484E-11	0	0	0	-3.081738260229787E-299	0	0	0	-9.536786783037866E-10	-2.542044838930989E-08	0	-4.132587455722457E-12	-2.2929968029132226E-09	-2.1940534454454705E-09	-3.770048920390775E-09	0	-4.1362103603860545E-15	-1.7024577666484213E-07	2.492638008427381E-07	0	-2.1424036353277886E-07	-1.1682673458715597E-08	8.083792026969872E-08	1.1703542294197753E-06	4.057528637900239E-08	-3.2231356490604554E-08	-1.1297720436987887E-09	8.311287409586406E-12	2.554540126263468E-07	1.7236476131425253E-07	3.2404722474525603E-06	-9.485769431869914E-08
-1.812772263012796E-07	2.4617878934638237E-07	3.613427305331083E-08	2.2267557140514047E-07	9.144377566821213E-08	-6.188755587145616E-07	-1.281415999437008E-11	-3.073561669731322E-11	9.990441723300349E-11	-1.3270245001572251E-08	2.2901778031440044E-08	4.957688992328983E-10	-3.120915519889744E-08	4.204414340666575E-08	-1.3619509896891733E-08	-6.433308270122173E-11	5.707358531117537E-14	6.737764782626116E-10	-8.550772237313178E-09	1.1901621028863243E-06	7.430906001441032E-07	9.632816346992759E-11	5.834360172368785E-11	-2.177652363952967E-11	1.0551866773628618E-297	1.2732892057495556E-293	1.1337027715377795E-11	-7.797338268630434E-12	1.555025970166344E-13	2.3037256156862794E-08	3.6288453932627964E-09	-1.101839517861475E-295	-7.2567212950387894E-295	-1.0478951436428333E-294	1.1293244735722953E-293	-3.2811673612816847E-14	1.2423204565703769E-08	6.954134078776642E-11	-5.021412204015304E-295	1.0745236009665924E-295	-2.5E-323	-2.5E-323	2.5E-323	1.0479806777263238E-293	-5.81065084271825E-11	0	0	0	-1.5195433630706598E-302	0	0	0	2.5E-323	-4.329564493460195E-09	0	0	0	1.484493110024998E-292	0	0	0	-2.5E-323	-1.703006845541257E-08	0	0	0	3.446025413342375E-296	0	0	0	5.015156896826411E-11	3.30573294442971E-12	0	5.4584318714021444E-11	9.241824954248741E-09	1.588964590087295E-06	-1.3201823371518315E-11	0	1.230100548514854E-10	-2.474432268778083E-09	2.3286294725548378E-07	0	1.3798021632505543E-10	2.5092718471885352E-09	-3.931132723769209E-11	5.865589307402238E-09	2.3336326495350263E-08	-9.938275153836651E-09	2.825422276112952E-11	3.4955150452444454E-10	2.534186964897727E-06	8.514459258069715E-07	5.6441572921544615E-08	1.5585555958781678E-07
9.917491040377129E-07	2.525251688183399E-07	-1.5121675595860525E-07	2.6586317125397377E-08	5.306482990945966E-08	1.979043770038988E-08	1.9630006255412174E-14	1.7985238792739424E-11	4.310604249133567E-08	-6.493267595871632E-07	-7.93555152342487E-08	-5.213215294492332E-10	2.2546269347221287E-10	3.313894064098386E-08	4.9113213221192115E-09	-9.693252608352099E-12	-1.8315253757107324E-10	4.900465936942335E-10	-6.730449592369237E-06	4.07823086035766E-09	-3.6300151194228455E-09	1.9471043948485445E-07	4.17106804235868E-13	-2.515065536244821E-12	4.177164138541902E-298	-5.566424453430766E-296	6.327024193048308E-11	2.1323459268371006E-09	3.6290990012610473E-10	-7.156535751726551E-10	-1.187800220514289E-08	1.1141754857571427E-297	-5.392592665533867E-296	7.614583244541688E-296	-2.9298020637556067E-294	-4.265965715317952E-10	-3.690418533528449E-11	2.547878742008074E-12	-1.7739637937449609E-296	-5.85088905053003E-296	-2.5E-323	2.5E-323	2.5E-323	-4.532098006583527E-299	-1.029350206406176E-09	0	0	0	1.314924427677613E-298	0	0	0	2.5E-323	-6.967870826569024E-08	0	0	0	1.672580733351418E-295	0	0	0	-2.5E-323	-6.919828821585667E-10	0	0	0	-8.339240485949336E-297	0	0	0	4.4458223951045807E-11	2.665334431465835E-07	0	-3.2796435550547162E-09	-3.723761762304217E-10	-1.025871453223822E-06	-8.794386729653705E-08	0	2.136847447198998E-13	-3.5165516679303958E-09	-2.2768448446317786E-07	0	-1.236322242662796E-07	9.48864863096652E-09	-7.500233253218015E-08	6.171397157336039E-09	-2.319945374498869E-09	9.316205817613515E-07	1.1324698245581251E-09	3.584247238957655E-09	-4.0733519814526346E-11	-3.57838249120686E-07	-8.681315579387658E-07	-5.17723355925192E-06
6.774641013816862E-07	2.759001672387148E-07	-5.693933852853584E-09	-5.875043783108951E-07	8.028601469343786E-07	1.0236920905987338E-07	8.837312783016222E-10	-1.1636493536358967E-10	-6.737305988393938E-09	-3.6525817980811597E-09	-5.387642661293687E-09	-1.2498822366064226E-10	2.402567842289229E-07	-5.131574788130583E-07	1.256735281711623E-07	9.045492342872782E-09	-2.4134180779812576E-12	-3.7248763726961053E-09	-4.631097432720903E-08	6.2466207860214644E-09	3.61975002197491E-07	4.893917633507152E-08	8.226674923935248E-10	-4.706045371525973E-14	-1.1109299535524072E-296	-1.2002488058801306E-293	1.2743316791366273E-09	-3.8066011145981025E-08	1.1616749160637913E-08	1.422954985082118E-07	-3.1006097408841036E-11	-7.244559165645701E-297	1.9703355490715386E-298	1.37713385939676E-293	3.406982767780918E-294	9.622520732006366E-11	5.283484153424214E-10	8.174672149943042E-12	6.599764743720033E-296	-1.3205166946837826E-295	-2.5E-323	-2.5E-323	2.5E-323	2.2154050785722248E-293	-1.5578248769294983E-10	0	0	0	-4.8489177987652435E-300	0	0	0	-2.5E-323	1.506971136699985E-08	0	0	0	8.800640024953901E-293	0	0	0	-2.5E-323	-1.0816413722044605E-08	0	0	0	-1.1021293615452202E-297	0	0	0	-4.468144788319211E-08	1.1630454029604903E-07	0	-4.642930240990422E-12	-1.3724514166459079E-11	5.086993286032616E-07	-6.479521431323846E-08	0	2.9274851674946075E-12	-5.047782807243706E-07	1.987083246977786E-07	0	-3.707981095577831E-07	5.128638754772613E-10	3.111455368578502E-07	4.6399416780355807E-11	1.0280504693299742E-09	3.0713935884756276E-12	-7.954778885389228E-11	6.773090475574016E-13	7.677391327691206E-08	9.242080800352279E-08	4.608039091963022E-07	1.1231455894572724E-06
2.948354612149204E-10	-8.171083229930429E-08	-4.0171675451035E-09	1.524578448637993E-06	-5.204850923508953E-07	-3.2297723145497376E-06	-1.1766146337232505E-11	5.9231757978650925E-09	1.406664171648755E-09	4.06121003558194E-09	-1.275148440874043E-07	-2.3546735116036353E-10	-4.826167997505639E-07	-1.7459531780410267E-07	2.3929139023281433E-06	5.2194072931925305E-09	3.229495475559979E-11	-3.0140464469423464E-09	6.60684274876058E-07	-2.756840369568813E-06	-1.0312734055051238E-06	1.053935560466998E-07	2.7841481502536586E-12	1.973979866097162E-14	-3.869702498038774E-298	1.3046398659515621E-294	9.617334194850022E-10	1.2474532425938775E-07	1.9585233695902576E-11	-4.2682565665312815E-10	-3.37389342223144E-10	-8.531476867901417E-297	2.990666483744945E-295	-1.1450259718642376E-292	1.4237214228881894E-295	1.198959137687454E-10	6.19882017956299E-13	2.0181300255836242E-13	-4.2003555726415373E-296	1.8092055345304366E-296	-2.5E-323	2.5E-323	2.5E-323	2.629362947819321E-294	2.2705211054191163E-10	0	0	0	4.968733063718438E-299	0	0	0	2.5E-323	1.0429692914878061E-07	0	0	0	3.2693393552102996E-293	0	0	0	2.5E-323	1.9697001624815307E-10	0	0	0	-4.4633837817718075E-296	0	0	0	-3.6378671095886785E-07	-3.1394005213734035E-09	0	-2.4100543376109203E-09	3.804244770456945E-08	-7.350535083909887E-07	3.4922146687792347E-07	0	5.91025580456687E-14	3.814081320848257E-08	4.3606515674608914E-07	0	2.565587491887777E-07	-2.9222003249002305E-08	-4.5833443090795794E-08	-8.102223551468036E-11	-1.436959597928902E-09	-5.918242834912831E-08	2.0853183439671154E-07	2.750790079967097E-08	1.494294799444188E-06	-6.182307880028794E-06	5.136524589940935E-07	8.06510765767751E-07
-4.2810198887338604E-07	-4.943377467335414E-07	-6.904389108603285E-10	-2.5073683099241706E-09	1.3361148519533087E-08	5.483071668886884E-08	7.38494798609753E-12	5.240290391549825E-16	4.2693861014482944E-08	-2.488489107790447E-06	-8.572049011339701E-09	6.684837090786233E-13	6.547998599344858E-11	1.9145034154727992E-06	1.3920136483771253E-06	2.6805763893861283E-09	4.40074862813894E-14	3.0938715345734585E-08	-1.2873532549800144E-08	-2.517564850577947E-07	-2.831988458143351E-06	-2.405084227360445E-09	-1.901519620386621E-10	3.031348804105736E-12	-6.086566478322453E-297	-4.327456281301565E-295	4.385499217030004E-11	-4.4288212110908265E-11	-9.861473194330837E-10	2.7703830227067347E-10	3.503200673888627E-08	4.8157720248102175E-298	9.471048097768686E-297	-2.7997793881750036E-293	-6.2480636267425045E-294	-5.12874854756591E-13	-1.0893870288428657E-11	-3.7626698204676126E-10	-1.1151150643227239E-295	-8.046414525347923E-295	2.5E-323	2.5E-323	2.5E-323	2.2409879751168107E-295	8.379043091095872E-11	0	0	0	7.343166901415857E-301	0	0	0	2.5E-323	1.7877513562469615E-08	0	0	0	-6.491701575953679E-294	0	0	0	2.5E-323	-4.027562410128138E-08	0	0	0	-2.60950006700445E-302	0	0	0	-9.447323374161284E-08	-7.0084819594686335E-09	0	-1.1826448307555563E-10	-9.076450115980257E-12	-1.0271493745036432E-07	-5.3308601337278745E-08	0	-9.943787759144639E-13	-1.5988770907605619E-06	-6.424353176333456E-07	0	-2.0966741271624823E-08	1.529904706076304E-11	-7.589208569502615E-08	-2.424036684761531E-07	6.901807180831376E-11	-1.4033274646144732E-07	-2.7698503558122684E-08	-1.1460067174698386E-08	-1.6438367803143274E-06	-1.8350646325924625E-06	-2.6441798479892518E-06	4.627251738602596E-08
-1.3605333268506965E-06	3.970176026860468E-08	9.977855707673447E-13	-8.643686397553597E-07	-4.832048463009775E-07	-6.175556267261561E-10	2.605691847948233E-09	-5.148979690877448E-12	3.836133476339085E-09	-2.9050635177471094E-06	1.7011827895517107E-07	7.813438720369886E-09	-7.148333754361383E-08	1.3619376573472857E-08	6.458288207376407E-08	-3.999722188731052E-09	-4.8412886431718185E-11	-1.953124629670957E-07	5.609385863943754E-09	-7.824520794323283E-08	3.0614190051500564E-07	-2.953508002249492E-09	-1.6977882766299307E-09	-1.6023847749508793E-12	2.878423315698165E-298	5.154728337826341E-295	-2.673819116975502E-10	1.1929704304679315E-07	-6.757854361093378E-10	-8.798460714764698E-08	2.3309673784487545E-12	-2.1365063727049482E-299	2.5079002780552676E-295	1.7982839955942728E-294	-1.4537235395938678E-294	-2.0214572157568475E-11	-2.734985949067709E-11	3.3455960146363805E-13	-2.044560485622865E-295	-6.026058989557512E-295	-2.5E-323	-2.5E-323	2.5E-323	1.2681191032193287E-297	-1.6936679813446775E-09	0	0	0	-2.1213361049031603E-298	0	0	0	-2.5E-323	4.388516545596523E-08	0	0	0	2.671356413410352E-293	0	0	0	-2.5E-323	4.087094648372783E-09	0	0	0	-4.994144278618328E-301	0	0	0	8.331519011089942E-11	-3.8843511954086715E-08	0	2.1521125983650733E-09	-7.038107552578623E-09	-3.2367196979489204E-08	7.705220580828226E-08	0	-4.051814329595837E-13	7.984009977534293E-10	-2.391668673224658E-07	0	6.591560516644215E-09	-7.036443328890119E-11	-2.686223206398682E-08	-9.573482767787365E-12	-1.308094265875162E-10	5.998057217522035E-09	-1.8171770547540688E-11	1.4996919208576288E-09	-8.004609889716286E-08	-4.2974215895061907E-07	-2.9218626455177627E-06	-2.095583262155615E-06
-2.6232534525202558E-06	-1.1175473280592687E-07	7.16719459365588E-10	-3.6819970747892945E-07	1.849050147710843E-07	-9.510936223611092E-08	-3.163414526540312E-11	4.751937317060923E-10	-9.08316076092705E-08	1.8226818739374041E-09	-1.7722054947210692E-08	-2.6265979929362533E-09	-1.8343222984327843E-11	3.3556190170182104E-07	7.500337880314832E-08	-8.080998087342567E-11	8.108840274986759E-12	1.7882680059842774E-08	-2.629939906646911E-08	-9.63883802563857E-10	-9.305608708133616E-07	7.164892665579435E-11	-2.4670448010617723E-11	3.693676018484308E-11	2.439599279686856E-301	3.5890676960758263E-295	2.1992337604914537E-11	8.274951379729872E-09	-1.8671227075844328E-09	-2.6017227151595217E-10	4.405182145853506E-10	-3.901083862414137E-300	-2.927857166105227E-296	-3.8318726156451443E-292	3.83975078552921E-294	3.218165838551634E-10	8.439998951191776E-09	3.902880030761521E-12	-4.833904779980277E-295	-2.1726056727928717E-296	-2.5E-323	2.5E-323	-2.5E-323	-1.8009984134162075E-296	-3.4419724559690555E-09	0	0	0	-9.436997529536888E-299	0	0	0	-2.5E-323	1.8078085997693793E-09	0	0	0	-4.806991793609704E-297	0	0	0	2.5E-323	7.146398360011267E-09	0	0	0	1.5881974703936646E-297	0	0	0	-4.928975649216548E-09	-1.0467261236874753E-06	0	8.571023507828907E-11	3.826041732687737E-07	-1.6677706184036214E-06	2.1149403221159312E-09	0	-1.5106284768491162E-13	-2.837483557990342E-09	4.6488971357707893E-07	0	3.208966073430514E-09	1.5224629272419218E-07	-1.420583651934445E-07	-6.664751570394079E-11	-1.2891504604538443E-10	1.39650104257163E-10	-4.1535171543529746E-09	-5.4936310542133E-10	-4.2555849126081255E-06	9.259125371934887E-07	1.8864731023503096E-07	-2.353010391162024E-06
4.0357374389793736E-10	-7.089197114302577E-07	-3.101290023654669E-08	-8.278819797466502E-07	-3.094612159256477E-07	3.901890502108821E-08	-8.629933486815417E-10	9.078287158382223E-10	2.2166310849253687E-08	-5.4999326477872324E-06	-6.8416868423120375E-12	-2.7238985489422207E-12	6.027006929431565E-08	2.2451692920813662E-08	-6.312311052792398E-07	3.6767152333534605E-12	-2.286111818830883E-14	1.6734430154029025E-08	-7.074674052155777E-06	2.191152365137034E-06	5.857182131793976E-11	-9.849875746130243E-11	1.1675233248514476E-11	-4.34037515873832E-10	5.766217631478769E-296	-1.3635608438090646E-293	1.8371807446343963E-11	-5.028056700899473E-07	1.846960347468347E-08	8.457024573481687E-08	3.914618337057053E-12	-2.287480008797695E-298	-3.7806645765295186E-297	-8.190231329176725E-295	-6.169096142382723E-293	1.0850200173780427E-11	2.1923489207831737E-09	6.886301994903656E-14	9.931621618941068E-298	5.808987424566931E-298	-2.5E-323	-2.5E-323	-2.5E-323	3.0747965008213627E-294	-1.3527439558468649E-11	0	0	0	1.6925570763391625E-299	0	0	0	-2.5E-323	-3.4031500486182184E-08	0	0	0	6.85731239288371E-296	0	0	0	-2.5E-323	-6.339518126208008E-13	0	0	0	-1.142741113720524E-296	0	0	0	3.7421782382197954E-08	8.330319628350546E-08	0	1.7323570837361763E-09	3.4086859491627396E-07	-1.779142931086037E-07	-1.8428872947060499E-09	0	5.150187383866484E-11	-9.544546419223175E-07	-5.8506896989147866E-08	0	-1.1304179138604556E-07	7.2235081807892426E-09	1.8804409628479E-07	8.075309012194691E-11	3.5906730512056055E-09	-9.543238797358443E-09	2.447296002147348E-10	3.966589721002776E-09	-2.962147839954569E-06	8.361520215371106E-07	-4.492148025157167E-06	-7.193557682827925E-06
7.471500192489081E-08	7.248535969785948E-09	1.5940173111962463E-09	2.8095466932634944E-07	3.947216277575496E-08	1.734457526095206E-10	1.3247546023303196E-10	-3.084831358720653E-11	3.087817051532539E-08	5.179308993674847E-09	1.2730663662761452E-09	-1.2850980542134447E-09	-8.313199313220135E-10	-9.666057600821915E-09	6.782743878155643E-07	-5.470666110935813E-16	8.91301356308433E-15	2.534243100494244E-09	1.4210599066537664E-08	-6.038942151129123E-09	5.126772724126361E-09	1.8065859827227307E-10	2.88063894583147E-11	-3.9905249914610327E-10	9.016702130910592E-298	3.240745408833438E-296	-1.2779728673868618E-09	-1.2726765567099838E-09	8.82835195104494E-14	-1.3493681122999155E-10	-3.4796378750506225E-11	7.811013432314556E-296	-2.972345517038684E-294	1.8899854395880048E-294	-5.974656646827729E-294	1.7047252022789803E-13	-1.9604953887324155E-08	2.92935385341934E-10	-8.70078001471497E-296	-6.838536481247523E-296	2.5E-323	2.5E-323	2.5E-323	5.8904597300060514E-297	2.803012304047134E-09	0	0	0	-1.5070954357314631E-299	0	0	0	2.5E-323	5.90428207933012E-10	0	0	0	2.0045649500798793E-293	0	0	0	2.5E-323	-2.0860087520891915E-11	0	0	0	6.196254634177543E-301	0	0	0	-2.1530798049297972E-11	1.8239293253590077E-09	0	7.855883756482054E-13	3.0650647554926506E-10	2.7511626687934905E-07	1.408778777183951E-09	0	4.847320088420674E-12	-4.3735924456744694E-08	-1.5153919239230794E-09	0	5.576817513175266E-13	7.562316947598105E-08	-2.095626631465662E-09	1.193086657419417E-07	4.9103002917439264E-09	-1.269530423564669E-07	-1.0647544028166996E-12	1.7646797793814821E-09	9.97982066773911E-07	2.4305331077403574E-07	-3.402617444354504E-08	2.0400215328196666E-07
