-0.001057883523319379	0.001565444534310065	0.001234102448554101	-0.00017573380018117492	-0.00434294687067315	-0.003287093772778714	-0.0005776242147369386	-0.001368456089467012	-0.0029358412649028117	0.0006534240966147303	-0.0006449884273819892	0.0012447204862776262	-0.0011512325665261791	-0.003787984987983638	0.00028700843727914047	0.0012998456076219994	-0.00052046146259873	0.002106669984515846	0.00199524580905779	0.003802936784006226	0.002900408495845806	0.0023870337240598297	-0.0008033333552308452	0.0026476956154232473	0.0002579005750254432	-0.0032092744913267087	0.0006945226134920507	-0.0002121438690083524	-0.0018419491385412295	-0.0036190951556594364	-0.0010485213446274008	-0.0007759726663247697	-0.0014154454901085054	-0.0007621328111375278	0.00046793220203681404	-0.0006361279917467006	-0.00045077199400277634	-0.002903692448135259	-0.0025520267042227884	0.0012877497833446425	0.00032214734892910735	0.002613292069592852	-0.0002686361807032815	0.0003789320642976656	0.0003443163300137877	0.0036773562454138512	0.00021839821915537057	-0.0008692104570528182	2.2099123727174156E-05	0.0006878136355362367	0.0014623325348326701	-0.001999510101650342	-0.0016200781453862107	-0.0007285082725819036	0.0008701499731134392	-2.3578406230744583E-05	0.0006137631777905471	5.605748300619112E-05	-0.0007667383026945705	-0.003026304120182047	-0.003069087536427222	0.0010740461911134072	-0.004565982775308568	0.0018135911563386502	-0.0012929766926212882	-0.002078904683259054	0.0018724191718013773	-0.0020699338194875125	-0.0008478193994270295	-0.0033429775036934637	0.0021221942590559434	0.002520455632246352	0.0005458725978721528	-0.00043027983515616123	0.00197374652151054	-0.003554281440893815	0.001038948814157968	0.001080419253206905	-0.00019506326487613902	0.001058313963339568	0.0018088785480788812	0.004753247178959	0.004689515257529919	-0.0033868292385345515	-0.00030695587615456777	0.00016188580130245273	-0.002497314157038606	-0.005714876379718974	-0.0028500045713895244	-0.0008793544416710123	-0.00044182399433395875	0.00029637950380679114	-0.000499375579878406	-0.0008419989448256761	-0.0020464180892152354	0.0002987678945456339	0.002852486153250909	-0.003826396417180693	0.00036472365133969156	-0.00012793642642034819	0.002914335200825905	-0.0017725114997750304	-0.003074618131536239	-0.0020735281112653275	-0.003311379490603622	-0.0030722697754971677	-0.0014086559907449479	0.0003030421964194365	-0.0018220537178175195	0.00211513030142217	-0.002133293974344286	-0.0011753112503407952	0.0013401424826558154	-0.0032928362331849054	0.0016729649576377444	0.0002609037910419229	-0.00022345367805994736